/*
 * golden_8_8_8.h
 * Nazareno Bruschi <nazareno.bruschi@unibo.it>
 *
 * Copyright (C) 2019-2020 University of Bologna
 *
 * Licensed under the Apache License, Version 2.0 (the "License");
 * you may not use this file except in compliance with the License.
 * You may obtain a copy of the License at
 *
 *     http://www.apache.org/licenses/LICENSE-2.0
 *
 * Unless required by applicable law or agreed to in writing, software
 * distributed under the License is distributed on an "AS IS" BASIS,
 * WITHOUT WARRANTIES OR CONDITIONS OF ANY KIND, either express or implied.
 * See the License for the specific language governing permissions and
 * limitations under the License.
 */

#ifndef __PULPNN_TEST_GOLDEN_MODEL__
#define __PULPNN_TEST_GOLDEN_MODEL__

#define WEIGHT_INT8 {-3, -10, -100, -42, -35, -43, -28, -100, -71, -12, -119, 27, -102, 79, -42, -17, 43, 50, 64, -26, 59, -33, 40, -106, -8, -19, 111, -82, -2, -128, -81, 111, 53, 82, -74, 50, -68, -41, 90, 37, -57, 60, 1, 32, 26, 14, 86, -13, -8, -5, 118, 51, 22, -11, 7, 78, -34, 34, -51, 17, 109, 67, -38, -42, 127, -46, 61, -64, -128, -34, 0, 14, 30, -3, -34, 84, -32, -27, -73, -120, 78, 7, -22, -3, -48, -37, 109, -53, -56, 15, 76, 40, 54, 75, 82, 28, 79, 96, 49, 53, 10, 33, 19, 45, 6, -41, 60, -18, -20, -7, 16, 112, -103, -37, -12, 74, -84, -100, -60, 111, -14, 58, 17, -119, -90, 104, 57, -32, -12, 45, -11, -56, -11, 3, 46, 76, 95, -19, -116, 94, 1, 98, -42, -20, -128, 6, 78, 43, 91, 97, 50, 36, 71, 18, -2, 64, 60, -54, -45, 23, 82, 5, -128, -27, -56, -28, 31, 49, 54, -24, -9, -26, -62, 18, 15, 65, -73, -87, -128, -77, 69, 7, -81, 30, 127, 127, 122, 21, -43, 48, 16, 16, -23, -2, -6, 94, -15, -115, 49, -78, -52, -31, 14, -96, -67, -120, 10, 29, -60, 9, -37, -23, 1, -22, -1, 23, 51, 86, -47, -71, -81, 96, 43, 14, -55, 9, 84, -15, -26, 127, -98, 34, -99, 40, -33, 37, 13, 82, 61, -16, -4, -84, -52, 2, 55, 57, 63, 2, 76, 120, 37, -8, 61, 8, 5, -5, -33, -39, 78, 57, -8, 58, 43, 51, -90, 79, 34, 62, 15, -1, 74, -63, -4, -42, -57, 127, 76, -128, -64, -93, -16, -14, 36, -9, -47, 2, -28, -29, \
-128, -62, -42, -49, -97, 60, 3, -73, -26, -11, 8, 111, 49, 38, 33, 107, -43, -21, 50, -22, -35, 90, 62, 53, 63, 26, 22, 13, -26, -77, -17, 3, -118, 58, -21, 53, -28, 19, -4, 20, -59, 54, 127, -71, -6, 44, -70, 35, -54, -104, 57, 19, -128, 2, -14, -23, 127, -18, 39, 115, 56, 70, 41, -49, 42, 110, 21, -55, -68, -36, -82, 55, 120, 41, 45, -50, 127, 3, -47, 75, 49, -1, 24, 25, 14, -63, 10, 46, -28, -9, 61, -97, 90, 38, -128, -37, -111, -55, 12, -64, 61, 6, 55, -10, -71, 47, -107, -89, -30, 0, -27, -30, -48, -33, -37, -71, -58, 39, 14, -25, -2, 47, 7, -29, -6, -128, 52, 123, 94, 117, -8, -23, -5, 47, -48, 8, 36, 75, 35, -36, 77, -35, 21, 34, 100, -75, 32, 39, 127, 9, 83, 0, 52, 127, -35, 49, 127, 76, 40, 31, 11, 6, -56, 70, -3, 8, 27, 33, 116, 60, 26, -66, -24, -28, -25, -48, 10, -101, 22, 53, 37, -124, -90, 17, 45, 57, 111, 60, -22, 82, 20, 95, 12, 16, -11, -8, 53, -95, -20, -112, -27, 6, -52, 127, 28, 5, 15, -49, -37, 74, -8, 68, 27, -23, -37, -83, -63, 18, 109, 28, -16, 44, 45, 114, -24, -24, -16, -24, 5, 96, 70, 74, 77, -32, -47, 79, -76, -62, -25, -78, 6, -32, -79, -46, 127, 127, -128, 39, 17, -2, 82, -4, -95, -4, 27, -9, -45, -15, -16, -14, 4, -46, -123, -55, -37, -69, 73, 68, -11, 76, -15, 98, 83, -34, -84, -56, 46, -63, 6, 69, -14, -28, -35, 13, -30, -12, 72, 80, \
5, -128, 3, 34, -55, -39, 29, -75, -107, -11, 8, -17, -26, 86, -63, 54, 24, 33, 76, -37, -57, 2, 51, 34, -52, -18, -69, 101, 119, -108, 3, 27, -73, -27, 28, -14, -71, -57, -46, 102, 80, -2, -52, 51, -16, 127, -110, 88, -41, 84, 44, -108, 58, 34, 7, -5, 5, -6, 62, 55, -68, -55, 13, -85, -62, -63, -40, -13, -94, 4, 34, 48, -50, -1, 29, -1, -41, -13, 72, -69, -49, -105, 33, 54, -29, 38, -65, -14, 60, -9, 83, -92, -72, -38, -80, 7, -117, 46, -3, 108, 101, 16, 2, -9, 94, -75, -61, 39, 28, -26, 73, -82, 5, 29, 11, 100, 52, 65, 1, -38, 1, -1, 37, 36, 63, -15, 6, -74, -19, 33, -20, -44, -8, -19, -108, 12, 127, 3, 53, 72, -4, -32, 89, 42, -40, 73, 13, 50, -87, -43, -50, 91, -59, 55, 32, 36, -6, 56, 47, -128, -128, -18, 127, -29, -36, -10, -128, -13, 127, -72, -80, -28, -116, 80, 23, -18, -77, 39, 22, -5, -34, 1, -22, -5, 41, -29, 19, -85, 82, 28, -44, 87, 38, -87, -128, 46, -45, 24, -40, 53, 114, 13, 127, 27, -110, 66, 76, -65, -78, -43, -67, -70, 60, -28, 76, -37, -14, -4, -6, 17, 95, 74, -2, -51, 48, -11, -5, 31, -51, 13, 61, -25, -81, -47, -101, 20, -15, -14, 79, -1, 59, 96, 68, 7, -67, 32, 5, -23, -122, -3, -44, -52, 15, -27, 62, -17, -66, 48, 51, -82, -47, 29, -44, -23, -51, 15, -34, 117, -69, 48, 49, -43, -10, 5, 34, 81, -18, 52, 118, 18, 65, -128, -73, -55, 104, -24, 14, -15, \
-43, 39, 24, 19, -17, 34, -43, 26, -42, 55, -72, 27, 83, 25, 55, -4, -44, 65, -22, 122, 39, 68, -34, -14, -100, 23, 31, -96, 38, 29, -105, -8, 15, -69, 26, 76, 28, 127, 58, -28, 86, 13, -40, -102, 25, -14, 1, 93, -64, -60, 44, 101, 46, 41, 62, -17, -114, -47, -70, -34, 67, 13, 19, 35, 41, -16, 2, -32, -69, 0, -22, -31, 126, 41, 8, 40, 90, 91, 20, 37, -29, 58, 61, -3, -19, 13, -60, -58, 26, -37, 39, -18, 39, 36, -7, 72, 22, -19, 30, -95, 1, 107, -55, 67, -20, -55, 53, 34, -38, 22, 59, 18, -10, 12, 82, 113, -8, -57, -22, -68, -37, -98, -88, -17, -2, -21, 7, 24, 62, -28, -8, -38, -11, 45, -21, -86, -17, 67, 94, -52, 0, 127, 8, -111, -114, -18, -19, 37, 64, 58, 55, 59, 97, 24, 4, 34, 0, 79, 84, 24, -18, -85, 41, 57, -71, 81, 51, -63, 15, 39, -23, 25, -50, -19, 72, 98, 51, -10, -58, -32, -121, 27, 27, -95, -3, -20, 4, -1, 51, -22, -24, 3, -9, -64, 34, -94, -94, 35, 5, -29, 28, 33, 38, 114, 8, -8, 67, -29, -15, 9, 18, -35, -12, 23, -66, 35, -29, 85, -83, -33, 66, -6, -87, -13, -95, 127, -88, 23, -43, 9, 59, 127, 11, 62, -30, -4, 127, -119, -14, -65, -62, 53, -91, 29, -71, 31, 63, 69, -80, 75, -14, 115, -44, 78, 26, -128, 24, 109, -19, -31, -58, -38, 68, -93, -4, 28, 127, -100, -48, 66, -66, 101, 21, -25, -10, -41, 28, -32, -37, -112, -128, -52, -21, 16, 34, -111, 85, 127, \
-128, 12, -88, 28, -38, -67, -64, 65, -119, 19, 99, 69, 50, -5, 42, -126, -4, -123, 37, -8, -6, 56, 24, 69, -128, 3, -15, 11, 71, 91, 79, 59, 5, 7, -76, -45, -22, -115, 36, 80, -73, -65, 25, -74, -8, 4, -118, 7, 80, -10, 100, 84, -16, -16, 8, 122, -16, 18, 23, 127, -32, -2, -128, 44, -3, -29, -128, -2, 95, 22, -59, 31, 17, 56, -22, -13, -18, -27, -9, 4, 28, -94, -81, -21, 37, -103, 17, -43, -83, -10, -35, -51, 23, -30, -112, -42, -67, -23, 22, -28, 6, 85, 125, 46, -45, 6, 48, -104, 33, 78, 42, 14, 106, -49, -101, -28, -69, -48, -10, 65, 24, 22, -1, -55, 35, -21, -99, 89, -85, 31, -10, 16, -1, 108, 67, -48, 18, -11, -105, -13, 127, 25, 78, -56, 38, 9, -65, -74, -49, 46, -65, -17, -62, 60, 19, -100, 7, 79, -8, -28, 58, 31, 127, 127, -81, -18, 30, -75, -12, -74, 53, -14, 49, -47, -42, 41, -2, 67, -58, -67, -29, -19, 116, 101, 72, -6, 61, 41, 55, -126, -90, 14, 57, 55, 26, 18, 61, 7, -16, -14, 62, -2, -38, 19, -1, 37, 89, -13, -4, -3, 91, -2, -32, -50, 55, -112, -48, -72, 6, -91, 92, -60, -20, 36, 28, -26, -49, 80, -65, -15, -12, 97, -106, 65, 17, 20, -34, -76, -51, -128, -4, 21, 27, -63, -86, -88, -2, 61, 118, -13, -70, 127, -70, 42, -11, 42, 29, 77, 51, -92, 29, -1, 53, 26, -11, -17, 23, -117, 20, -128, -70, -9, -29, -23, -128, -41, 40, -30, 73, 127, 15, -128, 89, 28, -128, 66, 49, 95, \
-68, 10, 16, -32, 35, -120, 127, -20, -28, 32, 45, 70, -10, 83, -17, -128, 87, 9, 1, -47, -69, 27, 69, 55, 50, -128, 16, 2, 25, 24, 50, -26, 6, 127, 24, 82, 57, -128, 0, 37, -19, -96, 73, -29, 20, -62, 57, 42, -49, -17, -1, -40, -94, 32, -14, -128, -128, 11, -24, -84, -44, -29, 57, -6, -88, -19, 51, 127, 26, 127, -84, 5, 41, 35, -81, 99, -90, 96, -25, 74, -30, 17, -48, 18, -11, -1, -54, 75, -11, -86, 18, 5, 59, 12, -85, -38, 22, -5, -23, 18, -127, 27, 75, -10, -59, 49, 54, -36, 97, -55, 44, -118, -73, -90, -8, 111, -29, -49, -24, 92, 13, -85, 1, 66, 25, 63, -122, 103, 33, 22, -49, 15, 28, -103, -32, -71, -18, -44, -18, 6, 25, -50, -124, -91, -91, 32, -52, -101, -9, -77, -58, -82, 87, -58, -100, 55, -32, -65, -12, -93, -115, -51, -22, -105, 2, -42, -10, 127, -69, -75, -128, -90, 127, -44, -29, -18, 51, 94, 8, 65, -65, -53, 12, 77, 42, -73, 12, -36, 14, 127, 127, 89, -15, 9, 89, -67, -64, -17, -54, 6, -8, -108, 40, 13, 107, 48, -35, -4, -19, 32, 6, -26, -73, -47, 42, -98, -89, -6, -102, 6, -6, 27, -29, 79, -35, -103, -96, 9, 52, 52, 22, 32, 32, 37, -52, 59, -9, 22, -128, -89, 32, -44, 30, 86, -58, 73, 73, 104, -113, 18, -72, -40, 34, 111, -58, -74, -2, 54, -106, 75, -38, -42, -103, -69, -18, -36, 19, 80, 127, -2, -23, -48, -45, -39, 54, 74, -74, 31, 32, 87, 57, 24, -128, -128, 39, -46, -101, -12, \
-80, -29, -51, 108, 31, 4, 45, 29, 5, 104, 111, -104, 6, 4, 16, 122, 102, -102, -4, -90, 89, -48, 30, -14, -14, -13, -11, -3, 84, -50, 1, 88, -61, -30, 6, -128, 26, 67, 89, 10, 67, 76, 55, -14, 127, -107, 39, 13, 55, 4, -128, 47, 11, 36, -54, -30, -12, 112, -108, -30, -8, 39, 34, -66, -17, -70, 79, 42, -48, 63, -128, -13, -117, 70, -72, -13, 105, -28, 61, 16, 10, 84, -57, -22, -103, -30, -89, 75, 119, -112, 20, 12, -29, 26, -5, -105, 4, -82, -23, -62, 0, 93, -113, -39, 24, -17, 19, 16, -29, 29, 71, -14, -59, -60, -128, -70, 79, 29, -38, 2, -18, 37, -20, 127, 10, -92, -17, 0, -37, -1, 20, -66, 79, -64, -75, 23, -55, -19, 14, -54, 16, -56, -52, -38, 96, 66, 97, -112, -19, -67, -59, 79, -18, 11, -8, -4, 26, -1, -17, -98, 68, 1, 91, 8, -58, -12, 73, 14, -14, -10, 66, 56, -113, -128, 108, 51, 68, -20, 24, -73, -34, -64, 26, 36, -95, -16, -10, 24, 46, -75, 35, -59, -13, 18, -24, 5, -104, 28, 3, -102, 33, 55, 100, 8, -26, 72, 13, -9, 18, -34, 55, -60, 52, 4, 83, 96, 85, -94, -22, 40, -72, -21, 67, 101, -20, 0, 62, 51, -83, 24, 30, -65, 84, -105, 127, -25, 101, -10, 63, -83, -16, -113, 80, 0, -116, -62, 111, 2, 68, 12, -78, -33, -16, -82, 20, -12, -4, 51, 15, 87, -85, -75, 32, 60, 11, 16, 59, -35, -58, 69, -70, 118, 90, 50, 5, -63, 1, 126, 34, -14, -34, -61, -47, -17, -90, -123, -54, 2, \
-19, 100, 109, -41, 22, -22, -3, 101, 11, 33, 1, -27, 42, -52, 16, 14, -2, -67, -85, 6, -118, -17, 33, -53, 2, -128, 127, 91, -12, -89, -52, 16, -71, 15, -123, -20, 97, 63, 106, -99, 101, 65, 48, -79, 19, -76, 45, 6, -52, -84, -15, 73, 51, 88, -84, -33, 64, -73, -52, 127, -80, 72, -4, 53, -49, -16, -98, -128, 13, -57, 5, -32, -118, 50, 83, 64, 63, 40, -51, -12, 19, -90, 116, -38, -100, 106, 7, 89, 52, -79, 49, 104, -128, 44, -12, -2, 46, -24, -7, 52, -2, -5, 51, 19, 19, 70, -122, -95, -9, -19, -82, 36, -25, 10, 9, -95, -19, -20, 28, -23, -59, 27, -26, -119, -50, 127, -70, 127, 5, -104, -33, -51, -40, -61, -50, 39, 30, -26, 10, -37, -4, -6, 9, 36, -40, -26, -43, -52, 56, -63, -42, 17, 57, 127, 5, -15, -23, -17, 73, -71, 127, 23, 21, -53, -56, -12, 52, 38, 27, -37, 9, 87, 86, 127, -65, 33, -63, -78, 108, -20, 73, -4, 39, 7, 17, 35, 23, -52, 73, 49, -10, 19, -119, -84, -17, 17, 107, 52, 119, -78, 52, 121, 24, -17, -51, -54, 38, 29, -127, 51, 58, 7, -53, -34, 24, 54, -11, 32, -14, -32, -1, -57, -26, -114, 45, -13, 94, 14, 35, 21, -65, -46, -72, 42, 37, 119, 9, 79, 64, -88, 14, 50, -66, -49, 60, 127, -22, -128, -89, 22, -30, 73, 1, -8, 67, 39, -10, 81, 5, -53, -6, -35, 58, 104, 67, 68, 127, 54, -23, -28, -4, -27, -43, 8, -128, -49, -48, -22, 104, -9, -38, 25, -7, -70, -21, 120, -65, 31, \
-77, 0, -59, -34, 17, -110, 53, -41, 21, -26, 127, 61, 101, -37, -55, -49, 27, -111, -16, 74, -7, 66, 49, 49, 5, 5, -26, -79, -25, -44, -3, -51, 18, 22, 54, 57, -73, 72, -45, -7, -44, -124, 9, 115, -24, -80, 85, 29, -41, -14, -15, 33, -66, -22, 47, 127, 77, -15, -17, 0, -24, -27, 57, 127, -13, -16, 23, 87, -62, -40, -73, 68, -52, -57, -56, 37, 9, 114, -67, 22, -62, 42, 86, -110, -3, -25, -4, 9, 124, -61, -22, 93, -61, -17, 19, -61, 31, -16, 33, -10, 25, 17, 16, 17, 25, 22, -8, -1, -5, -82, -43, 127, -112, -59, 18, -54, -80, -15, -64, -40, -39, -38, 34, 82, 67, 56, -38, 22, -1, -15, 20, 26, 35, 68, -28, 111, -26, -61, 50, -3, 62, 37, -53, 78, -32, -51, 62, -42, -8, -23, -13, 49, 82, -20, 67, -18, 11, 75, 51, 60, -89, 42, -45, -23, -8, -61, 39, -64, 15, 59, 7, -21, -35, 19, 0, 64, -84, 52, 32, 2, -43, -20, -9, 32, -12, 36, 7, 36, 32, -13, -20, -51, -34, -72, 75, 21, 18, -29, -63, -61, 127, -41, -94, 88, 47, -108, 37, 2, -10, -8, -120, 8, 23, -10, -32, 29, 74, -36, 80, 75, -57, 19, -34, -34, -40, -128, -88, 5, 105, -23, 47, -51, 49, -115, -92, 127, 8, -16, 54, 4, 17, 58, -15, 79, 25, -100, 11, 25, 89, 106, -29, -6, 26, -56, 11, -70, 18, -14, 97, -7, 8, 57, -63, 101, -78, -25, 126, 51, -11, -3, 64, 27, -110, 127, 48, 5, -39, 127, -7, 18, 78, -1, 105, -89, 11, 57, -42, 51, \
23, -27, -73, 40, 2, 19, -75, -65, -128, -89, -99, 22, -58, -15, 17, 14, 36, 3, -13, 91, 34, 1, -24, 37, -8, 102, -1, -10, -53, 57, -24, -52, 49, -1, -66, -31, 51, -15, -58, 51, -64, -51, -4, -128, -61, 80, 2, 29, 14, -77, 44, -105, -2, -21, 99, 19, -42, 127, 33, 38, 26, -1, -86, -68, 99, 82, 127, -20, 57, 96, 52, -58, 59, -60, -104, -2, -49, -85, -64, -26, -26, -73, 16, 15, 79, 53, -1, -67, 10, 86, -10, 5, 90, -51, -10, -37, -33, -128, -22, 8, 37, -64, 13, 24, -31, -46, -75, 34, 31, -52, 18, 43, -55, -40, -27, -13, 65, 94, 11, -23, -67, -62, 54, 30, -40, -31, -39, 53, -115, -98, 13, -14, -17, 54, 34, -53, 87, 1, 48, 63, -69, -53, 79, -38, -128, 127, 52, -17, 69, -99, -22, 63, 29, -81, -42, 59, -64, 76, -33, 87, -6, 20, -27, 108, -22, 54, 105, 11, 5, -26, -128, 46, 49, 53, 22, -18, -40, -34, 66, -59, 75, -62, -61, -42, 127, -65, 58, -5, 63, -105, 78, -12, -10, 28, 66, 23, 37, 10, -60, 88, 114, 127, 87, -5, 7, 63, -67, 6, 64, 7, -121, 81, 39, 34, -18, -34, 63, -99, -30, -80, -22, -62, 94, -99, -79, 88, -41, 87, 79, -37, -63, 19, -88, 25, 4, 22, 74, -5, -42, 30, -40, -112, -62, -16, 83, -37, -82, -30, -17, -100, -19, 50, 43, 83, 111, 20, 75, -16, -75, -106, -112, 127, -40, -54, 73, 31, -128, 35, 23, 47, 28, -24, -26, 56, -126, -44, -108, -40, -103, 124, 37, 81, 42, -76, -44, -42, 27, -95, \
69, 76, 36, -60, 23, -79, 83, 9, 105, -54, -108, -7, -79, 27, 27, -57, -13, 42, 10, 24, 71, -12, -48, -46, 127, 11, 22, 0, -18, 11, -18, 19, -32, 62, 99, -58, -3, -50, 70, 29, -128, -62, 42, 24, 65, -51, 40, -48, -31, -61, -36, -9, 10, -128, -25, 9, 64, -51, -23, -37, -4, -99, 47, 14, 14, -11, -18, 87, -20, -64, -83, 28, -21, -21, -46, -128, -10, 58, -26, 127, -21, -14, 94, -9, -4, -104, -21, 27, 56, -18, 21, 23, -26, -95, 4, 45, 21, 9, -42, 7, 103, -128, 17, -78, -25, 54, -11, -51, 44, -75, -61, 83, 12, 114, -98, -35, 56, -85, -124, 9, -7, -28, -10, -8, 5, -44, -64, -23, 4, -28, 58, 12, -26, -50, -6, -87, 32, 61, 5, -94, 127, -57, -115, -24, 89, 70, -75, 12, -12, 76, 36, -27, 62, -10, -14, 117, -53, -35, 50, -104, -7, 69, 79, 116, -128, 45, 53, 37, 5, -65, 31, -26, 85, 95, 111, 34, -43, -24, 46, -96, -30, -17, 33, -68, 57, -12, -60, -75, 43, -9, -45, -99, -20, 10, 55, -48, -10, -12, -120, 80, 25, 5, 38, -65, -65, 36, -88, -59, -101, -28, 0, 32, -31, -118, 1, 39, 58, -34, -111, 76, 12, 2, 77, 37, -16, 70, -113, -80, -20, 23, -49, 33, -2, 13, 75, -55, 10, 26, -30, -89, -38, 12, -103, -37, -69, 8, 41, 41, -52, 49, -10, -81, -70, 29, 1, -99, -84, 6, 107, 23, 19, -128, 127, -8, 85, 5, -36, 26, 81, 59, 29, -114, -51, 0, 41, -92, -60, -42, 1, 35, 62, 16, 102, 82, -13, -2, 51, 36, \
-58, -45, 14, -106, 119, -21, 127, 33, -50, 81, -10, -4, -61, -5, -42, -126, -105, -92, -38, 19, 39, 111, 17, -67, 13, 20, 71, 127, 28, -29, -44, 57, -4, -86, 63, -8, -85, -81, -27, -81, -74, -65, -46, -28, 120, 127, 23, 54, 12, 14, 43, -30, -56, 10, 0, 34, -85, -32, 88, 3, 9, 16, -21, -81, -20, -64, 11, 4, 90, 44, -100, 11, 105, -41, -71, 10, 127, -12, -92, 115, 11, -67, -45, -4, -90, 26, 11, 61, 127, -20, 5, 127, 66, 75, -64, -50, -20, -3, -20, -15, -121, 3, -22, 20, 74, -83, 84, -3, -64, 24, 59, -128, 3, -62, -39, -53, 112, -39, 69, -69, -120, -28, -31, -91, -59, -39, -3, -109, -16, -98, -10, -21, -61, 18, -7, 98, 103, -3, 14, -59, -1, -25, -84, 1, -51, 61, -74, 38, 21, -103, -44, 64, 9, 63, -15, -11, -50, -56, 16, -6, -127, -105, -23, -36, 127, 42, 64, 61, -80, 20, 90, -32, -6, -74, 45, 66, -34, -51, 56, 28, 42, -26, 53, -94, -16, -86, 28, 8, 71, -25, 29, 23, 42, 49, 2, -86, -85, 21, 47, 61, 4, 22, 27, -1, 23, 61, 55, 84, -18, 71, 8, -19, -98, -72, -43, 26, 62, 99, -59, 34, 1, 20, 25, -53, 19, 65, -46, -7, -83, 34, -67, -29, 96, 1, 61, 7, -10, -15, 42, -28, -66, -29, 36, -73, -84, -40, -29, 57, 82, -82, -6, -43, 56, -4, 127, 100, 5, 26, 23, -29, -30, -67, 40, 50, -3, 38, 51, 33, -59, -7, 1, 34, -85, 1, -20, 42, 127, -70, -83, 89, 33, -42, -46, -33, 54, -12, 43, 127, \
5, -72, -78, -13, 54, -5, 81, 68, -48, 36, -3, 63, -37, 53, -33, 17, 117, 0, 2, 15, 27, 19, -3, 4, 15, -126, -123, 69, 3, 11, 26, 15, -57, 50, -22, -91, 41, -4, 37, -33, -33, 19, -106, -1, -69, 17, -39, -108, 57, 0, 81, 127, 11, -29, 19, 56, -30, -1, -33, 64, -117, -62, -44, -107, 112, 37, 92, -16, -128, 31, 39, 11, 127, -128, -18, 101, 7, 30, -38, -4, 23, 22, -56, -33, -43, 60, -118, 45, 104, 16, 33, -41, 45, 12, 52, -100, 28, 37, -10, -18, -110, -45, 115, -76, 35, 54, -128, -86, 43, -117, -20, 45, 7, 127, -39, 26, 31, 33, -34, -25, 26, -77, 25, 57, -62, -104, 111, -7, -45, 18, -1, -2, 47, -124, -53, -1, -23, 18, 117, 24, -63, -7, -8, 101, 0, 19, -35, 20, -63, -18, -1, 45, -7, 40, -116, -9, 30, 10, -20, 19, -3, 100, -87, 79, 74, 78, -48, 63, 108, 23, -55, 127, -34, 38, 86, 36, 24, -84, -8, -28, 81, 69, 7, 90, 27, 9, -119, -50, 103, 83, 41, 36, -97, -111, 16, 52, 20, -128, -109, 48, 63, 18, -64, -26, 36, -128, 5, -3, -56, 28, 9, -51, -61, -68, 39, -5, 3, 115, -128, -82, -63, -89, -96, 49, -40, 40, -3, 15, 6, -14, -34, -41, 69, 127, 2, -56, 33, -80, 30, -58, 28, -118, 58, 34, -12, -32, -22, -15, 54, 52, -37, -35, -128, -6, -84, 28, 1, 79, -37, -5, 0, 127, 23, 60, -8, 14, -4, 26, -69, 70, 57, -16, 66, -110, 48, -36, -17, -95, 3, -69, 87, -16, 103, -19, 17, 61, -48, 39, \
-19, 21, -128, 29, 24, -25, 127, -86, 45, 51, 61, 18, 30, 43, -43, -23, -67, 4, -35, -14, -128, -127, -126, -86, 44, -23, 33, 8, -77, -9, -82, 92, 18, 26, 26, 99, -24, 84, -60, -20, -37, 110, 21, -74, 2, -11, 17, 65, 55, -84, -117, -55, 127, 55, -17, -76, 51, -128, -15, -81, -46, -53, -15, 81, -35, -96, -4, -24, 109, -52, 113, -99, 107, -35, 25, 127, -5, -9, -28, -96, -25, 55, -32, 12, 55, 127, -128, 107, -74, 57, 106, 18, 25, -106, -95, 108, -57, -42, -59, -86, 26, 11, 6, 6, 0, -108, -4, 68, 103, -27, 24, 66, -43, 14, 25, -28, 63, 114, 43, -75, 116, 77, 19, 20, 13, -35, -27, -128, -70, 114, 23, -21, -65, -70, 44, 95, 52, -69, -31, -1, -25, 18, 57, 76, 50, 35, 0, 44, 52, -128, -76, 90, 117, -27, -80, 107, -68, 49, -40, -67, -25, -53, -62, -90, -31, -56, -91, 53, 12, 44, -32, -91, 27, -43, -128, -53, -51, 47, 27, 83, -85, -25, -57, 22, 10, 17, -93, 48, 97, -88, -52, -11, 53, 18, -17, -12, 72, -51, -40, -25, 19, 30, 79, 79, -36, 77, 65, -30, 53, 127, 5, -78, 87, -123, 32, -52, 6, 109, 36, 13, -26, 101, 16, 22, -126, 41, -16, 19, 8, 61, 4, 3, -42, -8, 119, 5, 58, -33, -54, -75, 12, 26, 16, 47, -80, -68, -37, 111, 15, -21, -7, 54, -43, -55, 40, 55, 61, -25, 13, 11, -128, 116, 31, -12, 74, -14, 44, 52, 10, -64, 17, 20, 55, 83, 74, 35, -72, 40, 8, -91, -9, 12, 8, -46, -7, -71, -10, 88, \
4, -34, -100, 71, 21, -86, -75, 48, 58, 16, -8, -55, 27, 45, 30, 40, -125, -23, -7, 6, -8, 86, -69, 23, -66, 49, 21, 53, -5, -99, 33, -88, -6, -51, -120, -45, 15, 6, -8, 60, -5, -53, -4, 31, -125, 18, 65, -128, -20, -2, 0, -31, 14, 15, 20, -67, 76, -100, 42, -65, -50, 76, -55, -42, -10, 35, -26, 9, -44, -91, -87, 3, 32, -10, -58, -128, -82, -32, 41, -15, -35, -102, 90, -23, -88, -128, 82, 14, -29, 48, -54, 121, -44, 1, -40, 4, -36, 28, -30, -26, 5, 100, -72, 7, -102, 0, 46, -28, -24, -3, -65, -21, 25, -50, 127, 70, -61, -36, -28, -39, -8, 5, -87, 34, 80, 17, 111, 16, -5, -24, 21, 127, 101, 108, 5, -40, 17, 0, -128, -15, -126, -34, -64, -72, -12, 55, -85, -51, -84, -33, 34, -78, -29, -26, -13, 17, 127, -62, -68, 27, -35, 105, -59, -1, 9, -13, 40, -2, 54, -89, 34, 69, 127, 41, -65, -51, -63, 96, -42, 49, 15, 4, 62, 26, 9, -40, -61, 31, -89, -46, -23, -25, 125, 127, 47, -19, 72, -1, 38, -26, -1, -28, 20, 36, 63, 32, 127, -78, 17, 25, 67, -62, 50, -65, 15, -27, 53, -31, -5, 77, -110, -82, 79, -124, -17, 45, 96, -5, -32, 36, 45, 125, -50, 127, -27, -15, 4, -16, -4, 8, 3, -8, -93, 35, -17, 89, 31, -1, -51, 49, 24, -33, 38, -39, -5, 47, 48, 34, -22, 32, 44, 57, -24, -23, -1, -26, -37, 127, 24, -5, -13, -2, -44, 29, 50, 8, 5, 3, -125, 29, -18, 91, -17, 33, -54, 69, 12, -5, \
10, -35, 109, 3, -39, 43, 70, 98, 15, -53, 46, -8, -3, -60, -24, 62, -40, 26, -27, -27, 62, -22, -50, -6, -55, -29, -16, 106, 44, -21, 44, -44, 7, 55, -1, 101, 42, -75, -26, -105, -112, 62, -12, -39, 56, -50, 12, -14, 54, 22, 95, -50, -44, 9, 83, -18, 20, -3, -8, 56, 127, -12, 120, 32, -29, 48, 61, 75, 79, -73, -108, 75, -4, 2, 88, 28, -44, 4, 11, -55, 43, -8, 1, 108, 14, 88, 127, -12, -41, -82, -63, -20, 10, -11, -128, 7, 127, 86, 52, 52, -30, 65, -110, -29, 19, 61, -65, 109, -102, 54, -52, -69, -63, 36, -83, 15, -101, -89, -1, -45, 65, -62, 44, 127, -61, 12, 65, -39, -2, 59, 10, 104, -1, 53, -109, -128, 23, 74, 52, -71, 98, 15, 127, 9, 117, -24, 45, -4, -71, 127, 27, 127, -22, 103, 14, 30, 120, 93, 12, 27, 47, 26, 96, 44, -56, 73, -118, -29, -55, 33, 12, 83, -88, -53, 64, 39, -8, -22, 54, -10, 8, 0, 2, 72, 59, -82, 29, 24, -78, -89, -8, -117, 127, -34, -16, -110, 22, -114, 2, -119, -43, -64, 5, -20, 49, -47, -65, 20, -49, 8, 75, 51, 5, 47, 53, 110, 27, 2, 99, -36, -5, 44, 59, 70, 74, -8, -24, 5, -12, -100, 35, -88, -58, 24, -51, -95, -4, 48, 19, 11, -38, -56, 106, -79, 55, 53, -44, 26, -71, -117, -66, -66, 25, 37, -71, -20, -128, -1, -10, -43, -41, 40, -74, 8, -110, -107, -52, -128, -27, 65, -98, 83, -79, 59, 59, 39, -23, -19, 114, 42, -48, 63, 49, 43, 5, 19, -9, -113, \
-123, -33, 16, 115, -44, 20, 10, -39, -5, -83, -77, 46, -20, -128, -1, 34, -49, -85, 74, 106, 14, 93, -21, -31, 91, 20, -38, -128, 91, -37, 75, -77, -71, 3, -73, 7, 77, -44, 49, -79, 40, -128, 16, -2, -29, 53, 88, -28, 93, 49, -9, 46, -16, 127, 78, 55, 62, -52, 83, 0, 27, -108, -48, 48, -26, -36, 36, -3, -39, -10, 63, -43, 6, 24, -77, 84, -17, -1, -84, 14, -30, 50, 81, 36, 102, -122, 127, 12, -76, 17, 50, -56, 53, 104, 127, 23, -57, -128, 30, 10, -18, -99, 41, 106, 50, -27, 7, -26, 29, -11, 58, -71, -82, -81, 37, -40, -94, -32, 86, -84, 71, 52, -33, -27, -35, 59, 42, -9, -44, 28, 21, -6, -52, -9, -35, 69, -31, 29, -105, 50, 34, -56, -33, 13, 93, 4, 29, 24, -19, -37, 17, -67, -45, -27, 40, -53, -25, 89, -12, 54, -39, -12, -47, -70, 41, -12, 0, -55, -77, 16, 1, -22, 53, 66, 89, 127, 123, 20, -52, 101, -1, 127, 2, -7, -13, 54, -9, -80, -3, -45, -40, 123, 61, 37, 79, 11, 52, 54, 127, 2, 36, 41, -62, 112, -91, -53, 12, 18, -38, 41, 82, -13, 101, 0, 100, 9, -88, 82, -21, -4, -83, 54, -83, 65, -63, -128, -25, -103, -2, -19, -31, 102, 58, 11, 56, 9, -47, 33, -119, 50, -16, -21, 72, -95, -84, -15, 38, -48, 13, 118, 86, 68, 32, -11, -117, -84, 13, -59, -36, 1, -84, -71, -17, 57, -76, 93, -9, -13, -119, 24, -45, 71, 51, 3, -46, 76, 127, 8, 20, 95, 40, -27, 21, -128, 10, -47, -100, -54, \
-12, -101, 90, -14, 97, 114, -9, -24, -26, 56, 32, 3, 39, -19, 73, 42, 4, -120, 7, 5, 66, -24, 30, -20, 111, -112, -66, -128, 46, 64, 29, 30, 6, 89, -1, 87, 68, 11, -1, 1, 100, 56, 96, -10, -86, -3, -95, -32, 75, -128, 6, -82, -27, -10, 36, -36, -31, -74, 22, 10, -92, -61, -108, -106, 93, 19, -13, -72, -1, 97, 43, -76, 88, 45, -3, -1, 67, -82, -91, -128, 69, -77, 32, 9, -4, -128, -42, 25, -124, 31, -51, 9, 50, -7, -11, 43, -3, 11, 32, 127, -54, -108, -56, 6, -78, 71, 108, 36, 3, 13, 58, 7, -122, -30, -51, 74, -59, 27, 107, -128, 7, -23, 81, -128, -6, -43, 16, 54, -40, -54, -73, 35, -51, 46, -29, -8, 35, 64, -81, -12, 53, -58, 34, -61, -75, -38, 36, -43, 36, 79, 84, 36, 10, 105, -109, 96, -94, -49, 105, -61, -16, 52, 84, 124, -20, 81, -12, -39, -26, -70, 15, 4, -1, -1, -61, 93, -84, 39, 44, 73, 21, -25, 64, 70, -44, -22, -60, 47, 81, -118, -83, 29, -89, 4, -84, -59, 39, 21, 5, 62, 0, 69, 54, 19, -28, -62, 2, -90, -36, 30, -79, -56, -34, -36, 56, 11, -67, 0, -39, 57, -1, 18, 127, -5, 1, -38, 25, 39, 83, 64, 3, 56, 43, 79, -55, -26, -37, 20, -98, -8, -15, -32, -40, -63, -23, -12, 58, 52, 10, 77, -2, -61, -70, 35, 27, -30, -56, -128, 12, 10, -38, -72, 73, 7, -67, -30, 54, -94, -10, 58, -2, -79, -48, 10, 26, -8, 94, -38, -20, -56, -51, 70, 13, -106, -8, 49, -89, 11, \
69, -50, -25, 103, 39, 35, -102, 1, 80, -68, 1, -60, 1, 26, -10, -9, 26, 67, -14, 111, -47, -48, 92, -5, 127, 63, -52, -24, 67, 24, -40, -11, -14, -18, 30, -92, -9, 70, 24, 83, -3, 106, 51, 35, -19, -119, 38, 47, 80, 12, -19, -42, 93, 127, 77, 127, -76, -34, 127, -45, 114, -111, 25, 61, 127, -38, -52, -55, -45, 25, 31, -19, -95, -84, -1, -16, -31, -14, -128, -76, 90, 122, -21, -9, -52, -4, 26, -28, -7, -83, -38, -12, -103, -58, 73, -3, -63, 46, -8, 29, 50, 31, 19, 127, -128, -52, -24, 28, -1, -76, -15, 39, 71, 68, -13, -10, -111, -21, -11, 24, -46, 18, -34, 34, 36, -51, 56, 17, 25, -45, -41, 50, 2, 80, 0, -55, -90, 33, 76, -1, 84, -104, 32, -100, 92, -12, -85, 74, -7, -3, 127, -74, 77, 99, 93, 106, -53, -17, -54, -72, 65, 8, -71, 50, 0, 42, -5, 84, 58, -117, 16, -36, -77, -128, 55, 53, -112, -22, -84, -58, 59, -95, 45, -11, -66, -71, -14, -25, -128, 19, -6, -31, 127, -71, -75, -128, -38, -14, -100, -128, -38, -125, -76, 37, -90, 93, -22, 35, -12, 1, -75, 44, 68, 85, -77, 3, -33, -53, -64, -13, -28, -79, 127, -23, 3, -20, 77, 11, -39, -15, 37, 17, 69, -79, -7, -28, -88, -29, -50, 48, 81, -1, 7, 122, 1, 85, 20, -128, -69, 41, -123, 72, -30, 39, -61, 50, 30, 22, -31, 30, 23, -60, -59, -90, 22, -128, 94, 127, 26, 31, -100, 17, -3, -37, -68, 3, -53, 81, 20, -21, 85, -78, -128, -1, -69, 38, -109, -1, \
-35, -87, 109, -45, 38, -9, -44, -39, 56, -4, 127, -43, -16, -18, -43, -14, 11, -36, 89, 118, 25, 3, -1, -37, -20, 89, 111, -35, -128, 22, -29, 124, -21, -50, 54, 98, 98, -104, 59, -61, 35, -70, -28, -22, 127, -109, 123, -20, -28, -57, -57, -12, 35, 73, -10, 86, 9, 2, -22, 69, -4, -51, -47, -47, -54, -60, 41, -96, 94, -128, 104, -3, -57, -120, 36, 29, -13, 33, -7, -1, 78, 46, -54, -3, 27, 71, -48, 84, 82, -88, -107, -35, -106, -53, -75, 88, -30, 36, 61, 3, 40, -81, -90, 17, 65, -67, 45, -55, 37, 18, 60, 16, 24, 3, 3, -24, 40, 10, -18, 127, 34, 7, 48, -84, -27, -61, 46, -21, -39, -1, -4, -36, 6, 16, -124, -76, -90, -79, 96, -84, 36, -11, -111, 29, -112, -128, 17, 2, 41, 38, -3, -39, 15, -80, 107, -26, -45, 47, -16, -111, 10, 1, 60, -32, -128, 112, 100, 14, 21, 7, 23, 79, -27, -43, 47, -44, -75, -4, 11, 9, 85, 7, -99, 87, -31, 62, -64, 35, 47, 0, -41, 99, 59, -40, -110, -81, 43, -36, -117, 59, 18, -41, 3, -49, -41, -86, 76, -25, 105, -106, 41, -108, -4, 41, 110, -48, -74, 42, 58, -71, 56, 74, -38, 70, 93, -94, 38, -25, -113, -7, 9, -11, 5, -36, -13, -85, -94, 22, 24, 122, 80, 37, 120, 35, -80, -64, -27, 13, -15, -34, -30, 10, -128, -75, -5, -30, -40, -105, 81, -87, 61, -45, 60, 49, 3, -37, -96, -58, -11, -128, -61, -42, -9, -48, 24, -122, 63, 3, 6, -65, 37, 17, -100, 8, -4, 58, -122, -64, \
16, 16, 70, -104, -5, 32, 82, -18, -51, 29, 5, 106, 29, -8, -37, -81, -53, 12, 27, -81, -71, 1, -11, -99, 6, -31, -11, 43, -65, 21, 45, -103, -117, 24, 107, -123, -66, 101, -41, 81, 67, -55, -43, -32, 19, -89, 33, 51, 35, 26, -128, -128, 18, 127, 72, -79, 20, 127, -103, 56, 3, -10, 30, -22, 71, -4, -47, 107, 10, 3, -10, -5, -16, 57, 13, -5, -43, 67, -45, -47, 47, -52, 25, -28, -35, 68, 40, 22, 22, 8, -21, 32, -18, -71, -33, -56, 34, 65, 118, -22, -101, -41, -35, -31, 66, -76, -24, -1, 23, -22, -7, 32, 3, -34, 79, 13, 63, 110, -117, 19, 20, 39, -64, -27, 63, -2, -50, -94, -28, -27, 69, 54, 127, 88, 4, 33, 118, -128, 76, -104, -56, 50, -47, 73, -128, 70, -15, -57, 1, -53, -93, 30, 26, -49, -78, 0, 127, -8, 26, 43, 34, 6, -7, 80, 74, 28, -65, -15, -26, 73, 49, -61, 94, 4, -103, -51, 62, 35, -128, 88, -32, 21, -27, 103, 18, -17, 127, -78, -66, 51, -16, -79, 48, -62, 84, -27, 1, -59, 5, 118, 103, 47, -128, 0, -48, -18, 49, -21, 73, 15, -48, -72, 127, 127, 18, 45, -42, 51, -112, 2, 69, -22, 71, -21, -57, 26, 70, 63, 16, -88, 127, -1, -38, -43, 67, 76, 93, -36, -63, 100, -11, 65, 29, 9, -44, 127, -6, 54, 125, -14, 90, -96, 46, 66, -95, 9, -71, -124, 84, 30, 5, -1, -110, 71, 21, -80, -17, 74, -65, -18, 23, 104, 19, 92, -21, -29, -33, 26, -35, -46, -1, 3, -47, -65, 70, 71, -128, -89, \
39, -50, 70, 40, 63, -14, 18, -12, 20, -128, -33, -2, 23, -2, 62, 13, 22, 23, 12, 40, -9, 16, 27, 76, -48, 27, 32, -47, 127, 28, -21, -30, -6, -4, -51, 35, 73, -76, 116, -39, 7, 17, -9, -52, -77, 45, -41, -71, 78, 117, -2, 42, 15, -124, -95, 68, 75, 117, -42, -19, 59, -47, -96, -13, -40, 127, -31, -50, 26, 124, -13, 85, -47, -64, 32, 19, -3, 4, -50, -14, 89, 31, -69, 24, -30, 1, -11, -29, 40, -62, -1, -42, 19, -61, -5, -29, -98, -67, 15, 21, 46, -25, 41, 125, -91, 64, -22, 70, -13, -100, -66, 127, 49, 87, 127, -53, 21, -1, 9, 24, -87, 62, 36, 12, 23, -86, 54, 45, -40, 8, -10, -94, -46, -17, 72, 101, -15, -62, 62, -12, 127, 90, -80, -13, 127, -79, -7, 102, 14, -102, -117, -101, 40, -7, 91, 38, 50, 73, 24, -128, -72, 127, 32, 15, 22, 38, -75, 127, -55, -74, 127, 69, 103, -31, -33, 67, 11, -84, -10, -79, -20, 93, 115, -3, -16, -4, 18, 89, -78, -75, -71, 55, -3, 68, 27, -78, -7, -20, -56, -14, 1, 33, -18, 40, -97, 77, -36, -55, 14, -15, 0, 6, -39, 83, -44, 5, -38, 86, 19, 22, 29, -60, 83, 30, 127, 35, 8, 3, -83, 0, 76, -23, 21, 54, -42, 13, -32, 127, 82, -21, 89, 10, 27, -64, 29, 12, 4, -125, 16, -106, 118, 53, -106, 62, -12, 68, -67, -59, -8, 88, -31, -1, 52, 41, -29, 99, -40, 29, -116, -63, -6, -28, -54, -123, -125, -22, -7, -43, -10, -104, 7, -117, -34, -112, 26, -8, -128, -117, \
-96, -21, -61, 35, 28, -128, -35, -97, -108, 84, 61, 16, -1, 70, 83, 29, 122, 46, 110, 78, -4, 69, -66, 26, 22, 107, -102, -59, 28, 36, 48, 80, 2, 23, -33, 9, -24, 61, 8, 5, -56, 12, 9, 74, -121, 92, 53, 127, 20, 121, 35, -2, -7, 52, 45, -57, 23, -66, -72, -39, 16, -25, -80, 22, 44, -18, 116, -35, 39, 33, 53, 31, -6, 45, 38, -21, -41, -38, 122, -11, 53, -57, 9, 42, -12, 82, 127, 53, 4, 39, -76, 29, -7, -48, -10, -67, -10, -1, -128, 119, -29, 36, -19, -117, -128, -95, -26, 53, -128, 127, 49, -93, -50, -51, 86, 0, 127, 31, 14, -31, 11, -58, 20, 9, -21, 76, 58, -72, -50, 85, 30, -42, -33, 32, 39, 5, -18, 20, 64, 15, 20, 23, -51, -57, 36, -17, 127, -37, -44, 127, -89, 71, 121, -27, -20, 9, -22, 9, -8, 115, 78, -27, -83, 5, 93, 23, -7, -85, 44, 89, -83, -6, 56, -67, 83, -35, -51, 27, 1, 31, 17, 38, 6, -118, 64, -45, 22, -124, -44, 31, -61, 52, 82, 59, -128, -19, -13, 61, -9, 94, -108, -29, 33, 37, 75, 65, 66, -26, -78, 31, -81, -19, 117, -3, 111, -3, 33, -64, 46, 24, -42, 40, 85, -12, -73, 65, -74, -56, 79, -8, 10, 20, 7, 29, -32, 91, -45, 23, -31, 40, 81, -43, 87, 24, -12, 20, -68, 38, 54, 79, 79, 8, 69, 127, 77, -4, 18, 79, 26, 31, 78, -99, 47, 33, -128, -23, 87, 55, 63, 41, 58, 27, 39, -18, 61, 13, 56, -56, -106, 69, -46, 91, 92, -121, -18, 50, -9, -7, \
-24, 32, 41, 12, -83, -4, 61, 59, 33, 30, 36, -46, -45, 5, 3, -46, 99, 20, 77, 79, 45, 10, 57, -86, -21, -7, -9, 77, 127, 106, -31, 70, -85, 42, 54, 47, 38, 0, -9, 69, 46, 23, -95, 41, 106, 20, 20, -5, -43, -57, -63, -34, -9, 73, 6, 84, 24, 127, 1, 74, -64, -68, -107, -4, 92, 99, -22, 20, 72, 55, 109, -34, -42, 15, -4, -39, 16, 1, 11, 48, -8, -28, 57, -78, -113, 47, -75, -24, 6, 68, 13, 81, -4, -35, 25, 15, 5, -44, -23, -30, 52, -5, -8, -67, 28, -45, 63, 14, 58, 2, 35, -68, -26, -128, -37, -29, 127, -128, -67, -29, -55, 8, 123, -56, -16, -30, -103, -48, -2, -69, -103, -85, -9, -54, 56, 111, 127, -36, -109, -100, 1, 26, -65, 69, 37, 16, 11, 52, -101, -22, 31, 70, -46, -50, 31, 55, -45, -45, 36, -103, 20, -73, -26, 38, 12, -12, -57, 78, 39, -39, -110, -10, -37, -84, 40, 6, 35, 52, -119, -46, -14, -5, 15, -33, 51, 19, -91, -40, -28, -55, -96, -19, -4, 0, -71, 123, 7, -125, 57, 27, -65, 31, 32, 28, -104, 37, -36, 79, -74, -115, -22, -16, -73, -13, 53, -128, -9, -39, -23, 12, -30, -58, 116, 10, 3, 31, -11, -22, -50, -52, 67, -29, -69, 18, -103, 18, -28, -128, 23, 31, 65, -6, -128, 40, -109, 52, -45, -119, 28, 81, -107, -93, 102, 127, 53, 13, 127, 33, 4, 7, -17, -24, -51, -52, -77, 23, 127, 12, 88, 73, 37, 66, -12, -42, -91, 50, 15, -19, 0, -2, 30, 23, -51, -35, -107, -29, 114, 29, \
-20, 65, -1, -74, 69, -128, -27, -27, 104, 127, 111, 65, 88, 47, 127, 97, -36, -21, -68, -128, -48, 86, -128, -20, 125, -11, -24, 81, 43, -128, -84, -44, 58, 106, -67, -94, 26, -43, 77, 89, 27, 44, -38, -6, 66, 21, -15, -66, 76, -26, 69, -28, -33, -128, 51, -12, 80, 11, 26, -59, -55, -2, 66, -35, 62, -82, 82, -30, -92, 31, -8, -128, -41, 124, -44, 57, -49, -10, 33, 11, -46, 24, -63, 55, -34, 45, -23, 23, 110, -19, 127, 92, -14, 28, 78, -52, 35, -28, 31, 53, 2, -47, -69, -21, 0, 98, 17, -88, 45, 94, 44, 68, 38, 86, 99, -64, -43, -94, 20, -10, 127, -120, -65, 119, 13, -59, 106, -24, -57, 0, -24, -49, 116, 39, 16, 65, 68, -66, 18, 72, -37, -101, 9, 64, 90, 28, -128, -38, 58, -14, 68, -128, -78, -49, -77, -17, -2, 67, 66, 119, 118, 90, -11, -32, -9, 44, 35, -17, 71, -101, -36, 74, 46, -12, -10, 31, -33, 35, 28, -14, 127, -49, -81, 81, -58, 127, 44, 8, 30, -42, -9, -15, 21, 71, -1, -26, -6, 7, 20, 26, -128, -113, 23, 62, 47, 99, 34, -40, -19, -76, -12, 7, -7, -26, -16, 4, -97, 9, 35, 47, 75, 123, 18, 63, -104, -5, -15, 22, -128, -128, -10, -95, 38, 127, -57, 63, 13, -25, 38, 3, -75, 22, 14, -128, -10, -73, 102, -101, 50, -70, -1, -25, -117, -22, 12, -19, -12, 15, -42, 30, -32, -116, 122, -128, -25, -12, -13, -19, -16, -18, -33, 31, -65, -15, 6, 61, 112, 5, -9, -75, 102, 60, 4, 18, 64, -111, 72, 81, \
-128, -128, 127, -14, 27, 27, -51, 50, -4, 25, -82, 4, -128, 122, -53, -12, 75, -71, 27, -56, -28, -39, 40, 125, 5, 9, 31, -7, -8, 47, 12, -18, -45, 43, -28, -88, -13, -52, 41, -128, 57, -31, -45, 127, -53, -31, -71, 23, -13, -92, 119, -22, 67, -23, 62, 93, 69, -20, -108, -22, 44, 44, 38, 22, -22, 11, -12, 79, -14, 47, -27, 3, 81, -15, -51, -82, -17, -44, 51, 27, -65, 44, -43, 64, 25, -50, -35, -14, -5, -3, -52, -128, 1, -128, -73, -61, -8, 29, 67, 81, 39, -60, 58, 14, -8, -104, -2, 15, 53, -51, 61, -46, 13, -41, -45, -97, -17, 65, -7, -84, 73, 65, -26, -35, 97, 4, 105, 35, -32, 53, -6, 13, -1, 15, 48, 6, 16, -68, -45, -51, 5, -127, -85, 0, 45, 78, -27, 23, 58, 127, -73, 64, -8, 7, -9, -1, 28, -128, -31, 27, -65, -32, -29, -32, 58, 47, -28, -15, 108, -33, 44, -128, 16, -41, 6, 110, 72, -45, 21, -15, 48, 60, 115, 15, -105, 6, 60, 3, 31, 1, -20, -48, 108, -38, 77, 3, 15, -107, 120, -10, 36, -128, -26, 36, 84, 12, 127, -39, 59, -33, -70, 51, 45, -22, 15, -29, -56, -78, 18, 90, -57, -19, 118, -80, -42, 8, -55, 24, 102, -7, -16, 4, -25, 17, -25, 19, 43, -5, 31, -82, 28, -104, -110, -128, 11, 7, -84, 100, -39, 44, -124, -45, 24, -13, 5, 6, -11, -68, 40, 85, -24, -128, 100, -101, -128, -113, -96, -68, 41, -54, -58, -83, 33, -128, 108, 86, 9, -110, -53, -46, 1, 95, 58, -23, 33, 29, 46, -53, \
-68, -33, -2, 16, -6, 18, -2, -4, 4, 3, -34, 40, -2, -19, 79, -65, -59, 19, -17, 127, 12, -74, -76, 28, 70, 50, 20, -76, 2, -72, 13, -74, -18, 64, 7, 126, -128, -9, 30, -19, -95, 32, -9, 61, 16, -128, -51, 0, -42, -98, -74, 25, 49, 29, -12, -65, 22, -66, 37, 104, 55, 19, 7, -62, 25, 49, 69, 6, 54, -40, -22, 38, 115, 55, 103, 39, -128, 13, -24, -71, 102, 117, 54, -14, -73, -44, 7, 127, -92, 41, 116, -19, 59, 15, -63, 5, -74, 0, -9, -110, 12, -107, -46, -9, 6, -69, 89, 45, -8, 38, -60, -84, 12, 33, -69, 19, -17, -21, 14, -13, -13, -65, -25, -3, 15, -80, 127, 34, -50, -44, -29, -9, 54, 46, 48, -128, 90, 96, 16, -124, -128, 21, 35, -98, -83, -36, 22, 83, -34, 59, -40, -120, -53, 4, 21, -9, 57, -87, 13, -6, 47, -72, 57, 34, 45, -65, -33, 64, -65, -43, -40, -2, 6, -22, -38, -32, -99, 28, 33, -29, 90, 100, -23, 24, -9, -32, 9, -21, 58, -64, -19, -41, 103, -34, 5, 16, 2, 49, -98, -36, -29, 50, 0, -92, -13, -62, -111, -86, 8, 30, -87, 40, 46, -79, -43, -91, 72, 92, 13, 52, 63, 70, 85, 95, 62, 80, -60, -85, -14, -14, 50, -23, -37, -84, -53, -65, 12, -68, -26, 99, -71, -6, 17, 24, -75, 79, -41, 127, 45, 31, 58, 127, -116, 118, -18, -99, -32, -14, 15, -22, -81, -128, 108, -40, 10, 62, -55, 39, -17, 20, 1, -15, 49, 12, 45, 19, 63, 31, 14, 0, -62, -22, -53, -18, -8, 29, 45, 73, \
40, -101, 10, -58, 34, 96, 33, 5, -27, -39, -21, -23, -93, 18, -17, 47, 30, -128, 50, 19, -11, 36, 59, 47, -38, 0, 27, -65, 7, -28, -98, 21, 33, 51, -94, -30, -62, -6, 49, -24, 1, 18, -23, -80, 3, 0, -51, 22, 76, 43, -54, 22, -17, 32, 46, -126, 42, -19, -11, 35, 44, 97, -61, 84, -35, 33, 16, -57, 2, 0, -32, -32, -128, 127, -26, 113, 58, 57, 27, 62, -128, -30, -39, 62, -97, 101, -35, -50, -14, 20, -111, -123, 40, 7, -21, 111, -1, 84, 34, 80, 92, -13, -10, -35, -68, -54, -34, 75, 19, -97, -72, 37, -60, -14, -37, 30, 1, -97, 101, 59, -57, -20, -8, -40, 56, 127, -55, 32, 43, 127, 32, 30, 127, 13, -41, -14, 11, 80, 84, -32, 121, -33, 49, 27, -28, -97, 93, 7, 64, 127, -39, 17, -50, 86, -21, -22, 57, -44, 25, -23, 45, 87, -96, -42, -128, -21, 20, -21, -54, 25, -8, -17, 83, 64, 10, -101, -10, 7, 62, -73, -35, -66, 60, -128, -90, -51, -7, -3, 36, -108, -25, -26, 0, -95, -85, -45, -65, 77, 96, -123, -76, 41, 44, 28, 10, 11, -2, -61, 67, -69, 4, -29, 12, 19, 11, 72, 117, -58, 46, -114, 12, 91, -54, -74, -92, 11, 75, -1, -15, -19, 17, 127, 2, 87, -15, -3, 73, 127, 8, 1, 4, 66, -60, -34, -105, 84, 71, -128, 15, 13, 45, 91, -38, -22, 11, 35, -15, -50, -44, 26, 62, -32, -128, 35, 71, -38, 4, -73, -20, -50, -16, 9, 91, -77, -128, 4, 107, 87, -84, -96, 64, 58, -36, 91, 40, -44, 73, -8, \
-10, -40, -51, 6, -83, 26, -31, 46, -32, 99, -7, 101, 28, 22, 0, 7, -62, 33, 8, -24, -74, 40, 4, 7, 64, -73, 3, 44, -72, 92, 6, 66, -70, -19, -64, 127, 30, -14, -78, 3, 88, 3, -106, 66, 33, -114, 56, -30, -31, -17, -31, -14, 31, -95, -30, 58, -19, 3, 11, -107, 20, -75, 63, 54, -122, 16, 87, -105, -7, -25, -32, 64, -15, 68, 63, 72, -117, 67, -18, -103, -7, 17, 56, 36, -37, -97, 36, -86, 27, 76, 0, 54, -74, -39, 74, 18, -32, 4, -12, -76, 51, -27, -61, 41, -56, -70, 19, -18, 5, -85, 15, -65, -112, 22, 45, 10, 21, 26, -39, -108, -88, 12, 40, 17, -24, 20, -13, 0, 18, 38, 71, 5, 35, -39, -55, 127, 127, -39, 37, 127, -76, -32, -38, 58, -48, 31, -7, 76, -36, 42, -40, 97, 6, 20, 101, -1, -32, -34, 74, 56, 38, 26, -67, 52, 6, -14, -52, -15, -6, 44, 1, -39, -73, -77, 84, 127, 60, 104, -4, -47, -79, -32, -31, -40, -35, -99, 78, -53, -46, -13, -23, 84, -6, 37, 46, -53, -2, -9, -4, -66, 47, 72, 24, -128, 34, -48, -62, -95, 15, 68, -24, 88, 69, -76, 4, -100, 32, -82, -77, -114, 15, -82, 38, -46, 127, -61, 117, -47, 51, 36, 36, 50, 9, -128, -65, 20, 78, -101, -91, 38, -109, 67, 84, 30, 119, 99, -109, -63, -110, 12, 17, 113, -14, 27, 66, 14, 12, -40, 16, 65, 62, -57, 25, 38, -23, 1, 103, -103, 72, 19, 22, 18, -32, 12, 4, -92, -118, 11, 10, -60, 7, 19, -80, -68, 1, 95, 6, 84, \
-43, 49, 31, -113, 34, 71, 8, 2, 33, -93, 12, 1, -63, -8, 105, -19, -128, 124, -11, 14, -39, 5, 53, 125, -128, 36, 121, 44, -40, -28, -75, 45, -23, -70, -16, 89, 127, -107, 53, 127, 28, 41, 44, 10, 38, -128, -77, -2, 59, -22, 13, -107, 70, -104, 25, -36, -128, -15, -117, 8, 61, 1, -114, 59, -66, 19, 60, -128, 1, 51, -28, 101, 54, -21, 60, 65, -41, -14, -1, -101, 111, 39, -12, -5, -89, 20, -4, -22, -1, 85, -74, -41, -114, 21, 19, -7, -50, 63, 98, 22, 11, -98, 80, 32, -8, -6, 12, 33, -27, -68, -7, 13, -102, -80, 27, 32, -27, -96, -27, -22, 52, 71, 0, -52, -67, -93, -11, 50, 0, -23, 54, 75, 60, 58, -40, -15, 43, -1, -15, 64, 68, -54, -88, 127, -77, 127, -55, 21, 39, -42, 42, -110, -66, 16, -84, -18, 46, -12, -14, 46, -18, 13, 29, 39, -71, 3, 53, 50, 41, 24, -10, 4, -37, -68, 46, 93, -7, 63, 56, -46, -7, -58, 68, 8, -10, -49, 20, 5, -4, -50, -76, -17, 95, -73, 34, -40, 22, 5, -55, -83, -4, 0, 54, -28, -105, 127, -48, 8, 43, -48, 58, -116, 9, -91, -31, -97, 25, 103, 66, 109, 72, -81, -17, 35, -128, -49, 46, 59, 114, -60, 4, -55, 67, -37, 12, 4, -87, 1, -56, 7, -35, -75, -11, -4, 35, 66, -58, 15, 50, -48, 78, -48, 13, 76, 59, -1, -64, 49, -128, 32, -128, 22, -18, 101, 84, 17, 28, -33, -19, -8, 17, 89, 76, 8, 68, 86, -28, -42, 80, 30, 8, -17, -22, 22, 37, 82, 52, 62, \
44, -106, -50, -5, 25, -128, -116, -63, -83, 82, 13, -15, 108, 11, 17, -43, 59, -35, -128, -27, -37, -18, -38, -46, 80, 99, -46, 29, 10, 127, -38, 1, -16, 9, -1, -66, -128, 12, -78, -20, 99, -128, 52, -19, -57, -62, -51, 13, -70, -103, 39, 31, -65, 4, -92, -16, -52, -62, 48, -126, -40, -105, 33, 0, -45, 6, -8, 53, -44, -123, 102, 25, -2, -39, -91, -4, -68, -22, -57, 32, 44, 11, 7, -10, 15, 57, 23, 10, 127, 4, -54, 127, 66, -22, 66, -128, -76, -75, 76, 42, 127, -73, -51, 23, -68, 20, 16, -11, -8, -39, 36, -67, 3, 47, 46, 38, -97, 12, 58, -7, 21, 106, 68, -5, 69, -35, 39, 95, 15, -87, -128, -6, -73, -102, 38, 18, -39, 89, 35, 18, 10, 41, 4, -46, 19, -120, -10, -24, -10, 95, 60, 1, -58, -65, -21, -101, -48, -78, -92, 4, -26, 24, -128, 103, 54, 24, 96, -4, 127, 47, 56, -39, -77, 8, 66, -128, 70, 127, -70, -70, -38, -124, -28, 102, 47, 43, -9, -67, 14, -66, -9, -13, 48, 10, -57, -78, -85, 45, -3, -29, -33, -47, 118, -22, 52, -3, -69, -128, 41, 48, -55, -32, -75, -55, 61, 10, -70, 16, -58, 29, 127, 84, 59, 54, 81, 10, -15, 1, 41, 21, -26, -7, 53, -55, -106, 99, 39, -65, 127, 28, -55, 51, -10, 30, -57, -66, -62, 26, -69, 88, 63, 45, -40, 16, 42, 44, 75, -1, -66, 14, -25, -24, -39, 53, -18, -8, -106, 100, 7, -61, -62, -33, 70, 87, -128, 75, 98, 75, 49, 60, 109, 9, 84, 93, 99, 66, -19, -32, \
34, 35, 81, 54, -40, 96, 111, 59, 60, 1, -35, 50, 5, -34, -51, 38, -13, 23, 23, 23, -95, 22, -31, -21, 99, 16, -16, 106, -27, -31, -22, 0, -54, 25, -44, 42, -49, -7, -21, -47, 65, 69, -34, 26, 57, -5, -19, -97, 6, 94, -1, 127, 114, 67, 10, -17, -5, 5, 49, -5, -28, -42, -128, -22, -40, -30, 25, 9, -25, 8, -50, 127, 33, -82, 84, -49, 82, -84, -14, 18, -22, 110, -47, -106, 93, -20, -32, -4, -59, -31, -85, -31, -45, -34, -6, -36, -93, 26, -30, -49, -42, -18, -99, -54, 8, -68, -20, -10, -122, 13, 65, -36, 25, 21, -107, 57, -65, 19, 33, 28, 80, 53, 20, 41, 42, -28, -41, -50, 48, 20, 28, -54, 68, 2, -56, -23, -44, 44, -128, -49, 20, 10, 60, 126, 44, -30, 71, 24, -12, -65, -22, -126, -43, 9, 81, 13, -118, -80, 105, -128, 51, -24, 43, -63, -128, -78, 27, 18, -35, 127, 31, 47, -65, 20, -79, -113, 6, -80, -14, -52, -22, 33, -60, 2, 31, -24, -64, 9, -97, -52, -44, 64, -45, 15, -86, 30, 50, 37, 124, -5, -57, -22, 104, -14, 21, -10, -35, -85, 50, -41, -128, 75, -40, -119, -2, -81, -91, 5, -25, -54, 50, 22, -39, -48, 27, -53, 0, -69, -45, -19, -62, -53, -44, 115, -2, -71, -86, -21, 65, 7, -128, -4, 9, -121, -74, 30, 127, -24, -66, -68, 11, -66, -36, -50, -34, 34, -63, 127, 62, -2, -28, 0, 14, -60, 60, -86, 44, -37, 40, -24, -128, -39, 37, 55, -32, 30, -75, 67, -128, 62, -27, -32, -110, 111, -62, 83, 52, 82, \
-39, 26, -19, -128, -25, -82, -41, -9, -6, -49, 44, 81, -40, -6, 43, 88, -10, -5, 127, 127, 76, 16, -7, -74, -39, 6, 23, -1, 46, -33, 101, 87, 86, 42, 26, -28, 51, 1, 43, 11, -103, 30, 1, 12, -4, 18, 111, 116, 52, 21, 50, -8, 59, -80, 45, -65, -32, 75, -82, -29, 50, -48, -8, 105, 73, 29, 45, 25, -29, -5, -6, 79, 83, 1, -39, -2, -19, -23, 10, -108, 82, 3, -50, -10, -22, 8, -18, 42, 107, -35, -116, -21, -20, 89, -40, -105, -63, 56, 31, -2, -29, -23, 64, 10, -118, 97, 116, -43, 83, 11, -27, -29, 121, -40, -47, 86, 92, 28, 57, 28, 14, -59, -13, -33, 127, -52, -78, -10, 2, 89, -38, -38, -23, -6, -26, 52, 65, 18, 111, -5, -21, -21, 58, 127, -33, -19, -36, -52, 84, 12, 53, -108, -17, -8, 30, -110, 25, -102, 65, 42, 42, -72, -118, 44, 30, -42, -21, -18, 71, 56, 44, 62, 2, -9, -31, -62, 59, 102, 87, 37, 127, -22, -18, -42, 46, -8, -38, -28, 22, 24, 75, -128, 13, 122, -4, 33, 15, -97, -4, 40, 44, 15, -40, -40, -4, -66, -99, 3, 7, 9, -51, 8, -82, 2, 38, 90, 116, -7, 43, -38, 41, -61, -38, 27, 1, 38, 32, -69, 80, 72, 26, -35, 29, -75, -6, -85, 10, -36, 25, -11, 8, -18, 78, 109, 37, -66, 127, 67, -87, -41, -14, 53, -49, 72, -86, -128, -6, 76, -36, 33, -48, -16, 41, 126, 57, 77, -5, -35, -81, 41, -13, -127, -111, 57, 28, -2, 72, -49, -54, -80, 99, -41, 18, -98, 50, -1, 3, -61, \
2, 7, -31, 116, 127, -119, -54, -66, 6, 79, 11, 43, 12, -52, 25, -44, 34, 14, -7, -66, -26, 44, 49, 16, 23, -31, -4, 18, -50, 30, -20, -5, 33, 72, -36, -4, -12, -39, -19, 48, 46, 26, -42, 32, 44, -51, 11, -49, -112, 58, 37, 10, -77, 84, -6, -128, -17, -2, -93, 71, -41, 5, 61, -31, 57, 14, -81, 127, 57, -82, -41, 127, 113, 5, -19, -105, -114, 3, -33, -41, 13, -22, 14, -56, -2, 31, -32, 5, 8, -37, 39, 46, 111, -5, -1, -83, -16, 41, -65, 102, -80, -24, -81, 37, 38, 75, 18, -8, -34, -128, 86, -36, 98, 17, 47, -67, 46, 21, -27, -60, -73, -45, 33, -57, -16, 75, -12, -4, 40, 11, -24, -12, 62, -29, -111, 98, 64, 57, 56, 37, 13, 56, -38, -20, 14, -66, 43, -30, -32, -104, 10, -56, 32, -53, 33, 127, 35, -24, 85, -61, -80, -128, -58, -14, 9, 17, 101, -82, -128, 38, 75, 76, -109, -42, -6, 19, -128, 56, -21, -37, -88, -70, 32, -12, 32, 30, -76, -32, 53, -30, -31, 29, 51, -115, -15, 2, -31, 127, -105, 63, 39, -21, -51, -8, -128, 2, 37, 7, 83, 11, 23, -9, 45, 20, -39, 71, 21, -19, 36, 42, -26, -22, -40, -90, 25, 32, -64, -79, 54, -35, -48, -85, -43, 51, -20, -6, -7, -13, -50, -10, -30, -80, -36, -1, 53, -17, 31, -55, 18, -68, -92, 1, -6, 78, -41, -71, 77, 7, -26, -36, 120, -55, 0, -62, -126, 7, -31, 103, -24, -2, 26, 108, -69, 39, 12, -44, 127, 91, -98, 127, 37, -35, -9, 59, -10, -71, -105, -35, \
127, 19, -63, 76, -58, -48, -23, 11, -43, 13, 75, 65, 54, -100, -32, -30, -25, 70, 85, 59, 81, -78, -50, 23, 61, 55, 39, 21, -74, -85, 11, 61, -22, -5, 7, 127, 105, 28, 26, 40, -9, 76, -41, -122, -18, 124, -7, 19, -30, -41, -16, -47, 29, 6, -30, 7, -16, 31, 45, 68, 13, 127, -54, 35, 79, -12, 17, 46, 73, -95, 32, 42, -99, 82, -32, 83, -54, 58, -13, -15, -128, -81, 20, -128, 82, 36, 25, 12, -11, -30, 21, -15, 45, 69, 74, -36, 10, 127, -75, -48, 64, -33, 37, 31, 69, 18, 84, 127, -102, 19, 7, -11, 29, -63, 39, -20, -11, -70, -32, 67, -10, 15, -34, 16, -108, -55, -92, 55, -53, -53, 61, 35, 21, -23, 113, -57, -119, -100, 61, 16, 23, 103, 6, -31, -27, -55, 13, -41, 35, 29, 23, 2, -98, -63, 22, -41, -18, 28, 9, -56, -6, 35, -76, 27, 47, -68, 14, 10, -73, 11, -81, -6, -28, -9, 68, -114, -51, -41, 70, 41, -26, -12, 104, -46, -65, 71, 55, 40, -128, -75, -104, 76, -46, 13, 90, -93, 58, 35, -15, -48, -41, -16, -65, -5, -11, -11, 127, 1, 5, 77, -86, -64, -114, 96, 10, -2, 38, 125, 71, -88, -48, 65, -80, 57, -34, -48, -31, 83, 27, 25, 11, 121, 31, -31, 85, -120, 63, -72, 7, 8, 15, -128, -45, -48, 55, -65, -28, 3, -94, -40, -15, -111, 63, -55, 58, 10, 37, -50, 48, 2, 41, -25, 47, -75, 9, 66, -9, -63, 16, 127, -41, -40, 44, 21, 36, 52, -56, 19, -69, -23, -83, 85, 35, 88, -3, 74, -97, -39, \
-102, -58, 108, -60, 3, -57, -18, 115, -29, -34, -32, -65, 42, 14, -24, 68, 36, -4, 76, -68, 16, 113, -60, -61, 18, -96, -124, -28, -40, 61, -23, -108, -71, -11, -49, 77, -43, 5, 85, 97, 29, 8, 53, -11, -63, -10, -68, -128, -53, -47, 4, -102, -112, 51, -88, 107, -77, 1, 90, -5, 56, -40, 3, 42, -13, -69, 9, 10, -54, -85, -8, 95, -96, 73, -57, -120, 23, 16, -4, -97, -128, 41, -62, -2, 12, -36, 54, 35, -54, -66, 67, 40, 11, -37, -50, 6, 23, 56, 36, 19, 59, -48, -87, 18, 38, -20, 50, 20, 13, 75, -52, 41, -120, 126, 127, -59, 28, -80, -43, 65, 127, 110, -128, -61, -91, 33, -128, 25, 40, -9, -107, 116, 37, -71, -5, 70, 6, 10, 1, 127, 51, -22, -73, -114, -37, -83, -7, -33, -97, -66, 13, 69, 113, -24, 65, -21, 25, 72, 8, -121, -5, 40, -20, -28, 10, -119, 2, -17, -31, 1, -35, -26, 70, -40, -26, 47, 97, 14, 16, 79, -83, -2, 43, -15, -80, 101, -40, -58, 123, -56, -48, 34, -70, -55, -58, 42, -69, 84, 46, -42, 53, 34, 11, -78, 24, 75, -128, -88, 127, 60, 80, 61, 4, -72, -28, -42, 32, 33, -68, -48, 47, 57, 6, -21, 51, 31, -30, 81, -18, -54, 20, -53, -128, 6, -38, -3, -46, 117, -68, -22, -4, -37, -128, -24, 21, -9, -67, 21, -90, -57, -96, -14, 107, 10, 53, 118, -28, 16, 98, -47, -25, -91, -31, 37, -41, -128, 54, -15, -66, 22, 106, 26, -77, 78, -66, 127, -13, -81, -84, -60, -29, -100, 127, 90, -66, -84, 0, 85, \
-39, 74, 69, 83, -10, 25, -91, -95, -73, -62, 23, 127, 11, 80, 69, 32, -14, -27, -75, -46, -58, -94, 85, -98, 61, 28, 127, -46, -51, -53, -92, -53, 5, -36, 36, -25, -37, 60, -66, 59, 37, -26, 80, 89, -61, -56, 59, -99, -68, 44, -11, -45, 112, -58, 67, 26, 46, 15, 73, -6, -41, -59, 64, -58, 127, 77, -27, 77, 18, -41, 61, -4, 28, -94, 30, 38, -19, -19, -17, -1, 80, 49, -28, -69, -48, 127, -26, -73, -26, -122, 1, 52, 62, -12, -78, -10, -2, 123, 6, 13, -58, -21, -128, -17, -3, -31, -67, -84, -13, -92, -34, -22, -42, -40, 5, -31, 31, 64, -43, -12, -42, -7, -125, -35, 62, 16, -45, 61, 96, -35, 127, -1, -22, -67, -11, 47, -26, 5, 51, -34, 15, 72, -2, -53, -28, 1, -22, -83, 31, 89, -38, -31, 24, -9, 29, -23, -27, -24, 35, -18, 17, 61, 8, 116, -22, 14, 50, 89, 88, 2, -2, 97, -72, -49, 5, 69, -37, 40, 53, -18, 38, -2, 86, 87, -118, -12, 84, -81, 103, 92, -16, 9, -113, -72, 6, 89, -16, -12, -27, -68, -128, 90, -80, 26, -20, -30, 67, 84, 56, 1, 63, -11, -79, -128, 9, 50, -103, -28, -44, 25, -36, 48, 21, -10, 35, -60, -124, 127, 39, -101, 31, -42, 46, 44, 25, 23, -36, -119, -4, 50, 8, -62, -23, -43, 21, -64, 75, -63, -4, -78, -42, 22, -64, 84, 8, -63, -31, -23, -82, 2, -48, 38, 84, -54, 6, 74, -24, 0, -79, -20, 26, 23, 30, 99, -84, 20, -15, -22, 90, -93, -107, -110, -127, -121, -74, 120, 32, 2, \
-50, -113, 56, 29, 38, -41, 22, 4, -4, 9, -32, 21, -46, 74, 95, -18, 58, 29, -124, -22, 37, 59, 39, -14, -5, -30, 127, -107, 39, -14, -50, -51, -122, -88, -13, -51, -13, 67, 42, -84, 36, -19, 14, -105, -126, -42, 50, -17, -15, -75, 15, -128, 0, 86, -39, 123, 33, 84, -43, 3, -59, 57, -62, -64, -94, -26, -84, 14, -1, -72, 25, 14, -65, 127, 73, -11, -16, -22, 38, -13, 77, -3, 93, -123, -4, 52, -75, 2, -13, -113, -21, -65, 24, 5, 88, 92, -95, -30, 97, -1, -36, 55, -34, 74, -110, -110, -52, -60, 108, 42, -128, -23, -6, 27, -27, 25, -17, -16, -58, -96, 53, -100, -58, 5, 52, 44, 41, 56, 80, -41, 30, 56, -10, -7, -59, -105, -54, 30, 23, -6, -7, 71, 58, 9, 28, -115, 17, 33, -102, -17, -56, 63, -26, 49, 84, -13, 14, -34, 45, -128, -61, -128, 49, -56, 24, 69, 11, -52, -81, -85, -43, -18, -82, 68, -17, -39, 51, 29, 20, 91, 71, 23, 61, -16, 127, 75, -51, 29, -55, -89, -27, -86, -1, 35, 83, -82, 123, 41, -46, -3, -44, 18, -18, -128, 26, -11, -52, -81, 42, -18, 22, -89, 20, -46, -50, 69, 127, -70, -34, -71, -11, 32, 50, -29, 32, 118, 18, 127, -33, 15, 127, -1, -14, -48, 86, -47, -2, -27, -128, -7, -115, -27, 38, -18, 12, 80, -86, -40, 127, -92, 19, 14, 55, -55, -12, -128, -87, -50, 54, -10, -15, -26, -128, -86, -128, 77, -91, -22, 64, -1, 0, -30, -124, -21, -37, 9, 1, 27, -19, 89, -58, -13, 52, -21, -9, 121, 90, 8, \
-26, 127, 38, -20, 124, 73, -79, 75, -49, -56, 6, -103, -82, 65, -8, 85, 65, -64, -47, 76, -10, 49, -21, -42, 35, -24, -67, -59, 37, -26, -88, 36, -21, -60, 9, 66, 95, 102, 63, 90, 59, 14, 42, -3, 8, -58, -124, -11, -51, 63, -8, 120, 3, 56, 22, -30, -54, -49, -31, -89, -49, 29, 17, 24, 8, 38, -67, -23, 127, 46, -3, 43, -46, -53, -14, -55, -29, 83, -60, -50, -115, -28, 63, -83, 25, 52, 4, 105, 127, 15, 15, 43, -128, 53, -3, -117, 69, 59, -50, -25, 75, -2, -53, 76, 93, -48, -11, 98, 39, -41, 22, -17, -38, 10, 127, 127, 17, -26, -102, -80, 119, 74, -51, -87, -90, 22, 66, 72, 66, 68, 66, 2, 83, -67, -63, -102, -32, 7, -5, -37, 17, -33, -102, 30, 71, -72, 4, -7, -49, -109, -106, 73, 7, -18, -40, 5, -6, -10, 7, 32, 16, -5, -82, 90, -32, -21, 79, 32, -93, 20, 94, 24, -7, 29, -16, -47, -74, -13, -15, -32, 124, -78, 82, -63, -5, -95, -2, -44, -30, 28, -100, 60, -34, -64, -22, 43, -125, -128, 34, 21, -44, -25, 47, -1, 17, 40, 125, 14, -1, -44, -60, 47, -128, 28, 14, -64, 59, -26, -23, 87, 72, -121, 127, -67, -6, 21, -30, 77, 71, -40, -40, 12, 2, -16, -14, 43, 22, -29, -114, 71, -69, -61, 127, 47, -4, -23, 40, 26, -13, 54, -84, 35, -46, -7, -48, -83, 111, 80, -71, 20, 26, 84, 59, 29, -49, 5, 31, -12, 45, 63, 18, -128, -36, -60, -9, -54, -126, 74, 77, 127, -36, -9, 6, -10, 58, 82, -12, 102, \
17, -128, 89, -17, -4, -51, 30, 2, -52, 57, 11, 8, -35, -27, -66, 1, -13, 87, -20, -70, -85, 40, 7, 33, -22, -91, -84, -74, 10, -33, -43, 66, -115, 127, -49, -128, -7, -27, 38, -56, 99, 72, -29, 19, 76, -55, 16, 16, -21, -7, -78, -128, -75, 21, 15, 5, -49, -115, -50, -58, 104, 77, 4, -29, 7, -37, -71, 42, 7, -7, 57, 15, -121, 22, -15, -65, 73, -31, -40, 91, -37, -4, 48, -33, 84, 53, -84, 30, 61, -3, 31, -31, -128, -4, 35, -22, 76, 92, 15, 21, -82, 8, -52, 112, -85, 17, -46, 51, 7, 65, 87, -122, -72, 37, 54, 66, -19, 57, 86, -14, -128, -34, -20, 23, 34, -4, -119, 71, -16, 18, 127, -15, -49, 47, -4, -122, -23, -34, 6, 35, -88, -10, 127, 15, -44, -55, 95, 92, 62, 127, -26, 98, -57, -9, -40, 14, 33, -14, -87, -60, -122, 0, -82, -95, 76, -114, 85, 13, 35, 16, -21, -127, 45, -114, 85, -97, 75, 98, -30, -128, -49, -48, -98, 31, 28, 102, 59, 1, 7, -85, 39, -104, 107, -13, 87, -60, -13, 44, -2, -54, -57, -128, 38, -110, -58, 118, 119, -87, -47, -38, -41, 45, -26, 108, -7, -101, -12, 115, -53, 4, -77, -12, 127, 41, -20, 127, 81, 127, 32, -17, -9, -9, 113, 36, 6, -40, 2, 25, 47, 58, 44, -128, 32, -104, -83, -13, 1, 63, 107, 68, 30, -9, -3, 23, -47, -22, -9, 19, 10, -41, 101, -16, -65, 79, -49, -18, -54, 82, 19, -42, 5, 17, 78, 25, -21, -56, -21, 61, -38, 16, 11, -38, -127, -100, 127, -25, -12, -6, \
9, -41, -11, 57, -18, -42, 54, 67, -118, -9, -83, 13, -106, 127, -114, -111, -29, -88, 8, 55, -7, 15, -83, 35, -14, -8, 127, -15, 67, 2, -50, 8, -27, -27, 31, 12, 93, -68, 25, -52, 21, 25, -59, -34, -26, -4, 52, 50, -68, 22, -21, 1, 30, -21, 31, 117, 79, -64, 7, -31, 37, -99, -111, -43, -24, -91, 14, -45, -97, -35, -110, -53, -40, 0, -15, 76, -19, 22, 70, -34, 17, -38, -38, 28, -56, -8, -36, -128, -40, -87, 77, -77, 111, -29, -11, -30, -45, 54, -108, -10, -40, -52, 85, 74, 39, -61, 9, -17, -118, -54, -48, 86, 24, -39, 78, 32, 8, -41, -48, -42, -9, 15, 21, 67, 12, -42, 84, -84, 94, 7, -73, -57, -73, 66, 44, 28, -83, 13, -49, -128, -44, -26, 3, -66, -23, 96, 96, 84, -77, 45, -26, 50, -44, 8, -42, -48, 32, -52, -84, 29, 95, 17, 54, 53, 35, 25, -87, 6, 43, -5, -80, -22, -17, -33, -42, 2, -29, 72, -9, 91, 120, 47, 18, -68, -40, -58, -103, 114, -23, 51, -101, 11, -16, -8, -106, -83, -128, -1, 82, -121, 93, -37, 114, -58, 39, -6, -91, -1, 32, -75, 75, -67, 21, 42, -73, 16, 34, 127, 40, 57, 49, 92, -91, 127, -102, 21, 15, -65, 28, -128, 16, 61, 18, 40, -33, -128, -19, -37, 42, -128, -34, 49, -18, 15, -18, -29, -81, -1, 51, -5, -128, -120, 27, -46, -15, 53, -65, -128, 127, -35, -55, -118, -44, -29, 11, 57, 64, 39, 75, -74, -22, 36, 75, 87, -85, -73, -4, -28, 31, 19, -75, -7, -128, 50, 48, -77, 2, 13, \
-55, -5, -34, -90, -123, 92, 18, 105, -46, -48, -48, -28, 42, 8, 2, -59, 50, 28, 104, 2, 91, 127, 1, 79, 78, -69, 95, -24, -68, 70, -100, 127, -9, 31, 78, -65, -57, -38, 39, 26, -66, -45, 0, -66, 18, -115, 59, -45, -70, -128, -62, -48, -54, 97, 53, 36, -30, -8, -70, 37, -57, 40, 127, -28, -57, -58, -40, 27, -34, 80, 12, -15, 29, 89, 11, -2, -12, 13, 13, 63, -5, -31, 98, -50, 4, -43, 15, 53, 32, -6, 62, -115, -1, -60, -70, -70, 8, -87, -128, 0, -26, 4, -32, 116, 50, -102, -65, -18, -55, 99, 35, 2, -8, -51, -69, 17, 43, -104, 86, 40, -78, -75, -47, -49, 127, 8, -15, -77, 37, 94, 43, -39, -10, -104, 47, -30, -15, -83, -35, -35, -28, -5, -128, 107, -19, -70, 54, -33, -128, 41, -65, 108, 7, 21, -2, 127, 15, -48, -10, -50, -10, -17, -36, 35, -101, 32, -94, 60, 37, 39, 20, -53, 77, -25, 78, 84, -45, 88, 41, 33, 92, 75, -5, -63, 34, 127, 41, 49, 15, -40, 63, 21, 69, 29, -60, 59, 58, 4, -54, 127, -5, -59, 18, -29, -26, -12, -122, 41, -104, 102, 22, -84, 88, 53, 61, 6, 63, -115, -66, 12, -39, -13, -48, 39, 107, -13, -17, -13, -87, -5, -89, 127, 92, -76, -5, 31, -30, 62, -47, 45, 15, -37, 46, 44, -23, 27, 103, 111, 92, 61, 109, 78, 21, 57, -112, 98, 127, -12, 80, 52, 41, -72, 20, -50, -57, 31, -29, 24, -9, 107, -75, 7, 34, -28, 49, 80, 2, 30, 8, 51, -43, 23, 33, -75, -127, 13, 58, -24, \
127, -126, 60, -20, 22, 20, -5, 2, 1, -20, -128, 15, -124, 21, -33, 11, -75, 99, -46, 42, -70, 6, 67, 27, -6, 63, 54, -19, 15, 31, 127, 3, 21, 43, -3, -47, -50, -85, -50, -42, 51, 62, -59, 5, -121, 5, -6, 18, 127, -53, 19, -31, -128, 33, 59, -57, -10, 41, -41, -15, -20, 57, -29, 57, -20, 52, 47, 71, -35, 23, 47, 99, -70, 85, -24, 16, -64, 16, -22, 25, -17, 25, 47, 51, -51, -16, -48, -1, 6, 18, 27, -10, 24, -46, -15, 31, 5, -38, -36, -18, 65, -72, 0, 73, -6, 127, -9, -58, -126, -71, 36, -53, -46, -87, -19, -114, 127, -19, -88, 12, 46, 13, -42, 117, 88, -19, 34, 92, 50, 50, -106, 59, -128, -105, -41, 40, -37, -42, 26, 16, 81, 14, 76, 127, -25, 4, 21, -60, 43, 44, -54, -8, 8, 17, 10, -128, 79, 85, -21, 38, 11, -33, 40, -54, 2, 38, 13, -93, -19, 56, -116, -8, 60, -12, 8, 101, -68, -2, -126, -10, -95, -58, -64, 90, -64, -60, 14, -84, -10, 28, 127, -121, 27, 33, 127, -61, 13, 20, -47, 127, -49, 63, 39, 127, -78, 58, 95, -3, 17, 33, 46, -8, 44, -97, -23, 6, -54, 16, 127, -12, 44, 39, 6, -1, 93, -25, -38, 14, 87, 13, 29, 108, 73, -12, -26, 59, 97, -38, -17, 4, 124, -7, -26, -92, -24, -86, -54, -40, -3, 58, -97, -36, 49, 58, 21, 69, 16, -100, -37, -98, -23, 11, -46, 48, -11, -42, 125, 8, -9, -32, -24, 19, 19, 31, -14, 0, 10, 92, -1, 56, -94, -86, 40, 100, -128, -51, -5, 16, \
24, 26, 34, -80, -11, -31, -112, -94, 91, 24, -1, -66, 32, -105, 10, 10, -28, 19, -104, -67, 52, -32, 99, -26, 19, -71, -6, -82, 50, -46, 88, -68, -17, 21, -3, 81, 5, 16, -126, 8, -26, 4, -29, -26, -12, 50, -43, 4, 63, 29, -8, 27, 96, 75, 67, 22, 43, 53, -5, -10, -128, -8, -38, -19, -7, -22, 61, -19, 25, -9, 6, -43, 12, -91, 54, 127, -13, 8, -24, 114, 29, -62, 37, -1, -5, -32, 84, 31, -90, -43, 34, 71, 77, 13, 83, -40, 40, -64, -38, -90, 69, -4, 86, -102, -22, 59, -4, 10, -44, -45, 116, 108, 74, -72, -95, -23, 40, -15, -124, -96, 72, 27, -63, 2, 70, 38, -38, 76, 39, 98, 76, 62, 39, -11, 12, 5, -6, -27, 2, 24, -25, -7, 15, -10, 42, 107, 62, 37, -47, -92, -128, -10, -60, -2, 0, 89, -85, -45, 11, 65, -25, -69, -38, 25, 22, 107, 25, -43, -103, -30, 86, -27, 85, -46, -83, -44, -128, -7, 4, -66, -43, -20, -11, 19, 61, -55, 33, 89, -8, 99, -121, -58, -73, 58, -54, -5, -16, -75, -13, 50, 65, 24, 50, -113, 41, 60, -21, -80, -19, 92, -76, -23, -14, 60, -63, 8, -14, 76, 32, 127, 50, 49, 72, 103, -122, 108, 7, 45, 36, 24, -74, 78, -128, -1, -65, 20, -22, 20, -26, -17, -109, 49, 65, 127, 60, -38, -105, 28, 29, -89, 18, 107, -94, -89, -86, 28, 68, 28, -17, -30, -9, 17, -40, -84, -38, -50, 102, 78, 49, 24, -1, -37, 2, -41, 40, 71, -57, -28, -46, -30, -113, 42, 17, -67, -61, 104, 107, -57, \
38, -66, 12, 50, -76, 17, 60, -21, -128, 0, -42, 92, -70, 34, 29, -5, 18, -39, 62, -18, 8, -114, -5, -40, -101, -128, 57, -75, 63, 87, -55, -23, 82, 19, 127, -5, 33, -40, 88, 11, -40, 69, 59, 43, 86, -58, -50, -3, 78, -54, -10, -10, -26, -50, 57, -49, -25, -43, 76, 1, -18, -21, -86, -14, -17, -31, -5, -9, -68, -37, -69, 19, -30, -80, 63, 42, 4, 45, 40, 19, -128, -79, -26, 8, 24, -16, 117, -51, 49, -32, -11, -107, -73, -12, -33, 7, -64, -1, 1, 91, -29, -87, -23, -51, -12, 20, -70, 38, -43, 127, -26, 53, 127, 127, 27, -7, 48, 62, -42, 74, -101, 27, 51, 62, -6, 64, -58, -69, -22, -84, 48, 19, 0, 16, 97, 54, -64, 50, -49, 64, 48, -27, 4, -43, -44, 9, 33, -113, -23, -67, 75, -9, -19, -128, -78, 62, -92, 127, -15, -40, 104, -9, -42, -127, 86, 79, -41, -38, -128, -36, -5, -19, -73, -20, 27, -20, -5, -109, 64, -21, -128, 59, -54, 2, 37, 90, 69, 50, -99, 82, -43, 22, 2, -118, -56, 12, 80, -61, -8, 1, 56, -22, -28, 33, 59, -39, -4, 22, -22, -46, -77, 56, -4, 28, -102, 45, -26, 45, 125, 16, 68, 29, -26, -71, 14, -37, -114, 124, 127, 47, 34, -65, 70, 61, -74, -55, 42, -19, 57, -1, -29, -35, -100, 29, 62, 67, 13, -50, -62, 22, 5, 4, -39, -58, -33, -85, 127, 72, 54, 75, 66, 3, 99, 13, 122, 42, 93, -29, -13, 16, -118, 127, 111, 34, 34, 78, -12, -67, -59, 84, -41, 7, -54, -29, -112, -51, -71, 31, \
41, 29, 106, 18, -75, 33, -37, -25, -124, -6, 37, -68, 100, 27, 66, 4, 19, 55, -24, -103, 112, -23, -110, 42, -15, -13, 108, -75, -85, -62, -53, -73, -1, -31, 99, 68, 24, 18, 31, -128, 32, 101, -64, -22, -32, -97, -97, -13, -27, 35, 64, 59, 55, -43, -71, -33, -74, 127, 73, -69, -128, -20, 28, 81, -40, -34, 24, -2, 23, 39, 17, -88, -39, -43, -52, -28, 49, -38, -13, -25, 39, 127, 86, -99, -38, -33, -56, -54, -25, -50, 42, 6, 63, -22, -35, 8, 44, -37, 63, 10, 33, -15, -61, -128, -25, 71, -41, -42, -5, 29, 85, 92, 29, 127, 62, -128, -10, 93, -1, 35, 31, 43, -50, 45, 56, 32, 37, 18, -49, -2, -48, 115, -59, -88, -10, 51, -61, 77, -51, 36, -90, -3, 43, -73, -27, -51, 94, -58, 52, 122, 8, -52, 79, -22, 59, 0, 37, -24, 71, -57, 7, 47, 55, -85, -103, -17, -104, 91, 84, -13, 114, -41, -52, -79, -16, -4, 111, -88, 3, -77, 6, 24, -38, -43, 127, -126, -6, 15, 50, -43, 70, -53, 37, 45, 68, 82, 5, 77, -13, 93, 47, 110, -11, 17, -46, -59, -94, -72, -13, -42, 19, -32, 109, -21, 22, 66, 53, -78, 59, 95, -102, -45, 36, -9, 7, -94, 0, -63, -58, -34, 37, -102, 127, -79, 35, 82, -1, -24, 18, 83, 27, -22, 57, 24, 21, 117, 58, 127, 7, 86, -128, 9, -14, 1, -5, 127, 51, 46, -86, -86, -90, -93, -46, 67, 38, 105, -62, -36, -111, 9, 46, 22, 16, -5, 39, 58, -3, -22, 50, 127, 76, -46, -77, -93, 48, 14, -22, 54, \
-59, 2, -88, -100, 118, 127, 94, 53, 7, 101, -9, -22, -83, 72, 49, 111, 67, 43, 85, -83, -63, 27, 96, -3, 52, 15, 24, -6, 55, -37, -45, -62, -46, 127, -41, 9, -33, 122, 19, 8, 31, -5, 43, -47, 18, 79, -53, 127, -55, 48, 10, 1, 38, -104, 75, 10, -58, -45, 60, 90, 34, 29, 123, -13, -61, 14, -12, -32, -128, -52, -11, 52, -125, -12, -11, 36, -60, -30, 44, 21, 8, 20, -28, 9, -25, 4, -26, -76, 92, -14, -44, 1, 82, 53, 26, -50, -14, 45, -75, 42, -22, -47, 44, 17, -128, 5, 100, 25, -4, -10, 101, 61, 45, 73, 117, -19, 27, 49, -100, 6, 9, 93, 40, 62, -22, 10, -15, -43, -7, -24, -9, 65, 40, -41, 127, 90, -14, 127, -91, 56, -52, -24, 48, -74, -115, 16, -31, 88, 51, 93, -60, 64, -32, 59, -65, -10, -88, -35, -127, 10, -39, -5, 47, -75, -19, 48, -82, -44, 66, 31, 33, -115, -91, 76, 27, 6, -2, 35, -114, -97, 16, -13, -4, -66, 13, 127, 31, -51, -40, -31, -25, -20, -97, 20, 21, 59, -22, -93, 33, -12, -92, 127, -14, -37, 83, 67, -27, 38, -26, 22, -100, 52, -14, -45, 70, 5, -80, 48, -28, -128, 127, 117, 26, 43, 71, -57, 16, 67, 46, -42, 34, 38, -9, 123, -88, 7, 111, 5, -85, 80, -47, 34, -22, 28, 12, -11, 17, -49, 117, -11, 56, 38, -46, -51, -1, 38, -10, -24, 12, 17, 28, -84, -16, -66, 50, -49, 50, -17, 1, 15, -19, 65, -128, -9, -78, -14, -56, 76, 23, 60, -128, -29, -86, -73, 70, 4, 10, 4, \
9, 127, -60, 39, -56, 127, 60, -1, 97, 110, -28, -18, 11, 2, -105, -52, 43, 90, -77, -42, -63, -43, 16, -7, 74, 56, -11, 58, -51, -29, -79, -73, -54, 25, 73, -54, 72, -97, -40, -100, 58, -15, -25, -81, 0, -20, -17, 19, 13, 14, -50, -9, 127, -74, 127, 19, 24, 56, 66, -43, 11, -41, 30, -46, 127, -52, 71, 86, 66, 33, 9, 88, 85, -57, -8, 37, -53, 8, 81, 29, 9, 40, 78, -8, 46, -39, -24, 27, -128, -61, -33, 60, 48, -50, -19, 102, 15, -83, -12, -110, 66, 9, 32, 31, -78, -76, 94, 79, -44, 25, 11, -71, 123, -128, 56, 20, 52, 21, 52, 0, 48, 117, 62, -2, 116, -88, 127, 101, 19, -96, 37, -16, 4, 14, 5, -7, 57, 61, 116, -39, 127, -62, 72, 49, -40, -85, 21, 78, -20, 44, -76, 25, -23, -54, -21, 78, -11, 94, 2, 49, -102, 11, -33, -6, 92, 96, -48, 16, 76, -16, 85, 126, 54, 118, -51, 25, 97, 38, 43, -85, 61, -43, -40, -36, 17, -17, 71, -100, -49, -24, 16, -61, -32, -122, -108, 48, 75, 127, -62, -18, 127, 51, 38, 64, -46, -24, -2, 96, -47, -40, -91, -45, -128, -18, -85, -11, -40, 89, 39, 17, -51, 38, 101, -23, -10, -32, 82, 74, 44, 57, -128, 71, 80, -63, 58, -69, -10, -96, -12, -48, 22, -22, -62, 80, -11, 55, 41, 29, -52, -60, -56, 81, -6, 39, -27, -54, 76, -15, -45, -56, 21, -45, -6, -18, -8, -93, -33, -2, 24, -109, -31, 9, 73, 14, -3, -37, -53, -89, -69, -62, 96, 32, 127, 90, 74, -18, -26, 57, \
-85, -14, -73, 77, -45, -52, 68, -29, -34, -95, 7, -27, 76, -55, 65, -59, -59, 84, 16, -28, 91, 31, 89, -15, -93, -85, 36, -84, -51, 1, -85, -103, 20, -43, 127, -18, 85, 90, 61, -128, 127, 42, -41, -32, -128, -128, 31, 68, 55, 17, -66, -22, -81, 7, -80, -76, -5, -27, 29, 0, -109, -83, -12, -52, -38, -74, -57, -18, 73, -48, -8, 56, 127, 25, -54, 14, 89, 26, 44, -48, 40, -114, -121, -21, -58, -36, -71, -92, -85, 12, -31, 40, 90, 46, -47, 127, 79, -25, -128, -12, -5, 19, -96, -15, 43, 74, -19, 91, -9, -39, 50, -67, -119, -66, -52, 124, -38, -37, 10, 26, 13, 103, 4, 6, -42, 65, -24, -21, 62, 40, 54, 39, -28, 45, -6, 46, -117, -63, 65, 57, -80, 85, -55, 102, 47, -128, -74, -128, -128, -28, -14, -128, -7, -40, 7, -48, 51, -45, 25, -32, 47, 83, -116, 51, -128, 127, -56, 31, -18, -43, -42, 54, 13, -22, 20, 48, 115, -62, 37, 15, -102, 53, -10, 26, -82, -128, 42, -12, -1, -53, -93, 2, 77, 93, -46, -124, -54, -1, 19, 50, -121, 102, 75, 34, -22, 90, 63, -14, 29, -3, 34, 18, 121, -14, 52, 37, 5, 37, -41, -46, 36, 115, 15, 13, -97, -13, 44, -10, -27, -53, 25, -11, -6, -128, -13, 70, 71, 6, 16, -60, 8, -6, 43, 127, 107, -3, -4, -24, 64, 50, -69, 20, 12, 0, 8, -4, -101, -11, -128, -40, -29, 0, -8, -49, -51, -66, -76, 35, -44, 72, -18, 127, -71, -64, -19, 59, 13, -48, 28, -49, -83, 40, 127, -67, 15, 127, -87, -123, \
118, 101, 59, 42, 12, 101, -45, -77, 4, -15, 25, 106, -45, 74, -122, -15, -60, -50, -48, -92, -44, -3, 21, 69, -55, 13, 20, -23, 84, 11, 20, -69, -116, -84, 83, 9, -15, -32, 48, -39, 7, -64, -87, -47, 114, 88, -110, 2, -58, -24, 3, -92, -24, 16, -128, 33, 8, -36, -72, -27, 56, 104, -40, 62, -31, -54, -128, -63, -128, -25, -37, -64, -56, -64, -21, -102, 73, 15, -23, 25, -32, -112, -52, -79, 87, -81, 41, -70, -52, 67, -30, 83, 4, -102, 127, -128, -65, -3, -54, -50, 23, 1, -70, -20, 96, -128, -48, 0, 24, -14, -28, -2, -22, -45, -68, -61, -128, -6, 31, -51, 33, -16, 38, -28, 26, 39, 18, -10, 30, -13, -12, -25, 70, -64, -126, 2, 49, -45, 14, -36, -10, -29, 58, -128, 50, -42, 8, -5, 43, 42, 118, 39, -62, -18, 20, 75, -96, 58, 7, 10, -92, -128, -99, -30, -47, 32, 35, -31, -21, -53, -25, -71, -128, 39, 69, 25, 88, 74, 42, -128, 121, 69, -19, -83, 50, 54, 91, -14, 82, 81, 56, -3, 69, -1, 72, 34, 0, 10, -80, 71, -13, -128, 127, 70, -60, -54, 64, 57, 13, -11, -38, -14, 13, -55, -24, -21, 46, -16, -16, -38, 72, -6, -3, -75, -43, 37, -50, -105, -18, -11, -38, 9, 36, -17, -81, -18, 39, 101, 22, -3, 51, 42, -102, 58, 75, -37, -48, 56, -20, 15, -13, -73, 94, 46, 63, -93, 31, 91, 66, -7, 21, 5, -17, 74, -53, 33, -107, -2, 15, 73, 65, -85, -20, 61, -14, -52, 48, -71, -111, -73, -86, -45, 114, -30, -93, -8, 66, -10, \
-63, -128, 77, -11, 41, -24, 48, 18, 75, 37, 20, 111, -10, 12, -90, 92, -40, -7, -37, -51, 8, -13, -51, -101, -40, -39, 59, -36, -57, -128, 10, -45, -2, -78, 35, 8, 85, -98, -14, 32, 15, -62, 94, -63, -65, 13, 30, 122, -126, 19, 98, 82, -1, 29, -2, 25, -79, -84, -57, 71, -98, -90, -128, 80, -53, 39, 18, 33, 50, -81, -6, 3, -89, -38, -10, -90, 70, -40, 41, 88, 71, -25, 56, -128, -128, -2, 11, 1, -102, -42, -105, -28, 28, -53, -60, -31, 44, 88, 52, 30, -29, -39, -30, 79, -28, 66, -29, 16, 70, -23, 127, 76, -7, 8, -52, -22, 38, 17, 63, -8, -20, 34, 55, -78, 112, -2, -102, 40, 49, 127, 32, -34, -113, 30, 76, 89, -110, 19, -19, -11, -82, 70, -86, 118, 127, 1, 48, -60, -25, -79, -112, 59, 23, -57, -51, -44, 79, -4, 1, -27, 44, -61, -29, 14, 0, -10, 49, -84, 58, -114, -56, 70, -50, -21, -18, 25, -103, -38, 22, -53, -37, -39, 40, 60, -91, 78, -116, -67, 111, 0, -24, 37, 10, -128, -75, 75, -27, 17, -15, 73, 25, -58, -30, 54, -1, 7, 18, -24, 6, 65, -63, -6, 67, -82, 20, -24, -45, 67, 34, 18, -53, 3, 26, 19, -13, -34, 19, -37, 119, 124, -18, 104, -55, 121, -1, -58, -71, 24, 16, 62, 64, -24, 52, -34, -34, -4, 11, -56, 7, -9, -36, -26, -63, -128, -70, -26, 49, 18, -126, -26, 17, 75, 14, -123, 83, 14, -44, -103, 19, 127, 64, -43, -46, 54, 48, -93, 8, -26, 53, 11, -67, 7, -6, -78, 44, 19, -40, 127, \
58, 65, -100, 71, 3, -18, -61, 6, -12, 0, -76, 24, -26, 13, 3, 113, -3, -35, -60, 107, 19, 35, -31, -80, 62, 29, -46, 13, 14, 72, -43, 47, 8, 5, -3, 78, 9, -62, -66, -46, 102, -45, -71, 6, -18, -31, 48, -24, -5, 115, 14, 5, -69, -69, -8, 28, 34, 20, -30, -62, -5, -3, 34, 27, 9, 0, -63, 66, 85, -42, -76, 3, -28, 5, 41, 13, -25, -49, 42, 89, 88, 24, 4, -58, -33, 26, 73, 18, -88, -40, 25, 44, -38, 33, -54, 23, 28, -3, 15, -8, 41, 91, -74, 76, 127, 47, 20, 22, -8, 58, -107, -49, -41, -72, 42, 40, 58, 28, -13, -35, -54, 49, 96, -128, -63, -52, -22, 122, 64, 70, 114, 14, 114, -54, 38, 24, -24, -17, -19, 1, -41, 63, 35, -37, -128, -11, 27, -45, -49, 104, 13, -106, -96, -5, -42, -47, -122, 2, -84, -32, -80, 127, 0, 77, 83, -7, -28, -71, 38, -9, 78, 74, 4, -98, 70, -64, -4, -52, 20, 97, 41, -31, -65, 49, 76, 18, -4, 51, -40, 44, -55, -39, -41, 57, -36, -66, -11, 45, -24, -60, -111, 34, -39, -81, 47, 69, 83, -104, -7, 36, 35, -47, -20, -13, 14, -17, 86, 68, 88, 64, -96, 10, -85, -20, -4, -56, -94, 30, -5, -32, 35, -7, 41, 91, 127, -49, 54, 66, 29, 29, -38, -86, 24, -24, -5, -87, -61, 0, -81, -25, -99, 103, 36, -12, -85, -78, 66, -62, 30, -98, -33, -58, 73, 25, 50, 103, 11, -25, -8, 21, -36, 127, 26, -38, 28, 18, -22, 74, 51, 33, -1, 40, -6, 35, -5, -43, 11, 50, \
9, 1, 14, -32, -37, -3, -9, 64, -40, 56, 32, 86, 22, 50, -8, 47, 64, 11, -36, -16, 76, 66, -33, 63, -42, -116, -67, 65, -98, 68, -18, -73, -47, 65, 19, 127, -85, 35, -99, -83, -30, 127, -51, -62, -10, -128, 3, -91, 127, -121, 79, -16, -2, 38, 16, -128, -128, 29, -73, -2, -122, -13, -59, 49, 37, -19, -42, 7, -58, -29, 13, -43, -31, 74, 2, 57, -45, -126, 64, -45, 4, -60, -17, -80, -32, -68, -37, -10, 8, 30, -67, -38, -33, 36, -26, 24, -2, 14, 92, -37, -41, 82, 75, 63, -128, 17, -21, 52, 29, 6, -27, 127, 33, 62, -128, 50, 68, -44, -23, -7, 20, -38, 47, 58, 42, -66, -80, 29, -35, 99, -41, -13, -100, -51, -1, 3, -74, 3, 30, -46, -109, 106, -83, 70, 33, 2, 48, 75, 2, -58, 43, 106, -1, 10, 41, 34, -96, 32, 84, -47, -64, 76, 71, -53, 31, -52, 28, 127, -38, 0, 77, -1, -21, 88, -34, 104, -30, -101, -7, -30, -24, -75, 5, 9, -68, -38, 85, 84, -65, -85, 89, -70, 26, 45, 62, -100, 11, 6, 9, 2, 31, 67, 47, 44, -32, -54, 92, -56, -51, 33, 31, 43, 94, -95, -89, -8, 127, 7, -8, 14, -6, -47, 83, 31, 29, 127, -2, 36, 89, -99, 86, 55, -24, 17, -33, -88, -33, -35, -6, -13, 9, 63, 5, -68, -23, -11, 50, -78, 85, -23, -52, -10, 127, -33, 99, -34, 17, -113, -22, -95, 32, -7, 77, 90, 97, 19, 17, 60, 11, 46, 127, 49, -41, -103, -42, 30, 53, 10, 74, 127, 17, 1, 80, 50, -106, -33, 65, 81, \
3, 81, -21, -9, -128, 26, 27, 52, 50, -9, -73, 11, -17, -56, -20, 24, -10, 80, -128, -103, -12, -29, -69, -39, 98, 28, -128, 12, -128, -84, -69, 30, -81, 72, -31, 66, 4, -54, 76, 44, 67, -52, -113, 39, 5, -13, 72, -23, -43, -63, 40, -128, -53, 3, 11, 30, 117, -35, 120, 47, -19, 13, 127, -128, 110, -16, 24, 0, -33, 63, -96, -9, -54, 34, -93, 43, -5, -102, 50, 28, -112, -69, 9, -70, 22, 124, -21, 90, -54, 5, -66, -112, -26, 15, -3, 20, 6, 5, -68, 23, 35, -42, -109, -9, 40, 0, 127, 17, 44, -31, -21, 25, -11, 3, 61, -94, 53, 13, 78, -80, -51, 57, -101, -128, -125, -5, 0, 39, -54, -8, -53, 54, 90, 1, -51, 127, -100, 85, 9, -23, -14, 48, 59, -3, -83, 105, 73, 20, 28, -50, 20, -66, 44, 34, -65, 54, 85, -36, -46, 16, -69, 38, 90, -75, -96, 87, -80, 112, 24, -69, -29, -43, 32, 69, 72, 87, -50, -27, -23, -16, -33, -7, 16, -44, 5, 24, 115, -73, -81, -15, 88, -30, -68, 33, 41, 81, 94, -128, 101, -124, 65, 53, 80, -62, -99, 40, -97, -87, 38, 93, -87, 16, 25, 126, 40, -24, 36, 21, 31, 46, -30, -128, 100, -34, 127, -53, -67, -69, -111, -128, -21, -27, -36, 127, -10, 14, 17, -128, 11, -11, -73, -78, 127, 96, 10, 119, -67, 19, -128, 7, -54, 127, 46, -7, 65, -32, -123, -14, 49, 39, 55, 37, 51, 56, -92, -68, -54, -30, -37, 72, -9, 9, 125, 54, 77, 88, 79, -61, -18, -47, -69, 41, 12, -7, -32, -74, 49, 62, \
-36, -9, -102, 96, 16, 118, -34, -32, 15, -54, -32, 5, -27, -14, -3, -65, -24, 4, -113, -38, -19, -121, -85, 68, -39, -128, -88, 41, 45, -32, -3, 5, -31, -41, -25, 127, -34, 6, -18, -96, -38, -113, -128, -34, -80, -80, 0, 103, -128, 21, 66, -42, 66, 13, 118, -47, -37, 127, -35, -75, 50, 127, 33, 88, -40, 55, -4, -50, -128, 42, -105, 19, 27, -75, -32, -41, -105, 87, 13, 121, 49, -42, -78, 118, -57, 15, -40, -17, -1, 24, -31, -22, 7, -90, 26, -36, -45, 97, 86, -6, 67, -4, 3, -33, 35, 83, 45, 23, 90, -2, 17, -49, -84, -46, 47, 49, 42, 98, -75, 28, 65, 37, 58, -22, 82, 127, 56, 11, 28, -16, 30, -38, 116, 62, -12, -10, -26, -74, 1, 36, -54, -55, -27, 21, 32, -102, -34, -28, -68, 55, 61, -39, 35, -82, 40, -104, 18, 107, 2, 28, 21, -128, 127, 76, -25, -42, -110, -16, 20, -25, 12, -14, 4, -128, 12, 86, 121, -72, 111, 15, -24, -128, 53, -38, -107, 60, 86, -13, 35, 30, 15, 127, -71, 7, -16, -11, -6, 30, -27, 2, 85, 127, -69, 82, 40, 86, 27, -70, 127, 52, 118, 31, 88, 38, 79, 34, 43, -61, 123, 127, -7, -57, -40, 18, 14, 117, 33, 63, 35, -94, 47, 86, -27, -50, 28, 41, 21, 29, -81, 7, 4, 88, -9, -12, -53, -25, -37, 58, 59, 43, -78, -98, -23, 116, 51, -31, -77, -28, 49, 37, -89, 40, 6, -1, 15, 115, 18, -3, -62, 17, -34, 70, -13, -16, 50, -52, 53, -39, 59, -86, 56, 118, 25, -4, 41, -13, -38, -54, \
57, 0, 117, -36, 121, -105, -107, -25, -40, -48, -9, 127, 127, -28, -86, 36, -107, 58, 34, -17, 16, 33, 8, 62, -24, 82, 38, 81, -128, -26, 120, -58, 127, 76, 36, -84, -37, -27, -68, -1, 105, -5, -5, -41, 8, 28, -25, -20, -59, -55, 122, -75, 78, -104, 105, 38, -38, 50, 40, -13, 33, 24, -7, -41, -14, -31, 127, 23, -11, 18, 70, 23, 68, 127, -127, -63, -16, 40, 47, -7, 59, -46, 127, -36, 32, -88, 66, 7, 27, -1, -14, 76, 25, 55, 127, 51, -62, -94, 23, -18, 36, -13, 97, -3, -44, 33, -38, 29, 25, 39, -77, 5, 71, 52, 12, -91, -63, 41, 89, 27, -76, -128, -22, -82, 65, -1, 89, -9, 9, -34, -67, -43, -28, 20, 2, -28, 65, 94, -6, -28, -31, -15, -56, -50, -75, -27, -40, -73, 4, 25, -30, -58, -39, -82, 4, 127, -57, -23, 35, -24, -28, 53, -51, 13, 51, -6, 49, -3, -56, 69, -22, 15, -109, 62, 65, 84, 19, -84, 68, 5, 39, -68, 94, -40, 60, -79, -103, -44, 2, 60, -67, 127, -10, -76, 84, 28, 26, -81, -117, 56, -23, -70, 26, -5, 17, 117, 67, -97, 15, 19, -56, 15, -54, -83, 52, -4, 24, -19, 11, -29, -29, -62, -34, 25, 124, -40, 74, 49, -109, -16, 53, 101, 25, 65, -25, -10, 100, -33, -10, 35, 127, 43, 31, 49, 69, -4, -50, 34, -14, -45, -69, -3, 66, -33, 14, 46, 34, -54, 108, -127, -128, 45, -48, -28, -77, 1, -36, -31, -61, 106, 24, 55, -21, 98, 22, -3, 26, -4, -73, -39, 61, -36, 45, 1, 50, -32, 89, 120, \
77, -40, 127, 46, -128, -26, 102, 24, 57, 33, 127, -128, -21, 4, -58, -24, 12, -87, -80, 27, 41, 105, -60, 12, -110, 1, 38, 20, -83, 56, 127, 14, -124, -7, 18, 121, 17, 127, -2, 49, -102, 16, 65, -11, -88, 84, -13, 127, 37, -83, -32, 23, -48, -58, -59, 75, 59, 127, 22, 27, 46, -28, 99, 16, -35, 127, -30, -41, 11, 29, -96, 7, -44, 45, -109, 37, 40, -36, -18, 41, 21, 97, -2, -4, 111, -22, 4, -111, -50, -56, 96, 58, 86, 56, 51, 8, -64, 100, -113, 2, -51, -101, 36, 59, -23, 62, -41, -47, -26, -50, -3, 22, 92, -17, 104, -78, -50, 2, -78, 48, -1, 35, 33, -128, 70, 34, -94, 13, 70, -64, 89, -5, -78, -56, 65, -26, -32, -90, 69, -2, 33, -49, 14, -128, 7, -91, -4, 48, 70, -51, -23, -98, -123, -17, 68, 10, -55, 43, -4, 25, -128, 9, -128, -25, -17, -64, -20, -25, -25, 9, 98, -25, -96, 50, 59, -42, 6, -114, -50, -70, -20, -40, -37, -107, -128, 63, 31, -27, 84, -31, -30, 11, -38, 86, 118, -15, -61, -12, -103, 29, 2, 102, -68, -52, 28, -12, -68, 38, -30, -34, -33, -117, -21, -48, -24, 57, -16, -6, -73, 62, -29, -76, 127, -89, 113, 38, -128, 33, -7, 43, -66, 35, 32, 54, 110, 34, 62, 84, -6, -19, -8, -56, 24, -40, 6, -49, -45, 28, 4, -10, 109, 17, 48, 35, -105, -101, -28, 71, 15, -87, 22, -44, -24, 93, -37, -67, 8, -82, -11, 105, 20, 11, -26, -42, 41, 105, -92, 29, -103, -77, -52, -64, -69, -69, -60, -42, -5, 69, \
17, -42, -5, 24, 60, 42, -17, 84, 17, 21, 54, -127, -41, -128, 64, -39, -55, 104, -29, 53, -36, 50, 4, -76, -45, -10, -45, 25, -73, 30, -66, 27, -1, 16, 11, -97, -18, 30, 44, 95, 53, 78, 84, -17, 86, 38, -119, 39, 48, 72, 20, 85, 46, 23, -10, 61, -13, -52, 104, -128, 87, -128, 26, 124, 126, -40, 78, 56, 76, 7, -80, -128, -43, -107, -61, -80, 23, 116, 18, 110, 41, -120, -103, -19, -3, -86, 40, -13, -94, 9, 10, -3, -49, 42, 29, 90, -128, 23, 127, -58, -29, 68, 9, 56, 90, -9, 11, -31, 11, -35, 19, 27, 72, 2, 8, -24, -76, 36, -106, -128, 70, 36, 20, 65, 87, 26, 61, -9, -128, -10, 34, -37, 41, -73, 31, -46, -10, 18, 82, 127, -30, -1, -34, -26, 127, -128, 53, -45, 81, 54, 42, -65, 0, 13, -54, 6, 10, 8, -8, -78, -16, -35, -59, -39, -95, 127, 98, -29, 29, 52, -5, -66, 49, 10, 61, 69, 109, 80, -70, 50, 118, 2, -44, -12, 82, 25, 62, 81, -17, -6, 60, 117, 127, -78, 14, -44, -25, -128, -128, -67, -23, -67, 43, -2, -20, 70, 8, -82, -39, 18, 26, -46, 5, -27, -12, 20, 50, -128, -83, 50, 16, -119, -107, 106, -115, -68, 15, 44, -9, 42, -128, -75, -87, -14, 104, 10, 127, -5, 21, -26, 22, 63, 19, 60, 65, -73, -31, -79, -5, 68, 32, 54, 111, 67, 63, 33, -120, 45, 8, -15, -22, 124, 56, -40, 55, 127, 68, 49, -4, -36, 0, 28, -61, 12, 3, 12, 50, 48, -121, 80, 29, 14, -21, -43, -128, -46, -88, 111, \
44, -22, -35, -45, 76, -1, -72, -12, 5, 6, -33, 6, 111, -65, -107, -58, -26, -46, -36, 8, 22, -35, -27, -91, 103, -61, -9, 105, -24, -115, 9, 0, 6, 34, -40, 41, -27, 40, -73, -24, -87, -37, -57, -24, -33, -40, -13, -38, -18, -34, 67, -59, 64, 25, 38, -49, -4, 112, -57, 57, -114, -15, -128, -112, 26, -56, -53, 19, 98, 69, 127, -47, 27, -54, -62, 20, 48, 41, 82, -38, -70, -68, -86, -116, -26, -19, -90, -25, -48, 15, 42, -51, 25, 33, 79, 95, -103, 52, -41, -19, 71, -2, -33, -100, -17, 121, -121, -78, -4, 65, 44, -21, 47, 11, -127, 30, 39, 50, -100, -4, -53, -20, 76, -58, 6, -70, 127, 58, -68, -81, 3, 1, 75, 65, 7, 57, 70, -32, 25, 12, -89, -4, 127, 127, 8, -86, 51, 5, 51, 48, -2, -45, -56, -27, 19, -42, 50, -15, -29, 24, 45, -47, -26, -23, -13, 36, 62, -128, 127, 104, 39, -28, 19, -95, -77, 105, -36, 75, 0, -108, 18, -79, 20, 16, -23, 54, 45, 59, -99, 103, -31, 42, -53, -35, 21, 25, 95, 34, 113, 7, 69, 79, 52, -5, -50, 8, -4, 16, -34, -80, -71, -76, -71, 17, 33, -69, 28, 34, -21, -72, 8, 56, 86, 24, 82, 62, 20, -21, 19, -30, 52, -128, -128, -29, -22, 32, -43, -56, -21, 7, 35, 21, -29, -12, -3, 34, -19, -28, -42, 44, 100, -128, 8, 18, 59, 114, 41, -21, 50, 90, 115, -40, 37, -39, -33, 75, 44, -14, 117, 104, 68, 55, -13, -61, 17, 2, -26, 31, 21, 40, -64, 21, -38, -51, -74, 58, 53, 60, \
63, 50, -91, -72, -128, -124, -35, 75, -1, -26, 41, -31, 109, -54, 127, 127, 76, -80, -4, 31, 106, 6, 20, 26, 49, -103, -14, 10, -27, -38, -78, 127, 30, -15, 19, -109, -22, 44, -122, -20, -8, -48, -83, 13, 46, -14, 120, -9, -55, 33, -6, 59, -13, -10, 11, 7, -12, -35, -16, -7, -33, -128, -35, 65, -3, 17, 7, -100, -54, 27, -15, 92, -93, 15, -52, -9, -106, -30, 81, -15, 5, 9, -49, -20, -105, -55, 7, 3, 85, -43, -41, -78, 89, 74, 8, 5, 38, 3, 12, 35, 40, -128, 44, 27, 91, -119, 90, 15, 48, -128, -102, 76, -87, 61, 72, -46, -117, 17, 88, 48, -5, 22, -33, -12, -17, 36, 73, -14, 15, -19, 9, -116, 63, -79, -4, -84, -75, 53, 54, -12, -62, -8, -38, 22, -48, -13, -115, 127, 15, 58, 38, -18, -31, 63, 7, -93, -61, 8, 36, -21, -12, -85, -12, -98, -23, -15, -34, -31, 14, 21, 89, -27, -80, 44, 83, 1, 49, -105, -32, 7, 18, 57, -21, -128, -14, -41, 74, -35, 99, -33, -37, 52, 37, -48, -52, 127, 63, 23, 80, 1, -52, -30, -25, -24, 26, -26, 5, -118, 58, -6, -26, -5, 3, 36, -18, 127, 1, -25, 94, 2, 68, 64, -8, 26, -33, -39, 28, 53, 26, -5, 60, -49, 15, 62, 8, -30, -84, -123, -36, 3, 14, 23, -57, -7, -43, 23, -92, 9, 76, 49, 44, 4, -18, -41, 49, -29, 14, -126, -21, 28, 24, -94, 2, -102, -33, -61, -15, -20, 24, 95, -49, 86, -1, -94, 33, 20, 24, 26, 69, -121, -126, -117, -53, -43, 13, 102, -16, 76, \
-48, 102, 3, -69, -17, 7, 88, -12, -10, 69, -2, 75, 62, 22, 0, -52, 127, -3, 29, 32, -32, 95, 48, -83, -20, 24, -36, 20, 71, -16, 16, -128, -117, 28, 44, 27, 9, 15, 60, 85, -61, 59, -96, 3, -96, -57, -19, 32, 28, -7, 24, -27, -47, -39, -15, 120, -4, -37, 18, 86, 26, -68, -124, 16, 59, -128, -5, 58, 70, -28, 60, 16, -85, 19, 23, 53, -67, 105, -23, -40, -35, -70, 5, -28, -32, -110, -42, -42, 127, 2, 42, -9, -54, -45, -27, -24, -2, 67, -84, -19, -41, 18, 23, -47, 95, -91, 1, -78, -54, -37, -7, 4, 81, -128, 2, 39, 10, -32, 10, 28, -95, 50, 41, 36, 70, -8, 120, -57, -2, 67, -44, -92, -6, -34, -55, 71, -81, -8, 39, 20, 4, -28, 127, 82, 34, 83, 13, -53, -70, -53, -48, 52, 23, 35, 76, 53, 67, 66, -63, -128, 70, 19, -19, 57, -46, -80, 41, 55, -16, 61, -82, 127, 11, 121, -90, -26, 127, -72, 82, 43, 37, -39, -21, -75, 4, -57, -15, 89, -28, -10, 29, -40, -23, 55, -70, -105, 61, -81, 31, 9, -39, 127, -32, -4, 127, -26, 26, -7, 32, -128, -1, -108, 76, -11, -56, 127, -123, 127, -19, 19, 105, 63, -5, 40, 36, -92, 80, 12, -90, 44, 127, 47, -87, -26, 42, 49, 76, 22, 113, -30, 49, 99, 85, 70, -33, 45, -44, 81, 82, 37, -37, 59, -128, -35, 16, 53, 62, -5, -106, 24, 33, 105, -50, 37, 54, -128, 60, 127, -33, 127, 38, 71, 75, -8, -3, -32, 60, -49, 56, -31, -19, 43, 56, 16, 23, 53, 122, 83, \
-40, -74, 76, 32, -1, -26, -105, 24, 31, 81, 57, -11, -52, -38, 3, 41, 42, 38, -57, -69, -59, 69, -78, -19, -61, 26, -41, 89, -40, 74, -41, -6, 68, -28, -23, 43, 50, 13, -84, -105, 49, 127, 55, 70, 7, -30, 21, 1, 15, 69, -55, -25, 27, 15, 15, 97, -112, -26, 8, 66, 25, -115, -93, -16, 23, -102, 42, -128, -85, -76, -72, -82, -14, 27, 36, 59, -21, -36, -28, 30, -42, -54, 11, 49, -18, 37, 44, 12, 4, -66, -57, 19, -44, -62, -17, -94, 105, 21, 1, -21, 6, 34, -70, 98, 32, -10, 20, 81, 127, -3, 15, -47, -78, -81, 5, 74, 106, 76, -30, 19, -3, 40, 60, 93, 127, 127, -71, 61, -17, 85, -126, -12, -25, -5, -32, -24, 4, -5, -24, -96, 13, 8, 0, -122, -128, -29, -86, -39, -29, 9, 45, 0, -48, -44, 13, -59, -85, 19, -38, -49, -32, 127, 44, -28, -85, 8, 39, 38, -29, -98, 56, 18, -4, 71, -37, 23, 80, -23, 13, 32, -51, 55, 51, 60, -1, 22, 35, 93, 0, -26, 6, 124, -43, -40, 18, 71, 46, 73, -30, -92, -40, 14, 42, 13, -21, 18, 44, 33, 3, -4, 29, 38, 7, 111, -12, 127, -73, -44, -62, -40, -96, 75, -6, 47, -34, -102, -23, -13, -47, 9, -42, -121, -7, -128, 127, 41, 59, -18, 2, -55, -8, -35, 25, -49, 8, -77, 35, 18, 89, -124, -66, -43, 6, 18, 28, 61, 83, 10, -7, 45, 44, 68, -128, -14, -43, -31, -16, 60, -7, 47, -11, 69, -51, -8, 22, 11, -4, 22, 33, 50, 43, 30, 119, 57, 6, -68, -21, 78, \
127, -102, 2, -82, 37, -28, 4, 78, -52, 8, 127, 77, 121, 111, -33, -23, -117, 127, -128, -18, -6, 12, 13, 38, 24, -2, -79, -74, -94, -72, 65, -20, 127, 17, 15, 7, -43, -90, 22, 38, -28, -79, -23, -117, -69, 63, 50, 48, 45, -57, 67, -33, 51, 44, 40, -15, -85, -12, 50, -26, 11, -74, -10, -48, 93, 13, 87, 39, 56, -28, -89, 1, 127, -31, 37, -27, -17, -62, 54, 23, -7, -40, -53, -21, -62, 70, -50, -75, 67, -94, -128, -124, 18, -52, -36, -75, 63, 0, 32, 15, 20, 49, -52, 127, 58, 59, -15, 84, 83, 1, 9, -24, -6, -32, 10, 1, -79, 79, -40, 23, -67, 28, -101, -105, -88, 37, -46, 42, 49, -110, 29, 10, -63, 58, -84, 66, -56, -70, 17, -76, 20, -34, -50, 30, 104, -41, -30, -44, 43, -4, 56, 5, -66, -49, 10, 105, 24, 30, 107, 36, 15, -54, -45, 43, 23, -81, 6, -17, -9, -75, 39, -5, -128, -1, 58, -47, 60, -46, -29, -102, 35, 67, -34, 62, 35, 50, 27, 4, -26, -17, -45, 59, 17, -63, 62, 59, -98, 0, -128, -5, -57, 43, -31, -109, 80, -4, -100, -2, -36, -14, -123, 127, 41, 21, 21, 25, 113, 10, 74, 127, -52, -71, -57, 64, 6, -53, -65, 73, 58, 101, 29, 127, 11, -13, -63, -64, 4, -58, -11, -106, 22, 80, 80, -39, -32, 116, -1, -7, 42, -57, -34, -128, 80, 48, 120, 29, -103, 60, -59, -34, 108, -79, 56, -122, -17, 55, -35, -60, -61, -38, -118, -26, -59, 93, -50, 30, 67, 77, -66, -94, 34, 43, -13, -75, 89, 39, 33, -61, \
-21, -67, 1, -72, -3, 48, 39, 64, 127, -19, 87, 10, -2, 29, 78, -9, 48, 97, 34, -22, 2, -18, 23, -111, 56, -35, 127, -14, 17, -23, 36, -35, 18, 11, -109, -34, -23, -119, -31, -103, 127, -66, 44, 50, 1, 103, -59, 30, 75, -20, 59, 103, 36, 32, -63, -58, 74, 60, 117, 18, 9, -60, 42, -6, -85, 1, -53, 52, -92, 41, 94, -20, -128, -1, 2, -8, 1, -3, -61, -85, 36, -3, 57, 6, -110, -17, 60, -47, -66, -10, 47, 93, -51, -9, 26, -99, -31, 42, 69, -44, 76, -12, -43, -112, 71, 53, -47, 118, -3, 11, -58, -4, -56, -10, 39, 118, -128, -121, 3, 102, 47, 79, 28, 41, -6, 103, 62, -23, 84, -30, 37, 53, -52, 93, 36, -47, 48, 84, 63, -55, -80, 70, 30, -128, -36, 82, 40, 23, -65, 47, -26, 31, 33, -86, -91, -28, 0, 3, -95, 52, 27, -110, -3, 14, -13, -106, 67, 11, -122, 3, 16, -63, -115, -55, -4, 16, 11, -49, -115, 113, 97, 68, 4, -33, 52, -11, 12, -29, -92, -26, -25, 102, -29, -27, 37, -41, -3, 58, -23, 12, -51, -80, -26, 41, 24, 16, 93, 127, -19, 54, -31, 7, 3, 62, -61, -20, -26, -54, 31, 49, 49, -37, 95, -17, -114, -7, 127, 0, 12, 43, -128, 74, 1, -111, 43, 127, -37, 64, 25, 20, 67, -17, -38, -91, -49, 52, 28, 22, 4, -8, 127, -11, 59, 52, -13, 22, -20, -7, 81, 35, 73, 8, 48, 44, 37, -54, 93, -63, -65, -28, 71, -35, -20, 87, 82, -19, 60, -47, 52, 40, 67, -28, 103, 21, 127, 14, 55, 31}
#define BIAS_SHIFT 0
#define OUT_MULT 0
#define OUT_SHIFT 8
#define IN_INT8 {76, 161, 74, 214, 74, 210, 179, 171, 58, 163, 158, 122, 161, 43, 103, 146, 207, 181, 133, 255, 172, 80, 212, 72, 111, 99, 112, 0, 191, 159, 214, 131, 92, 3, 140, 241, 255, 124, 129, 93, 232, 165, 77, 111, 161, 171, 119, 107, 154, 255, 58, 203, 118, 52, 199, 201, 95, 247, 185, 213, 91, 72, 33, 139, 75, 84, 75, 153, 159, 143, 43, 120, 233, 56, 59, 0, 175, 154, 141, 69, 201, 200, 96, 6, 197, 130, 152, 86, 158, 145, 0, 116, 98, 115, 147, 112, 45, 181, 0, 108, 194, 255, 125, 124, 105, 95, 165, 200, 143, 175, 28, 218, 147, 134, 101, 184, 138, 56, 255, 255, 69, 162, 112, 77, 196, 122, 200, 183, 115, 205, 83, 74, 180, 83, 148, 9, 162, 219, 180, 57, 94, 141, 174, 122, 0, 255, 192, 223, 81, 80, 107, 172, 73, 85, 179, 140, 110, 178, 201, 127, 66, 103, 236, 32, 108, 166, 106, 218, 95, 0, 116, 184, 85, 109, 96, 236, 77, 165, 0, 143, 66, 89, 255, 246, 154, 183, 143, 128, 180, 171, 111, 104, 95, 226, 105, 83, 217, 160, 124, 84, 135, 249, 120, 131, 162, 95, 60, 156, 165, 94, 117, 126, 182, 38, 54, 136, 110, 149, 144, 170, 132, 235, 122, 79, 255, 132, 191, 66, 153, 131, 5, 104, 163, 53, 58, 82, 119, 110, 190, 170, 155, 66, 86, 112, 144, 51, 190, 175, 130, 114, 110, 127, 75, 127, 161, 38, 80, 140, 153, 227, 148, 69, 164, 206, 187, 46, 122, 147, 41, 121, 0, 158, 22, 129, 124, 185, 24, 118, 79, 109, 127, 0, 28, 217, 99, 2, 61, 109, 192, 44, 184, 136, 255, 156, 66, 179, 172, 136, 56, 156, 104, 157, 129, 123, 151, 150, 136, 77, 16, 106, 232, 164, 157, 34, 211, 102, 154, 235, 152, 104, 112, 74, 246, 179, 61, 18, 124, 83, 93, 88, 195, 206, 136, 112, 93, 216, 148, 158, 230, 220, 82, 234, 70, 137, 246, 46, 177, 101, 213, 73, 98, 147, 158, 64, 111, 100, 215, 187, 199, 130, 98, 113, 140, 51, 117, 80, 137, 192, 100, 237, 189, 168, 62, 121, 57, 135, 157, 173, 192, 143, 109, 71, 192, 68, 85, 178, 148, 99, 116, 59, 141, 62, 14, 147, 95, 210, 137, 157, 132, 186, 0, 149, 22, 225, 113, 27, 169, 6, 211, 62, 115, 95, 177, 131, 46, 165, 105, 147, 146, 56, 61, 35, 73, 107, 209, 96, 105, 0, 185, 182, 236, 151, 175, 250, 199, 183, 156, 82, 110, 131, 136, 137, 99, 101, 113, 176, 106, 215, 35, 48, 120, 196, 124, 62, 101, 219, 225, 156, 82, 216, 227, 177, 114, 102, 56, 164, 114, 33, 91, 57, 182, 62, 103, 62, 183, 156, 185, 234, 130, 198, 112, 89, 192, 213, 255, 155, 128, 103, 132, 255, 119, 149, 114, 126, 125, 60, 71, 133, 151, 168, 255, 121, 126, 147, 183, 103, 137, 145, 116, 60, 51, 238, \
181, 119, 146, 94, 80, 123, 177, 131, 63, 59, 156, 63, 82, 89, 30, 229, 99, 0, 255, 111, 194, 182, 109, 139, 146, 123, 174, 154, 247, 172, 167, 9, 200, 182, 8, 86, 96, 84, 239, 111, 167, 43, 57, 115, 125, 202, 182, 246, 193, 198, 44, 54, 164, 135, 89, 148, 33, 147, 213, 48, 91, 118, 39, 201, 192, 97, 196, 77, 147, 161, 176, 96, 53, 105, 166, 167, 142, 92, 168, 101, 170, 165, 42, 186, 142, 94, 230, 48, 128, 116, 50, 89, 117, 25, 129, 100, 199, 160, 128, 88, 185, 187, 124, 182, 53, 110, 147, 111, 96, 86, 149, 142, 206, 183, 195, 201, 185, 61, 129, 97, 129, 187, 17, 235, 171, 85, 186, 176, 197, 134, 137, 34, 123, 72, 174, 99, 123, 241, 0, 118, 129, 56, 37, 82, 82, 217, 0, 82, 119, 227, 61, 100, 146, 136, 82, 39, 159, 245, 82, 132, 124, 113, 15, 154, 57, 124, 174, 139, 124, 0, 144, 178, 118, 156, 172, 255, 218, 226, 222, 141, 206, 31, 102, 200, 110, 77, 102, 198, 123, 90, 45, 135, 136, 80, 67, 151, 174, 93, 156, 52, 156, 140, 122, 114, 149, 239, 69, 255, 191, 75, 8, 185, 55, 188, 231, 173, 17, 117, 154, 96, 231, 139, 191, 189, 139, 163, 146, 59, 175, 109, 9, 45, 112, 93, 90, 197, 163, 187, 135, 136, 66, 20, 193, 113, 2, 131, 115, 170, 241, 199, 167, 120, 174, 255, 124, 87, 132, 102, 86, 255, 61, 100, 255, 225, 95, 242, 128, 195, 111, 101, 50, 176, 120, 32, 171, 67, 211, 229, 62, 105, 169, 155, 94, 130, 29, 183, 73, 142, 144, 79, 179, 158, 195, 133, 135, 188, 207, 125, 102, 131, 117, 195, 72, 181, 134, 156, 108, 212, 177, 207, 255, 96, 89, 163, 0, 210, 138, 149, 125, 200, 189, 51, 103, 238, 192, 13, 72, 96, 97, 104, 117, 147, 139, 53, 50, 227, 203, 77, 120, 180, 61, 98, 9, 137, 97, 103, 193, 73, 255, 122, 0, 67, 151, 150, 124, 139, 32, 133, 131, 228, 177, 43, 125, 154, 142, 31, 101, 112, 75, 49, 255, 87, 148, 30, 79, 110, 175, 84, 184, 52, 170, 120, 227, 151, 142, 13, 0, 108, 165, 125, 173, 105, 101, 255, 128, 95, 119, 107, 0, 107, 156, 58, 167, 247, 120, 149, 162, 140, 221, 138, 57, 129, 156, 93, 21, 81, 106, 50, 127, 170, 167, 205, 232, 255, 123, 168, 89, 255, 183, 35, 110, 223, 224, 192, 77, 109, 7, 227, 109, 129, 97, 19, 124, 110, 77, 32, 56, 183, 105, 94, 244, 73, 167, 64, 124, 136, 92, 106, 0, 198, 139, 118, 73, 136, 169, 113, 211, 113, 16, 49, 171, 87, 102, 255, 2, 122, 11, 204, 121, 75, 111, 229, 179, 154, 159, 152, 196, 71, 127, 167, 106, 97, 214, 71, 92, 59, 73, 171, 108, 193, 129, 240, 153, 180, 46, 155, 200, 129, 175, 69, 82, 130, \
213, 75, 132, 56, 223, 123, 133, 202, 76, 112, 39, 95, 128, 198, 111, 79, 147, 188, 134, 152, 128, 108, 19, 141, 50, 51, 99, 127, 140, 75, 97, 161, 205, 44, 103, 29, 243, 211, 86, 80, 165, 190, 162, 60, 194, 81, 44, 82, 17, 187, 118, 73, 32, 131, 114, 111, 120, 219, 171, 58, 86, 167, 153, 145, 47, 143, 148, 40, 94, 108, 222, 55, 102, 76, 71, 0, 218, 172, 156, 199, 143, 41, 118, 115, 187, 154, 172, 86, 237, 225, 53, 218, 163, 255, 175, 54, 100, 171, 162, 82, 66, 180, 130, 112, 32, 0, 120, 6, 187, 103, 160, 161, 137, 77, 189, 49, 109, 47, 95, 61, 105, 227, 90, 170, 36, 183, 182, 223, 0, 114, 107, 56, 185, 57, 248, 110, 65, 137, 158, 177, 111, 139, 81, 83, 151, 198, 123, 0, 183, 200, 203, 127, 68, 110, 153, 83, 117, 171, 202, 3, 57, 177, 100, 24, 187, 190, 123, 78, 84, 183, 204, 96, 205, 171, 111, 169, 91, 250, 94, 177, 175, 178, 139, 132, 137, 90, 53, 167, 100, 160, 56, 79, 0, 35, 98, 135, 200, 157, 109, 135, 170, 145, 79, 167, 167, 135, 184, 226, 142, 59, 221, 120, 76, 94, 56, 90, 146, 94, 38, 198, 170, 186, 199, 157, 130, 92, 136, 143, 67, 52, 137, 235, 123, 214, 200, 173, 74, 168, 36, 51, 124, 184, 157, 152, 61, 114, 128, 68, 116, 122, 19, 137, 226, 92, 88, 166, 59, 67, 183, 175, 82, 234, 106, 96, 102, 109, 63, 54, 53, 74, 144, 58, 148, 52, 208, 173, 31, 141, 212, 194, 0, 78, 168, 159, 113, 150, 159, 10, 71, 0, 183, 150, 77, 133, 59, 48, 224, 193, 180, 243, 165, 242, 255, 103, 138, 11, 56, 185, 112, 57, 82, 116, 225, 68, 124, 247, 44, 131, 89, 169, 190, 58, 209, 15, 83, 96, 148, 134, 230, 168, 114, 68, 172, 170, 15, 199, 126, 193, 105, 159, 136, 42, 124, 0, 124, 178, 101, 223, 202, 137, 120, 99, 164, 108, 154, 88, 139, 124, 106, 144, 67, 166, 17, 168, 83, 153, 0, 43, 80, 215, 243, 22, 146, 43, 168, 234, 109, 96, 131, 171, 69, 209, 106, 74, 57, 125, 162, 228, 138, 0, 9, 234, 133, 161, 149, 85, 255, 104, 243, 0, 98, 102, 236, 67, 149, 81, 144, 226, 163, 100, 100, 255, 234, 204, 255, 224, 138, 186, 105, 189, 47, 58, 109, 111, 92, 55, 110, 141, 249, 112, 125, 189, 143, 199, 203, 139, 57, 173, 47, 93, 188, 116, 206, 59, 195, 255, 43, 118, 58, 99, 164, 10, 186, 188, 85, 154, 139, 94, 111, 90, 53, 151, 171, 145, 43, 22, 113, 232, 147, 52, 204, 51, 232, 161, 105, 204, 188, 63, 248, 115, 35, 196, 115, 231, 91, 43, 162, 57, 34, 58, 52, 84, 78, 106, 215, 138, 126, 223, 208, 16, 133, 137, 138, 170, 160, 146, 103, 67, 22, 73, 97, 191, \
97, 75, 111, 98, 145, 198, 195, 212, 186, 98, 91, 187, 101, 76, 132, 42, 97, 184, 113, 90, 165, 159, 76, 162, 105, 96, 0, 127, 142, 239, 84, 81, 59, 186, 106, 133, 160, 58, 91, 92, 149, 128, 217, 164, 74, 183, 173, 72, 119, 224, 0, 226, 181, 109, 183, 126, 118, 172, 242, 121, 165, 124, 138, 93, 148, 195, 68, 138, 223, 117, 179, 66, 255, 130, 145, 255, 206, 33, 126, 140, 219, 95, 102, 116, 188, 80, 91, 0, 38, 0, 97, 217, 74, 123, 124, 239, 255, 201, 119, 145, 130, 217, 94, 100, 223, 128, 31, 113, 245, 121, 163, 100, 145, 84, 161, 91, 145, 138, 128, 18, 155, 197, 170, 60, 135, 90, 81, 86, 152, 123, 89, 174, 64, 79, 255, 92, 84, 132, 255, 162, 137, 172, 131, 154, 108, 61, 91, 165, 153, 160, 182, 73, 99, 75, 101, 142, 203, 146, 128, 122, 214, 72, 150, 4, 145, 53, 22, 83, 59, 106, 153, 178, 215, 105, 14, 156, 43, 187, 49, 134, 148, 96, 142, 143, 81, 180, 154, 216, 40, 78, 129, 5, 69, 56, 239, 155, 178, 209, 84, 146, 195, 112, 188, 150, 50, 109, 51, 122, 99, 182, 107, 45, 157, 112, 143, 35, 127, 37, 55, 255, 149, 205, 114, 147, 66, 176, 151, 146, 184, 114, 90, 187, 152, 154, 92, 156, 0, 64, 219, 112, 255, 84, 82, 148, 0, 75, 255, 83, 104, 183, 159, 209, 143, 78, 194, 55, 128, 29, 157, 0, 116, 110, 186, 85, 190, 3, 182, 209, 98, 79, 181, 16, 99, 110, 46, 116, 187, 123, 249, 165, 185, 91, 176, 161, 47, 85, 22, 184, 151, 51, 158, 205, 32, 120, 68, 108, 127, 61, 75, 83, 139, 75, 131, 97, 255, 52, 71, 199, 99, 125, 58, 180, 194, 155, 43, 105, 139, 182, 153, 97, 105, 59, 168, 255, 86, 48, 47, 219, 80, 123, 131, 135, 119, 121, 78, 183, 135, 132, 199, 48, 83, 228, 73, 70, 195, 34, 240, 164, 190, 254, 125, 157, 79, 201, 47, 119, 92, 195, 60, 176, 255, 237, 58, 137, 70, 94, 192, 63, 192, 117, 204, 214, 82, 34, 155, 81, 119, 114, 121, 143, 11, 95, 76, 116, 156, 105, 0, 79, 62, 193, 171, 227, 177, 104, 158, 154, 124, 123, 208, 150, 188, 136, 68, 129, 128, 103, 92, 136, 167, 156, 254, 92, 179, 135, 157, 236, 138, 135, 96, 55, 72, 177, 81, 209, 115, 255, 208, 160, 130, 183, 186, 136, 186, 61, 168, 98, 148, 55, 164, 96, 3, 155, 132, 69, 69, 76, 61, 145, 112, 34, 171, 107, 65, 139, 66, 236, 42, 111, 150, 228, 147, 200, 100, 9, 132, 151, 226, 182, 193, 139, 196, 244, 56, 131, 209, 190, 137, 174, 191, 199, 34, 113, 167, 191, 140, 121, 86, 213, 207, 109, 13, 38, 155, 77, 163, 165, 86, 80, 229, 118, 230, 209, 154, 79, 155, 0, 192, 161, 59, 84, 171, 7, \
166, 86, 237, 148, 224, 74, 171, 36, 40, 119, 232, 106, 73, 131, 112, 146, 128, 92, 170, 89, 111, 209, 78, 108, 0, 0, 115, 127, 122, 169, 133, 103, 54, 126, 85, 30, 77, 187, 117, 197, 188, 136, 150, 119, 174, 71, 85, 162, 185, 32, 122, 216, 207, 64, 114, 125, 191, 134, 202, 175, 190, 122, 142, 118, 192, 84, 72, 25, 93, 52, 78, 171, 161, 161, 201, 21, 10, 86, 168, 0, 123, 116, 28, 124, 176, 242, 76, 78, 50, 120, 108, 51, 77, 146, 58, 152, 91, 151, 76, 78, 47, 201, 161, 0, 28, 69, 136, 83, 163, 157, 114, 144, 159, 150, 198, 250, 160, 101, 49, 127, 179, 53, 143, 150, 31, 134, 255, 92, 165, 21, 166, 60, 105, 28, 85, 207, 83, 130, 109, 206, 75, 82, 148, 141, 122, 94, 73, 56, 153, 192, 114, 99, 199, 2, 15, 169, 96, 90, 24, 93, 41, 153, 196, 203, 84, 110, 66, 10, 9, 168, 137, 75, 66, 118, 252, 104, 44, 99, 186, 183, 44, 129, 68, 148, 94, 82, 255, 69, 220, 48, 188, 144, 43, 255, 30, 99, 106, 113, 162, 114, 62, 166, 154, 144, 146, 148, 101, 134, 177, 97, 215, 122, 174, 154, 179, 138, 149, 120, 255, 104, 190, 77, 122, 37, 137, 164, 99, 97, 164, 89, 167, 173, 171, 207, 39, 161, 115, 128, 255, 133, 102, 88, 109, 52, 175, 109, 22, 167, 217, 80, 236, 154, 224, 204, 184, 142, 208, 30, 108, 139, 182, 98, 161, 33, 109, 58, 144, 139, 91, 217, 112, 169, 199, 131, 87, 57, 157, 85, 142, 96, 102, 0, 180, 89, 141, 61, 129, 154, 0, 117, 106, 98, 138, 60, 136, 165, 255, 40, 120, 85, 7, 0, 95, 222, 0, 168, 79, 160, 248, 80, 62, 132, 34, 102, 94, 146, 159, 207, 168, 102, 208, 51, 121, 102, 160, 109, 193, 0, 203, 147, 94, 134, 193, 152, 173, 74, 0, 49, 54, 54, 255, 156, 173, 126, 177, 103, 0, 132, 55, 117, 91, 77, 163, 124, 255, 111, 64, 120, 24, 13, 173, 134, 255, 72, 130, 207, 120, 130, 44, 88, 154, 115, 116, 46, 131, 144, 88, 87, 118, 103, 142, 123, 0, 159, 129, 61, 95, 82, 147, 172, 209, 233, 135, 79, 104, 123, 47, 97, 48, 61, 9, 201, 154, 53, 37, 15, 136, 234, 162, 132, 128, 0, 31, 249, 0, 163, 27, 133, 61, 158, 170, 90, 230, 125, 141, 233, 50, 216, 106, 39, 77, 193, 53, 151, 110, 106, 174, 167, 78, 181, 253, 151, 62, 126, 91, 72, 172, 178, 255, 163, 139, 138, 184, 209, 83, 79, 88, 194, 127, 36, 172, 197, 9, 18, 122, 121, 110, 229, 182, 37, 152, 177, 147, 164, 94, 158, 119, 148, 123, 41, 177, 128, 233, 115, 0, 84, 22, 75, 94, 100, 168, 48, 194, 226, 253, 188, 180, 200, 117, 208, 210, 142, 82, 212, 68, 141, 199, 200, 145, 141, 70, 108, \
168, 55, 230, 182, 116, 168, 26, 0, 119, 116, 146, 101, 123, 205, 44, 106, 105, 142, 66, 8, 78, 0, 213, 160, 49, 168, 68, 245, 0, 110, 161, 149, 109, 176, 158, 134, 52, 184, 48, 154, 207, 184, 158, 112, 63, 255, 147, 161, 86, 96, 183, 162, 52, 154, 106, 130, 117, 186, 187, 191, 121, 186, 255, 186, 167, 185, 97, 120, 207, 238, 136, 73, 175, 84, 123, 148, 250, 135, 162, 239, 131, 186, 74, 75, 141, 27, 104, 56, 110, 66, 16, 154, 234, 189, 170, 132, 206, 70, 199, 16, 111, 86, 222, 31, 143, 46, 156, 119, 125, 123, 119, 58, 147, 79, 69, 193, 132, 124, 152, 16, 147, 79, 142, 64, 226, 106, 100, 98, 143, 85, 60, 191, 158, 132, 76, 87, 102, 186, 252, 24, 193, 15, 189, 187, 118, 84, 158, 73, 81, 133, 121, 155, 93, 60, 154, 211, 81, 96, 74, 174, 100, 218, 205, 0, 88, 70, 58, 191, 65, 56, 141, 131, 209, 222, 0, 57, 49, 180, 255, 142, 208, 174, 74, 57, 52, 108, 26, 247, 177, 150, 139, 203, 114, 89, 135, 161, 106, 172, 134, 61, 203, 203, 194, 138, 162, 65, 44, 196, 255, 223, 150, 255, 176, 134, 74, 153, 85, 141, 97, 205, 123, 104, 82, 218, 18, 171, 41, 103, 214, 169, 66, 214, 125, 132, 121, 183, 146, 221, 130, 120, 225, 96, 223, 140, 129, 50, 249, 123, 185, 187, 201, 55, 145, 188, 172, 143, 134, 174, 197, 60, 92, 151, 88, 118, 172, 151, 141, 169, 161, 114, 116, 212, 174, 245, 141, 35, 86, 193, 140, 156, 151, 97, 189, 183, 32, 155, 187, 11, 182, 85, 119, 175, 218, 90, 82, 61, 69, 217, 140, 197, 109, 0, 229, 133, 65, 107, 116, 102, 217, 199, 128, 79, 117, 173, 105, 126, 194, 106, 146, 201, 225, 110, 153, 150, 46, 174, 245, 86, 189, 176, 82, 141, 87, 174, 131, 64, 199, 138, 80, 180, 75, 129, 99, 89, 156, 31, 81, 39, 104, 169, 136, 251, 119, 55, 112, 133, 66, 129, 183, 32, 187, 170, 38, 86, 179, 104, 255, 207, 187, 40, 25, 93, 182, 255, 209, 204, 134, 142, 120, 130, 202, 183, 188, 132, 0, 83, 96, 91, 0, 232, 70, 164, 137, 205, 151, 54, 83, 255, 150, 79, 19, 10, 33, 35, 53, 137, 62, 90, 38, 180, 73, 204, 105, 115, 117, 139, 177, 153, 205, 207, 15, 142, 255, 113, 158, 64, 115, 137, 156, 89, 146, 131, 52, 125, 203, 159, 136, 234, 191, 124, 21, 0, 123, 216, 205, 207, 96, 61, 186, 150, 91, 200, 47, 151, 231, 128, 255, 164, 144, 94, 126, 123, 0, 184, 53, 150, 0, 7, 187, 93, 118, 33, 164, 123, 158, 102, 236, 103, 122, 153, 0, 225, 185, 255, 0, 194, 37, 134, 63, 177, 4, 206, 179, 251, 131, 107, 106, 181, 168, 27, 128, 51, 135, 148, 116, 163, 191, 241, 225, 151, 131, 123, \
