/*
 * golden_8_32_8.h
 * Nazareno Bruschi <nazareno.bruschi@unibo.it>
 *
 * Copyright (C) 2019-2020 University of Bologna
 *
 * Licensed under the Apache License, Version 2.0 (the "License");
 * you may not use this file except in compliance with the License.
 * You may obtain a copy of the License at
 *
 *     http://www.apache.org/licenses/LICENSE-2.0
 *
 * Unless required by applicable law or agreed to in writing, software
 * distributed under the License is distributed on an "AS IS" BASIS,
 * WITHOUT WARRANTIES OR CONDITIONS OF ANY KIND, either express or implied.
 * See the License for the specific language governing permissions and
 * limitations under the License.
 */

#ifndef __PULPNN_TEST_GOLDEN_MODEL__
#define __PULPNN_TEST_GOLDEN_MODEL__

#define WEIGHT_INT8 {29, 68, -101, 89, -12, 75, 76, -31, -56, 126, -2, 34, 80, 27, -21, 23, 34, -80, -1, -49, 48, 60, -122, 49, -128, 92, -28, 8, -61, 106, 100, -101, -46, -89, 110, 97, -117, 85, 106, -13, -6, 106, -32, -30, -4, 25, -12, 18, -28, 103, -48, -103, 42, -84, 68, 42, 30, -121, -12, -37, -42, -1, -120, 17, -12, -19, 37, 71, 68, -111, 60, -124, 3, -69, 26, 126, -36, -68, 42, 120, 1, 4, 57, 74, -33, 113, -79, -123, -99, -46, 115, -115, 29, 33, 77, -65, -100, -11, -24, -105, -108, -75, -67, -110, -97, 20, -116, -111, -125, -32, 93, 16, 56, 55, 36, -50, -98, -106, 62, 36, -38, 30, -54, 73, 51, -41, 45, -122, 33, 46, 117, 80, 26, 12, 117, -14, 121, -25, -22, 52, 92, -41, -25, -112, -118, 57, 65, 64, 18, 81, 39, 63, -78, -20, 35, -64, 69, -67, -19, 112, -69, 96, -33, 12, 41, -28, 66, 17, -83, 4, 90, -64, 110, -72, -24, 104, -126, 50, 78, 75, -109, 15, -30, -18, -4, -4, -63, -28, -73, -76, 18, -5, 59, 13, -107, -108, 114, 25, 125, 94, 78, -29, -104, -112, 30, -106, -64, -36, 46, 53, 111, 91, 56, -109, -9, -89, 90, -60, 64, -60, 85, -20, 123, 122, -52, -87, 114, -127, -41, 103, -75, 31, -121, 120, -11, 44, 9, 21, 57, -44, -6, -23, -12, -70, -12, 95, 52, -107, 58, -30, -43, -120, -12, -30, -34, 38, 19, -105, -18, -108, 80, -36, 74, -84, -72, 93, 120, 89, 30, 88, 111, 107, 68, 48, 124, 14, 41, -30, 18, -66, 111, -81, -109, 111, 29, 5, -128, 66, -108, -127, -100, -108, -86, -50, 26, 37, 16, 32, 66, -14, 54, -92, 11, 64, 73, 0, -54, 92, -4, 57, 63, -114, -95, -91, -42, 26, -115, 37, 49, 79, -52, -78, 92, 112, 8, 19, 70, 6, 67, 113, 68, -73, 67, 80, -90, 4, 94, 111, 22, -114, -27, -23, 0, -42, -74, 109, 75, -91, 60, -59, 55, -50, -66, -50, 1, 104, -59, 66, -80, 60, 101, 94, -124, -93, -16, 2, 4, -49, 119, -8, 107, 99, -53, -33, 104, -74, -99, 116, 6, 103, -125, -24, 21, 83, -39, 66, 117, 90, -119, -99, -108, -112, -22, -126, -73, -92, 104, -25, 103, -48, -108, -119, 64, -40, 125, 27, -103, -28, 32, 110, -29, 79, -2, -37, -6, 70, 123, -109, -70, 42, 72, 52, 101, 19, 88, -122, -57, -89, 83, 72, 54, 69, -7, -112, -9, 28, -42, -86, -96, 10, -32, 90, 108, 24, 116, -128, -86, 107, -86, -83, 79, -40, 15, -17, 5, 80, 102, 87, -71, 86, -42, 75, -1, -88, 89, 82, -95, -24, 13, 82, 71, -124, 17, 8, -107, 53, -84, -23, -99, -15, 83, -20, 33, 118, 51, 60, 34, -49, 40, 68, 23, -15, -102, -2, 21, -22, -33, 2, -105, 122, -52, -122, 120, -28, 107, -91, 28, 40, 24, -11, -47, 90, 123, 46, 51, 46, 110, -111, 26, -64, 92, 71, -76, -57, 66, 102, -60, -59, 72, -12, -98, -110, 96, 2, 52, -33, -72, -85, -96, 70, -113, -13, 33, -29, 23, -81, 67, 119, -28, -87, -4, 10, -64, 109, 35, -65, -119, 119, -108, 124, 5, -30, -69, -78, -121, 120, 61, 41, -76, 117, -57, -21, -68, 41, -62, 15, 46, -70, 13, -65, -82, -80, 42, -80, -44, 10, -108, -41, -128, -107, 117, -23, 88, -87, -107, -73, 35, -62, -108, -105, 1, -77, 28, -74, -99, -19, -54, -96, 35, -124, 123, -75, 73, 80, -116, 69, 94, 35, -35, 124, -53, -69, 55, -54, 19, 8, -126, 30, 22, -127, 94, 95, 82, -115, 83, -85, 18, -78, -7, 63, -105, -72, 56, -116, -19, -106, -14, -28, 59, 58, -56, -14, 92, -122, -69, -19, -101, 9, 85, 75, 119, 24, -117, 60, 68, -80, 71, 30, 60, 30, 116, -59, 55, -76, -3, -22, 92, 31, -104, -61, -89, -10, 105, 90, 89, -25, 13, 90, -93, -56, 64, -122, -32, -16, 87, -23, 54, -123, -23, 87, 79, 122, -117, -75, 39, -82, -10, -74, -1, 18, 100, 126, -67, -46, 97, -7, 45, -59, 93, 70, 94, -106, 18, -114, 117, 92, -122, 111, -119, 39, -127, -36, -35, 105, 68, 10, 101, 33, -36, 44, -124, 22, 40, -124, 96, 31, 9, 28, 105, 95, 107, -25, -46, -11, 51, 26, 13, 61, 25, -23, 83, -6, 34, -5, 58, -97, 96, 107, 112, 73, 75, 21, 94, -8, -24, -115, 10, -125, 14, -69, -125, 0, 94, 123, 34, 125, 51, 69, 106, 15, 18, 42, 113, 83, -103, -72, -38, -62, 32, -107, -79, -78, -20, 69, 53, 107, -13, -95, 16, 23, -86, 77, -86, 17, 9, 103, -16, -6, 6, -27, -112, 120, -106, 27, 13, 13, 8, -94, 115, -106, -92, -21, 19, -11, 33, -37, 113, 76, -13, -43, 17, 122, -74, -88, 117, 45, -109, -101, 119, 123, 50, 126, -1, -42, 17, -58, -85, 70, -106, 16, 72, -85, 67, 54, -107, 51, -114, 8, 32, -2, 31, 72, 62, -72, 85, 116, -73, -86, 100, -8, -104, -66, 82, 52, -83, -114, -77, 57, -47, 48, -31, -19, 53, 61, 79, 5, 42, 104, 125, 82, 44, 94, 9, -29, -80, 59, 98, 40, -47, -126, 22, -113, 115, 8, 81, 40, 22, 59, -62, 4, -85, -76, -25, -123, -74, 109, -42, 126, 52, 17, -69, -90, 10, 96, -82, -13, 53, 12, 58, -121, 125, 67, -29, 70, 124, -85, 80, 90, 96, -2, 67, 40, -18, -22, -74, -25, -105, 44, 64, -46, -74, 36, -107, -48, 7, -106, -75, 6, -6, -43, -31, 38, 54, 119, 87, 64, -16, -86, -17, -38, 86, -44, 24, 37, -114, 35, 49, 107, -86, 0, -117, 44, -81, -105, 38, 99, -42, 1, 117, -4, -7, 87, -28, 5, -98, 27, 124, 68, -10, -14, -106, -62, 11, -95, 38, -70, 118, -80, -7, 92, -50, 92, 107, 83, \
-91, 76, 103, -16, 14, 64, -105, 109, -32, 58, 62, -122, 11, 93, -99, 114, 8, 105, -47, -83, 82, -110, 104, 100, 25, -123, -35, 115, 116, -31, 109, 1, -18, -11, -51, -68, 59, -127, -20, 16, 38, 13, -2, 39, 108, -9, 112, -41, -22, -100, -8, -93, -14, -27, 89, -12, 83, 105, -26, -108, -89, 62, 110, -74, 63, -89, -120, -76, 9, -121, 42, -68, -43, -51, 82, -81, -19, 122, 9, 101, 105, -5, 50, 17, -101, -26, 20, -58, 27, -89, 97, 11, 15, 15, -125, -109, -21, -46, -1, 5, -44, -97, 91, -124, 75, 45, -103, -55, 21, 19, 55, 86, 95, 65, -5, 109, 72, -29, 95, 84, -50, 104, -74, -43, -116, -113, -80, 113, -28, -25, 16, 3, 17, -74, 86, 41, 36, 47, 91, 104, -85, 63, -46, -5, 80, 103, 118, -41, 24, -42, 45, 23, -8, -90, 35, -117, 48, -43, -102, -17, -121, 35, 124, -98, 49, -49, -13, 85, 9, 86, 15, -55, -53, -103, 38, 17, 57, -77, 25, -66, -59, 71, 48, 68, 54, -73, -120, -74, 47, 100, -2, 10, 17, 22, -94, -121, 77, 85, -70, 22, -122, -66, 71, -93, -88, 109, -24, 65, 90, -72, -17, -98, -99, -22, -75, -28, 20, -77, 41, -120, 54, -111, 51, -29, 39, -94, -30, 60, 23, -63, -99, 13, -78, 81, -97, 0, 100, 29, 46, -90, 93, -14, 12, -19, 103, 25, -63, 109, -18, -4, -78, -7, -6, 22, -103, 90, -27, 62, 3, -83, 74, -65, -22, 42, -110, 105, 92, 100, -104, 2, 16, -6, -113, -36, 57, -27, 116, -79, -95, 45, -4, -72, -104, 122, 125, -75, -62, -91, -3, -7, 40, -42, -81, -35, 60, 41, -63, 13, -6, 124, -116, 24, -103, 5, 117, 23, 26, 85, -35, 79, 22, -119, -77, 96, -95, 38, 120, -43, -63, 111, 110, -71, 14, -103, 117, 95, 69, -20, -124, -127, -67, -65, 50, -65, 72, -71, -56, 73, -12, -121, 51, -101, -15, 72, -83, -81, -58, 44, 44, -68, 93, -79, 47, -123, 82, -92, 81, -96, -42, -114, 46, -30, 126, 50, -57, 75, -98, 32, -2, -107, -74, 98, 106, -76, -119, -47, 87, -77, -17, 14, -10, 48, -110, 116, 20, -93, -38, -19, -27, 95, 92, -72, 63, -13, -101, -56, 84, -2, -128, -58, -15, -69, -76, 118, 47, 57, 57, 65, 47, -16, -94, 123, 89, 81, -32, 14, -21, -125, 56, 14, 95, -20, 105, -103, -110, 67, 110, -54, 11, -127, 57, -115, -3, -87, -87, 92, -121, 119, -86, -73, -7, -68, 26, 75, -39, -19, 52, -59, 37, -104, -64, 1, -57, -95, 19, -96, -23, 23, -114, -89, -59, 4, -124, -122, -100, -77, -87, -107, -75, 93, 43, -96, 26, -98, 43, -109, 3, 22, 34, -77, 69, -108, 23, -111, 66, -106, -112, -32, 10, 44, 54, -41, 57, -58, -93, -64, -83, -8, -73, 48, 106, -99, 117, -99, -13, 26, -63, 39, 42, 124, 105, 81, -102, 103, 123, -95, 22, 39, 13, -77, 51, 57, -71, 120, -29, 25, -40, 96, -87, -122, 72, 9, 120, -43, -7, 74, -123, -3, 7, -87, 68, 47, -79, 62, -90, 100, -64, 40, 118, -78, 34, -32, 27, 63, -95, -92, 25, 84, 88, -30, 89, 51, -127, -95, 86, -107, -123, 24, -22, -112, 92, 32, -120, 79, -103, 22, 83, -1, -113, -98, -30, -94, -68, -6, -41, 22, -69, -24, -52, -59, -79, -88, 116, 87, -27, -62, -107, 84, 64, 16, 14, 45, -11, 89, 36, -94, 113, -117, 9, 40, -53, 27, 72, 6, 42, 122, -58, -110, 69, -120, 110, 110, 86, -123, 81, 105, -3, 40, -21, 116, -126, 77, 35, -77, -9, 114, 52, -42, -62, -20, 4, -22, -55, 76, 121, 54, -109, -65, -73, 102, -40, -87, -32, 104, 85, 113, -128, -100, 105, 2, -103, 30, 44, 47, 46, -52, -91, -22, -76, -97, -34, 8, 50, 19, -64, -116, 106, -48, 76, -56, 23, 28, -43, -32, -35, 75, -30, 113, 123, 67, 91, 0, 101, -47, -81, 36, 57, -59, 99, -27, 82, 119, -78, -122, -45, 37, 10, -68, 38, -57, 30, 29, 29, 26, 105, -62, 114, -88, -120, -17, -8, -103, 54, -28, 70, -61, 101, 65, -21, 83, 35, 79, -35, 97, 90, 3, 74, -41, -57, -89, 13, -99, -116, -103, -5, 14, 55, 9, -125, 34, -94, -25, -30, -103, 86, -75, 80, -73, 101, -86, 41, 64, -43, -27, -54, 87, 51, -104, -91, 49, 26, -105, -109, 35, 48, 74, 86, -125, 39, 7, 5, -87, 106, 125, 123, -74, 3, -117, 125, -100, -66, 27, -33, -48, -1, 84, 93, 49, 74, -19, -112, 97, -111, 35, 29, -1, -105, 65, -6, -73, 92, 89, -113, 12, 84, 44, 81, 123, 77, -30, -5, -123, 19, 97, 61, 6, -89, 55, -50, 37, 55, -43, -81, -18, -26, 107, -102, -59, 96, 13, -102, 66, -87, -53, -10, -39, -69, -16, -35, 52, -101, -83, 115, 92, -1, -128, -67, 23, 93, 89, 80, 4, 121, 120, -115, 56, -53, 45, -104, 25, -31, 0, -2, -119, 66, -2, -73, 65, -52, -45, -70, -94, 114, 50, 78, 21, 51, -62, 76, -117, -44, 95, -110, 50, 16, -73, 73, 29, 51, -58, 44, 88, 61, 68, 71, -112, -29, 72, -51, 78, 115, -105, 69, 80, -10, -9, -35, -81, -123, -55, 73, -122, -36, -66, -112, -107, -57, 14, -76, -87, 47, 66, 27, -94, 104, -49, -26, -114, 95, 4, 22, -30, -83, 101, 63, -84, -58, 90, -2, -98, 79, 80, -100, 59, -30, 111, 100, -7, 15, 84, -13, -18, -21, 30, 123, 121, -77, -4, 49, 73, 59, -72, 67, -91, -9, 23, 10, -35, -70, -69, -128, 72, 20, -77, 96, 49, 92, 13, -42, -92, -30, -54, 35, -5, -103, 49, 13, -65, -120, 35, 62, 39, 18, -128, 16, 46, -54, 60, -3, 110, -25, -121, -41, 105, 26, 3, 46, 96, 100, 88, 30, 30, -28, -88, \
15, 62, -93, 95, 4, 60, 3, -121, -24, 65, 78, 75, -100, 51, -47, 20, -86, -45, -30, 28, 116, 61, 11, -69, 81, 20, -49, 39, -18, -45, -38, 104, -36, 93, 78, -93, -123, -81, -67, -20, 122, -87, -70, 17, 25, -105, 22, -51, -42, -90, 97, -91, -86, -90, -66, 76, 118, 11, 30, 40, 41, 38, -110, -81, 117, 101, 111, -14, 97, 42, 47, -103, -94, -104, -94, -51, 19, 41, 40, 71, -101, -78, -23, -128, -23, 0, -63, 32, -68, 66, 20, -30, -109, 64, -109, -72, -126, -98, -47, -28, -73, -107, 124, 89, -53, -119, -25, 3, 51, 31, 46, 19, 46, -76, 110, 83, -9, 55, 61, 59, -7, -13, -19, -82, 64, 35, 115, -11, -78, -9, 95, 55, -32, -45, 36, 47, 100, 104, -7, -25, 44, -6, -61, -99, -41, 44, 105, -73, 15, -66, 110, 111, -34, -23, -86, -8, -54, 78, 107, -84, -38, 24, -95, -14, -69, -29, -126, -8, 74, 123, 76, 68, 100, 33, -65, 113, -39, -41, -10, -103, -47, 52, -16, -4, -117, -69, 14, -97, 13, -104, -77, 26, -48, -55, -104, -80, -91, -77, -31, -107, -34, -42, 59, -2, -128, 76, 16, -53, 54, -48, -57, 35, -85, -94, -84, 100, 86, -59, -97, -116, 46, 91, 103, -14, -66, 73, -108, 86, 121, 64, -21, -56, -66, 0, -18, 109, 96, 113, -17, 99, 96, -4, -124, -94, 47, 65, 23, 68, 121, -120, 44, -76, -117, 50, -111, -28, -60, 120, 12, 15, -89, 1, 22, 75, 44, 106, 95, -6, -54, 38, 126, -100, -40, -126, -1, -108, -125, -45, -6, -122, -82, -14, 6, -52, 103, 105, -117, 3, -14, 84, 6, -21, 63, 16, -54, -100, -81, 62, 90, 8, 28, 75, -37, -58, 32, 28, 111, 90, -10, 4, 51, 22, -57, -105, -48, 5, 122, 112, 68, 20, -89, 120, -80, 15, 62, -86, -90, 44, 99, -60, -62, 7, -93, 62, 74, -44, 0, 84, 66, 120, -23, -47, 48, 98, 42, 124, -75, 14, 49, 83, -49, -3, 16, 45, -52, 79, 95, 54, 93, 4, 107, -82, -83, -85, 88, 1, 90, -101, 111, -24, 77, -51, -103, -80, 76, -111, 119, 105, 40, 3, -59, -29, 104, 100, 60, 99, 119, 7, 10, 5, 25, 125, -64, -77, -105, -64, 27, -99, -111, -26, -121, 1, 64, 45, 74, -23, 87, 91, -65, -107, -12, 5, 34, -65, -48, -11, 7, -16, 82, -120, -85, -29, -56, -64, 57, -29, 0, -33, -29, 106, 41, -127, -84, -73, 2, 66, -82, 31, -55, 15, -23, -109, -105, -116, 33, 110, 1, 46, 73, -114, 15, -117, -7, 88, -70, 8, -20, 86, 70, 87, 59, -118, 16, 110, -29, -26, -74, 88, -11, -127, 52, -11, 43, 70, -63, -52, 13, -29, 24, 4, 30, -53, -57, 48, 67, -14, 111, -105, 105, 72, -52, 58, -12, -114, 19, 40, 0, 63, -109, 74, 64, 60, 22, 15, 54, 59, -100, -23, 38, 41, -94, 65, -48, -13, -105, 123, 103, -72, 16, -34, 66, -77, -47, -58, 74, -126, 5, -24, 61, -126, -127, -20, 108, -51, 70, -42, -22, 82, -76, 65, -70, 67, 102, -66, -79, 56, 39, -125, -85, 34, -81, 5, -50, 10, -50, -64, 98, 91, 81, 103, -45, 16, -42, 99, 58, 125, -90, 21, -6, 72, -25, -121, -78, -16, 46, -80, -1, -19, -70, 57, -70, -74, -15, -73, 74, 27, 36, -58, 108, 71, -36, -99, -87, 29, -61, -5, 56, -8, 97, -111, -25, -77, -102, 106, 86, -60, 9, 89, 6, -9, 62, 0, -97, -91, -31, -30, -42, -30, -83, -29, -4, -74, 11, 44, -96, -40, 46, 9, 116, 50, 37, -120, 103, -66, -91, 35, 82, 40, -85, 18, -51, 64, -32, 94, 76, -117, -80, 43, -89, 49, 93, -3, -65, 122, -9, -119, -9, 108, 97, 77, 111, -73, 18, 14, 4, -113, 7, 105, 16, 121, 119, -102, 77, -63, -117, 40, -62, -11, -65, 21, -70, -64, -84, -126, -31, -42, 60, -111, -66, 41, -74, 80, -101, 82, -34, -9, -4, -123, -66, -49, -48, 22, -40, 21, -114, -125, 94, -65, 118, -79, 52, 70, 119, 52, 85, 42, -66, -43, 30, -98, -110, -107, -23, -116, 7, -33, 86, -60, -46, -18, 65, 62, -79, 62, -12, 96, 115, -124, -51, -31, 126, -122, 104, -62, -99, 49, -107, -112, -16, 92, 79, 29, -110, 76, -29, -38, 3, -126, 72, -43, -56, -105, -40, -40, 87, 65, 67, 56, -84, 120, -33, -11, -127, 42, 106, 14, -113, -114, -88, 58, -31, 94, -70, 11, -6, 116, 69, 92, 9, 20, -113, -78, -61, -73, 57, 71, 24, 88, -110, 48, -26, -87, -81, -96, 103, -47, -73, 95, -103, 12, -77, 31, 116, 30, -9, 103, -125, -34, 71, 4, 29, -24, -64, -77, -22, -34, -61, 107, -38, 86, -63, 32, -30, 5, 4, -99, 55, 99, -18, 101, -117, 94, -79, -21, -61, -76, -49, 54, 77, 52, -118, -96, 22, -85, 60, -73, 23, -36, -17, 34, -1, 88, 44, -34, -107, 125, -34, -123, 69, 2, 74, 14, -28, 64, 6, -23, -102, -22, -11, 60, -99, -101, -117, 17, -40, 46, -30, 0, -66, -124, 56, 76, -39, 18, 10, -66, 43, 46, 50, 61, 113, 112, 59, 6, -40, 119, 83, -103, -125, -27, -89, 63, 37, -12, 1, 26, -36, 122, -94, 29, -4, -7, -102, 47, -61, 78, 102, 65, 91, 3, -42, 0, 19, -102, -128, -50, 21, -81, 25, 85, -68, 45, 16, -95, -100, -22, -32, -41, 14, 65, -23, -42, -50, -104, -99, -11, 115, 82, -121, 37, -95, 32, -128, 30, 101, -49, -117, 70, -24, 81, -99, 123, -8, 100, -114, -4, 82, -18, 100, -42, 81, -83, -28, 101, 124, 104, -73, 36, 103, 75, -105, -18, -91, -106, -12, -99, -88, 62, -94, -128, 56, -70, 8, -20, 45, -12, -88, -55, 63, -37, -12, 43, -31, 88, -126, 16, 19, -9, -77, -37, -15, -100, 77, -87, \
-22, 24, -101, -111, 29, -104, -43, 64, -89, -4, -75, -50, 2, -96, 112, -16, 99, -117, 31, -36, -5, -76, -48, -61, -104, 19, -104, 113, 84, -95, -28, -40, -82, -101, 56, 103, 87, 92, -82, 110, -123, -118, -15, -84, 76, 5, 90, 103, 14, 2, 55, 38, -18, 108, 91, 19, 82, 72, -45, 27, -37, 75, 76, 43, 36, 114, -124, -72, -26, -27, 96, -96, -9, -29, 65, 80, -50, -33, -65, -12, -118, 7, -51, 47, 51, 62, -114, 5, -41, -25, -91, -100, -103, -30, 95, -94, -123, -113, -9, -94, -21, 82, 18, 61, 70, 87, -81, 41, -96, -73, 52, 80, 89, 105, -14, 46, -61, -50, 49, 72, 76, 2, -67, -81, 7, 120, -20, 57, -104, -10, 45, 6, 119, 105, 61, -60, -102, 64, -3, 118, 15, 111, 53, -45, 122, 96, 82, -72, 88, -13, -36, -52, -55, 32, 101, 49, 35, 108, 123, -77, 56, 62, 125, 92, 113, 57, -15, -5, -41, 79, -21, -1, 70, -21, 11, 113, 40, -50, -14, 52, 61, 52, -127, -17, 120, 57, -69, -103, -124, 122, -27, -53, 89, 101, -101, -70, -54, 18, 63, 122, 26, -72, -57, 98, -31, -8, 16, -23, -128, 63, -6, 105, -39, 40, 57, -31, 69, 75, -127, 110, 3, 39, 11, -6, 124, -91, -33, -41, -11, -43, 78, -123, -56, -100, -54, 29, 10, 17, 40, 124, 11, -38, 37, 55, 109, 62, -10, 46, -19, 89, 112, 125, 90, -23, -51, -28, -85, -66, 30, -113, -65, -93, 90, -9, 118, -38, 118, -38, 0, -122, 73, 100, 0, 76, 35, -47, 25, 112, 40, 50, -22, 10, 91, 30, 78, 68, 49, 43, 110, -32, 11, -35, 42, 110, -66, 99, -128, 55, 2, -39, -90, -48, 19, 31, 44, 121, -65, 120, 57, 38, -117, -104, -62, 84, 50, 108, -42, 124, 13, 11, -108, -31, 33, 122, -59, 32, -119, -124, 3, 36, -49, -102, -80, 106, -110, 34, 22, 78, 23, 58, 80, -86, 42, 34, 77, 113, 90, -88, 95, 77, 83, 66, 87, -125, -55, 88, -35, 115, 120, -110, -68, -35, 7, 87, 5, 85, -104, -108, 3, 22, -25, 36, -7, 104, -14, 87, 76, -74, 72, 57, 90, 44, -127, 116, -69, -47, 11, 66, 66, -77, 55, 115, -32, -3, 80, -108, -47, 14, 61, 108, 13, 76, 1, 54, 106, 120, 114, -57, -111, 17, 33, 57, -82, -105, -2, -115, 29, -34, 28, 124, 70, -77, 115, 65, -18, 116, 121, 121, -113, 93, 26, -7, -40, 57, -120, 116, -124, -81, 76, -15, 73, -85, 30, 3, 5, -101, 48, -59, -101, 55, 15, 115, -11, -40, -70, -83, 87, 71, -114, 111, 11, -103, 21, -51, -115, 124, 90, 120, -56, 72, -92, -17, -6, -33, 85, -33, 119, -28, 96, 57, 110, -110, 34, -42, 39, -55, 83, -113, -65, -12, -35, -60, 23, 49, 90, 104, 106, -50, -37, -57, -2, 6, -59, -108, 80, 60, 51, 34, -12, 36, -74, -65, -67, 115, -64, -11, 30, 31, 100, 86, 69, 90, 48, 86, -41, 119, 118, 82, 121, -5, 9, 52, 103, -73, -115, -128, 42, -85, -34, 119, 86, -123, 65, -63, 25, -124, 39, 52, -126, -18, -126, -115, -83, 44, -25, -126, -118, -109, -35, 42, 66, -106, 59, 46, 5, -15, 55, 126, 111, 66, -98, 48, -28, 24, 73, 53, -72, 2, 42, 14, -3, 82, -77, 33, -63, 114, -91, 74, -98, -64, -117, 103, 18, 9, 97, 87, 93, 47, 35, -32, 80, -80, 62, 94, -78, 29, 25, -46, -54, -31, -113, -80, -86, -2, -69, 77, -70, 97, -56, -85, -16, -88, -1, -24, 55, 58, 124, -43, 116, -14, 92, -116, -61, -95, 126, -84, -61, 57, -110, 1, -40, -101, -73, -109, 86, 122, -26, -32, -51, -57, -63, 20, -92, 18, -3, -53, 99, 15, -31, 71, 120, -24, -104, -91, 44, 51, -24, 88, -100, 105, 50, 53, -37, -93, 91, -91, 54, -47, 28, -90, 76, 54, 96, -56, -108, 87, 95, -62, -111, -80, 37, -71, 84, 43, 72, -79, -47, -106, 18, -50, 40, -62, -70, 112, -69, 75, -12, -124, -104, 112, 60, -101, -99, -61, 39, -119, 3, -17, 112, -42, -89, 112, 117, -64, -40, 7, 25, -108, 91, -22, -20, -105, 84, -55, 65, -101, -66, 10, -116, 54, 108, 67, 71, -57, -120, -15, 75, 51, -41, 60, 20, 123, -103, 96, -54, -60, -73, 79, -59, 83, 47, 76, -123, -96, -104, -42, -127, -99, 112, -104, 68, -104, -66, -56, 3, -62, 68, -51, 102, -5, -3, 28, -44, -67, 73, 45, 62, 49, -43, -57, 31, -88, 1, 59, -94, 77, 91, -28, 66, 106, -20, 85, -47, 73, -73, -67, -122, -54, -64, -84, 37, 81, -69, -29, 54, 93, 18, 35, 37, 67, -54, -1, 103, -13, -75, 53, -78, 18, -17, -81, 22, -103, -58, 85, 98, 15, 13, -3, 102, -127, -110, -114, 97, -32, -120, 117, -61, -34, 95, 42, 98, 52, -112, 17, -101, -23, -37, -44, 28, -101, -75, 103, -91, 111, -55, 119, -103, 98, 30, 33, -106, 125, 44, -67, -23, 3, -8, -20, -24, 64, -111, 46, 21, 76, -5, -128, 103, 85, 33, -109, 50, -122, 13, -32, 55, -100, -101, 57, -113, -22, 86, 104, 55, -116, 34, 102, -1, -113, -25, 26, 51, 65, -51, 47, 102, 50, -1, -8, -24, -114, 51, -108, 12, -70, -98, -17, 28, 114, 97, -88, -5, -104, -110, -19, -89, -14, -120, -121, 57, 40, -9, 93, 4, -97, -28, -6, -103, -118, -24, -20, 24, -34, 126, -5, -46, 10, -110, 81, -72, 40, 92, -57, -21, 100, 72, -41, -49, -42, -6, -18, -20, -10, 44, -18, 93, -78, -33, -41, 94, 1, -37, 41, 74, -37, -67, 45, -62, -50, 71, -15, 47, 99, 104, 107, -24, 69, 79, 102, 87, 71, -68, 3, -106, -48, 11, -77, 90, 102, 0, -126, -94, 81, -23, 12, 115, 9, -30, -112, -80, -53, -67, 82, -11, -20, \
20, 70, 44, 104, 113, -25, 23, -69, -71, -24, 33, -30, 43, 31, -37, 121, -3, 74, 112, 112, -7, -20, -68, -106, 124, 70, 124, 60, -13, -23, 120, 22, 16, -36, 87, -44, -87, -5, -46, 54, -43, 45, 88, -60, -102, -96, 48, -57, 42, -3, 43, 77, 69, 25, 119, 125, -5, -48, -37, 20, 58, 74, -88, 7, -121, 80, -99, 13, -80, 71, 79, -81, -97, 94, 115, 70, 88, 53, 12, -42, 107, 3, -26, -38, 55, -55, -46, 94, -83, -87, -59, 66, 8, 83, -117, -39, -82, -16, 102, -123, -92, 90, 7, -28, 106, 76, -113, 18, 54, 14, 110, -122, -74, -118, -15, 84, -66, 109, 38, 82, -77, -22, -6, 123, 16, 38, -72, -82, -24, 118, -77, 125, -43, -85, 31, 77, 81, -122, -22, -104, -48, -3, -39, 56, 45, 93, 53, 107, -105, 13, 18, 2, 77, -65, -96, -19, -56, 70, 18, -50, -33, 16, 89, -47, -3, 18, -103, -62, -117, 56, 99, -19, -2, -100, 79, -24, 24, -98, -89, 56, 16, -60, -102, -110, -72, 41, -123, 110, 98, 116, -80, -18, -93, 30, -86, 96, -81, 25, 99, -121, -42, 22, -103, 107, -12, 39, 5, -52, -108, 105, 105, 109, 41, -104, 99, -73, -46, -98, 67, 80, -119, -11, -67, -18, -5, -79, 77, 39, 78, -42, -24, -97, -97, -87, 80, 10, -76, 71, 36, 50, -102, -71, 100, -78, -82, -10, 65, 83, 41, -101, 118, -128, -110, -121, -68, 24, 42, 74, 116, -40, 72, -104, 67, 10, 68, 25, -87, 41, -73, -35, 89, -38, -46, -7, -12, 39, 43, -71, 75, -71, -91, 78, -2, -22, -29, -4, -77, 120, 30, 30, 94, -82, 4, 99, 89, -61, 86, -120, -60, -65, -110, -71, -110, 19, -31, -72, -121, 46, 109, 62, -51, -33, -60, -59, -98, 9, 49, 117, 97, 33, -43, -99, 13, -49, 51, -119, 10, -76, -58, -62, 21, 68, -103, -54, 40, -73, 88, 9, -5, -90, -29, -48, 40, -25, -73, -66, -12, -42, -38, -68, -68, 124, -11, -108, 26, 45, 66, 112, 92, -8, 21, -48, 47, 101, 83, 71, -64, -77, -68, 93, -34, 67, 78, -70, -47, -46, -51, -60, -103, -103, -53, -63, -74, -107, -48, -67, 11, -15, 114, -60, 88, -105, -95, -37, 50, -109, -8, 110, 115, -20, -93, -100, -42, 46, 60, -15, -80, -87, -50, -82, 20, 92, -107, -74, -1, -86, 48, -124, -45, -122, -65, -48, 16, 64, -1, -88, -8, 89, -37, 109, -127, -128, 49, 62, -99, -92, 54, -125, 40, 1, -84, 43, -4, -8, -58, 10, 7, 27, 68, 108, -91, -59, -65, -103, -65, 109, -47, -20, 83, -10, 22, -105, 0, -53, 20, 52, -112, 42, -118, -112, -14, 71, 56, 91, 42, 36, 82, 68, -28, 64, -19, -83, 34, -36, 84, -112, -81, 32, -90, -36, -88, 98, -61, 104, -69, -40, 122, 79, 69, 30, -77, 17, 25, -15, -69, -93, -72, -120, -105, -14, 17, 94, 56, -70, 99, 77, 9, -122, 71, 16, 70, 100, -89, 20, 86, 1, -107, 55, -50, 95, -126, 69, -5, 2, -128, 4, -16, -62, -89, -115, 15, -64, 46, -107, 14, -76, -107, -88, -32, -33, 70, 33, 6, -70, 68, 35, 13, 96, 39, -30, 104, -55, 35, 95, -9, -35, 47, -73, 79, -114, 82, 10, -80, 46, -85, -82, 62, 83, -79, -1, 43, 84, -72, -23, 90, -81, -101, 126, -81, 35, 65, -107, -90, 25, -90, -49, -17, 38, 3, 85, -51, -17, 93, 43, -124, -103, 60, 91, 4, -89, 102, -17, -107, -93, -96, -45, -120, -95, 56, 111, 115, 10, -33, 66, 50, 44, 118, -101, -38, 16, -93, 23, -114, 95, -74, 113, 116, 4, -128, -40, -102, 12, 0, 113, -74, -47, -10, 60, -59, -68, 43, 26, 124, -92, -13, -69, 67, -81, 6, -16, -89, -67, -36, -59, 76, -26, 50, 10, -85, 35, -117, 102, -21, 88, -73, 83, -79, 65, 79, -108, -83, -123, 86, -11, -104, 25, 60, 36, 7, 123, 56, -47, 6, -54, -51, -86, -89, 7, -114, -104, -34, -108, -73, -105, -99, 10, 98, -128, 2, 28, 39, 123, 90, -124, -7, 29, -97, 42, -64, 99, -55, -23, 5, 107, 26, -9, 87, 94, -42, 50, -13, 15, -111, 46, 102, -67, 82, -3, 59, 85, -98, 31, -18, 49, 81, 32, 83, -28, 24, -64, -116, 36, 26, 30, 16, -21, -1, 70, 15, -104, -55, -27, -73, -1, 99, 73, 18, -75, 111, 113, 53, -55, 69, -122, -119, 45, -62, -37, -63, 121, -56, -68, -84, 64, 118, -61, -82, 107, 86, -23, 62, -86, -121, 77, 55, 120, -80, -24, -127, -9, 61, 62, -98, -87, -103, -69, 17, -108, -90, -40, 113, -118, 43, 58, 101, 60, 75, -59, 70, -24, -61, -74, 83, 115, -83, -18, -53, -92, 126, -96, 84, -54, 52, 18, -112, 74, -128, 33, 6, -51, -49, 20, 112, -99, 99, 18, -105, -15, -122, 45, -37, -27, 91, -87, -2, 50, 78, -74, 39, 38, 103, 41, -128, -80, 20, 17, 74, -98, -17, 37, 13, 9, -96, 100, 70, -44, -122, 81, -86, -3, 12, -116, -24, 57, -30, -63, -98, 39, 71, 17, -115, -68, 15, 22, -30, -59, -72, -46, -70, 9, 36, -37, -18, -5, 3, -49, 23, -69, 7, -63, -31, -111, -74, 95, -25, -18, -41, -127, 118, 86, 84, 120, -3, -127, 10, 57, -41, 17, 36, -70, -125, 28, -9, -76, 69, -83, 30, -96, 35, -73, -69, -62, 11, 108, 81, -88, 68, 2, -110, -114, -110, 17, 54, 80, -37, 77, -60, -85, 10, 114, -117, -92, 2, -127, -97, 10, -57, 46, -104, -59, 65, 117, -57, -123, -80, 65, -8, 34, -110, -54, 83, -111, 25, -54, 10, 89, -26, 43, -86, 19, 57, 0, -97, -40, 63, -14, 83, 64, -96, 46, 26, 0, -115, -42, 37, 59, 83, 121, -125, 90, 60, -25, 90, -106, -46, -126, -41, -51, -73, 125, 85, 61, 4, -115, \
91, 65, -102, 47, -109, 23, 93, 20, -94, -76, 74, 59, 69, -30, -110, -76, -114, 120, -48, -55, 62, -6, -93, 18, -71, -82, -100, 75, -90, 81, 113, -2, 5, -9, -18, 95, -11, 68, -58, -40, -50, -57, 6, 72, 60, -75, 45, 23, -15, 7, -61, 81, 98, -28, 3, -34, 44, 72, -4, -90, 10, -43, 110, -111, -17, -23, -82, 64, -101, 83, 98, 81, -118, -12, 62, 71, -122, 96, -128, 60, -16, 100, -19, -96, -86, -128, 103, -21, -98, 70, 121, -110, -113, -34, -69, -45, 68, 39, -64, 2, 38, 107, 61, 122, -27, -108, -58, -53, -26, 18, 34, -38, -14, 89, -61, 16, 7, -93, -19, -23, -26, 104, 119, 101, 89, 62, -63, 126, -69, 54, 103, -91, 54, -93, -17, -121, 83, -37, 58, 1, -90, -30, 34, -92, -41, -15, 35, -85, -19, -58, -98, -90, 79, 27, -10, 63, -55, 72, 100, -46, -52, -12, 74, -41, 15, -40, 29, 42, 20, 22, -49, 56, 113, -39, 65, 79, -74, 39, 44, 31, -18, -86, -61, -1, 63, -33, 77, -105, 125, -47, 65, -58, 99, -105, -44, -43, 102, 71, -84, -104, 94, 98, -72, 50, 63, -39, -107, -16, -10, -53, 14, 27, -45, -114, -43, -89, -56, -64, -105, 36, 23, 13, 23, 83, -107, 50, -60, -36, -63, 82, -68, 90, 102, 19, 12, -47, 30, -119, -57, -3, 68, -68, -103, 124, 71, 24, -124, -30, -41, -103, -44, -4, 86, -17, 84, -90, -125, -103, 47, -53, -36, -33, 18, -41, -5, -35, -128, 59, 48, -120, 121, -21, 16, 30, 47, -47, -97, 2, 94, -58, -15, 40, 87, 38, 27, -77, 10, 49, 69, -89, -14, 39, -9, 121, 34, 81, 99, 14, 10, -97, 118, -50, 54, -55, -49, 70, 45, -121, 116, -72, -91, -82, -59, 16, 66, 51, 22, 32, 110, 60, -82, 51, -121, -47, -66, 10, 70, 35, -115, -26, -41, -87, 42, -121, 74, -98, -8, -58, -78, -14, -64, 47, -112, 106, 34, 30, -9, -82, -93, 96, -59, 34, -122, -74, -47, -1, -15, 46, 18, 14, 31, 114, 19, -6, -66, -114, 12, 105, 57, 31, -31, -25, 20, 24, 59, -7, 54, 126, 8, -22, -48, 72, -112, 79, 92, 114, -60, -83, -80, -72, -72, -44, 16, 69, 52, -23, -36, 9, -17, -116, -54, 99, 67, -68, -85, 50, -23, 111, -102, 58, -29, -67, -61, -77, 11, -68, -101, 56, -102, 38, -66, 118, 92, 114, 118, 65, 35, 24, -58, 24, -25, -10, -120, -64, -45, -41, -79, 96, -100, 31, 105, -62, -5, 35, -20, -96, -51, 56, 83, -7, 81, 52, 15, 28, -115, 120, -68, -111, 105, 106, -68, -118, -86, -18, 101, -10, -85, -83, 43, -97, -41, -120, 86, 35, -76, 109, 114, -70, 90, -71, -89, 60, 15, -60, -97, -29, 106, 54, -105, -115, -97, -98, -114, 54, 87, 15, 9, -7, 4, 53, -46, -14, -83, 27, -57, -29, 14, 85, -4, 83, -101, 35, 97, -19, 62, 84, -75, -64, -18, -114, -108, 31, -58, -87, -119, 98, 90, -10, 13, -21, 5, 110, 121, -68, -22, 13, 56, -68, -32, -114, -73, 27, -43, -12, 70, 25, -79, -51, 47, -59, -20, -61, -39, 96, -76, 44, -14, -5, 47, 101, 97, -98, 102, -98, -71, 65, -50, -108, -116, -73, -118, -6, -1, 15, -81, 43, -37, 100, 95, -78, 64, -4, 58, 90, 10, 39, -9, -121, -26, 123, -46, 54, -32, -70, -10, -39, -112, -83, -83, 96, -24, -35, -116, 107, 5, -120, 68, -101, 113, -48, 60, -92, -117, 49, 33, -60, -43, 28, 38, 16, 11, 62, -51, 55, -79, -23, -87, 125, 19, -46, 62, 62, -85, -37, 56, 114, 46, -2, -98, -94, -4, 114, -39, 50, 24, -37, 77, 65, 102, -89, 112, -85, -106, 65, 104, 121, 84, 19, -27, 35, 87, -52, 45, 81, -56, -112, 36, -101, 49, 97, -67, -49, -42, 83, 31, 82, 27, 46, 42, 50, -35, -45, -54, 103, 33, 44, -27, 125, -73, -34, -42, -63, 60, 107, 65, 42, -62, -114, -10, 2, 116, -15, 47, 12, 13, -85, 78, -51, 79, 10, 75, 40, -2, 105, 114, 47, -76, 72, 7, 58, -49, 43, 28, 69, 96, -1, -113, -63, -87, 79, 92, -28, 49, -33, -25, -124, 40, -40, -79, 10, -77, 60, -4, 28, -115, -13, 32, 57, 105, -121, -67, -31, -63, 49, 13, -29, 12, 55, -2, 6, -19, 49, -97, -64, -63, 65, 49, 90, -33, -23, 82, 70, 3, 110, 11, 8, -70, -20, -48, -105, -77, -83, -3, -7, -128, 41, -118, -102, 86, -72, 99, -111, 35, 7, -8, -12, 118, 3, 60, 54, -28, -105, -22, 47, 21, 69, 123, -29, -2, 70, 42, -82, -69, -36, 22, 69, 73, -61, -82, -96, 49, -35, 115, 90, -15, 48, -55, -106, -125, 6, 106, -49, -126, 11, -27, -114, 62, 107, -24, 84, 43, 79, -75, -64, -29, -59, -50, 31, 58, 52, 37, 16, -58, 12, -65, -16, -78, 48, 90, -115, -45, 68, -77, -77, 120, 62, -53, -114, -105, 53, 7, -66, -94, 86, 69, 99, 17, 105, 9, -123, -94, 112, 7, -117, 5, 114, 41, 68, 48, -66, -121, -89, 14, 38, -109, -114, -122, 25, 17, -100, 56, 63, -112, 119, 73, 13, -79, 66, 46, 116, -107, -114, 23, 121, -19, -27, -32, 17, 41, -105, -1, 9, 37, 45, 88, 49, 106, -77, 39, -84, -87, -85, 49, -78, 63, -28, -49, -87, -128, 73, 11, 49, -73, 38, -54, -75, 13, 57, -66, 95, -52, 5, 18, -61, 65, 73, -73, -112, -81, -49, -3, -110, -42, 54, 103, -109, 96, -28, -124, 5, -70, -71, 33, 102, 79, 85, 6, 38, -14, -101, -37, 51, -114, -38, 123, 32, 65, -35, -44, -12, -62, -64, 108, 79, 109, 69, -6, 104, 61, 41, 6, 20, 104, 85, 52, -123, -121, 31, 26, 113, -19, 14, 32, 40, 47, 76, -22, -87, 74, 120, 7, -81, -111, -67, \
79, 52, -70, 7, -89, 31, 105, -73, -50, 123, -56, -39, 94, 80, 81, 2, 44, -61, 33, 95, -59, -9, 112, -101, 70, -41, -73, 63, 25, 79, 57, 9, -114, 124, 105, 75, 126, 97, 20, -76, -68, 13, -60, 12, -77, -34, -57, -97, -72, -32, -95, 126, 114, 36, 2, -115, 62, 103, 47, -39, 29, 110, 15, -81, -15, -128, -96, 75, -100, -120, -103, 58, 9, 46, -45, 54, 116, -106, -80, -14, 68, -62, 86, 78, -127, -117, -25, 95, 44, -74, -126, 123, -23, 3, -124, -40, 2, 88, 75, 39, 98, 11, 21, -27, 2, 59, -66, 124, -13, -56, -4, 65, 57, 125, 109, 86, -105, 30, -24, -41, -3, -2, 100, 97, -35, 119, -20, 38, 78, -118, 18, 48, -90, 34, 102, -60, -53, 105, -12, 81, -119, 23, 80, 42, -114, -110, -31, -116, -51, -45, 16, 3, 59, -85, 74, -99, -29, -72, 89, 64, -121, -57, 95, 30, 72, -81, -100, -48, -103, 46, -63, 26, -102, 8, -59, -96, -76, 105, 19, 76, -53, -107, -116, 50, -23, 54, 124, -32, -28, 67, 116, -85, -82, 19, -97, -83, 114, 56, -101, -70, -61, 114, -19, 32, -12, -104, 52, 113, 52, -95, -2, -39, -38, -96, 11, 36, -114, 88, -108, 45, -88, 118, -124, 25, 84, -12, -30, 44, 73, 17, 115, 22, 78, 24, -103, 86, -97, 70, -78, -78, 103, 34, -7, 64, 120, -32, -79, 58, 40, -38, 17, -34, 43, -8, -94, 81, -124, -83, 7, -11, -52, 41, 74, -9, 39, -62, -121, 57, -106, 121, -48, 1, 125, -3, 60, 5, 94, 104, 76, 57, 65, 57, -73, 19, 86, -77, 55, -104, -110, 63, -33, -87, 102, -60, 116, -37, 121, 87, 126, -60, 56, -51, -61, -94, -118, -118, -20, -31, 75, 101, -66, 19, -75, -19, 52, -15, -64, -97, 79, -53, 12, -121, -23, -67, -13, -85, 62, 43, -74, -37, -119, 4, 23, 118, 43, 57, -41, 31, 20, -44, -58, 26, -35, -26, 21, -19, 47, -117, 29, 103, 77, -113, 44, -48, 41, -77, 24, -112, -36, -11, -35, -24, 61, 59, 119, 12, -19, -29, -36, 80, 20, -49, 123, -80, -8, -120, -65, 85, -21, 66, 59, 105, -76, -16, -6, -93, 76, 42, -29, -122, -28, 110, 17, 45, -17, 32, 99, -89, -21, -12, -37, -3, -20, -46, 41, 4, 91, -66, -104, -38, 106, 2, -5, 8, 109, -60, -100, 93, 30, -21, -59, -43, 90, -119, 88, 56, 54, 61, 16, 13, 102, -48, 32, -32, -110, 110, 74, -75, 111, -49, -29, 46, -81, 34, -119, -76, -5, -124, -37, 5, -63, 109, 1, -117, 33, 49, -34, -112, -4, 84, 80, 10, 53, 32, 18, 0, 31, -52, -39, -50, -77, -35, -22, 81, 11, -92, 124, -58, -113, 110, -17, -69, 113, 27, -31, 25, -75, -63, 43, -114, 120, -17, 69, 8, -93, 54, -56, 125, 18, -115, -52, 31, -42, 31, 2, -96, -46, 78, -70, -2, -127, 83, 50, 95, 51, -57, 13, 116, 77, 49, -70, 69, 4, 42, 118, -33, 76, 93, -43, 85, -55, 108, 39, -88, 126, 18, 29, 63, 62, 39, 29, 73, 60, -113, -21, 53, -87, -121, -5, -123, -98, -126, 3, 40, 123, 6, -18, 114, -46, -27, 2, 72, -93, 24, 11, 6, 82, -16, 63, -75, -107, 82, 45, 46, -85, 18, 59, 108, -32, 98, 125, 40, -69, 22, -88, -49, 86, -14, 92, -25, 49, 94, 66, -107, 83, 83, 37, -34, 68, 58, -48, 10, 27, -59, 115, 30, -15, -97, 43, -38, -8, 78, -2, -68, 15, 105, -26, -60, -34, -128, 72, 45, 95, 14, 41, -120, 94, 51, 18, 113, 89, 109, -32, 69, 69, -39, 112, -122, 97, -3, -93, 88, -65, -38, -54, -40, 23, 17, 41, -118, 5, 52, 5, 46, -97, 98, -52, 41, -50, 43, -104, -116, 55, -38, 81, 110, 23, 101, 101, -124, -5, -80, -48, 34, 79, -119, -83, 20, 23, 116, 106, 110, -37, -51, 118, -103, 18, -128, 31, -96, -86, -4, -40, 112, -25, 112, 17, 54, 70, 54, -16, 53, -35, -37, 9, 124, 3, -57, 84, -81, 75, 16, -101, -33, 80, -18, -114, -15, -50, 58, -102, -4, -106, 101, -74, 88, 20, 98, -79, 19, -11, -41, -122, 91, -58, -99, 58, -86, -75, -87, 6, -66, -81, 33, -14, 67, -10, -128, 5, -105, -69, 72, -53, 71, -42, -107, 109, -75, 29, -127, 108, -80, 36, 108, -75, -66, 108, 26, 32, -85, -118, -26, 49, 126, 23, 90, -89, -12, -81, -50, -108, 26, -26, 63, 30, -105, 53, 116, 88, 90, -55, -61, 15, 83, 23, 103, -34, 54, -35, -23, -55, -66, -48, 61, -65, -1, -69, -36, 94, 118, 121, 62, -63, 17, -55, 124, 68, -41, -120, -60, 79, -70, -4, 61, -13, -82, 68, -118, -69, 7, -89, 19, -109, 53, 97, -24, 13, -62, -64, -125, -63, -31, 22, -82, 3, -46, -47, -93, -54, 9, 3, -45, 4, -45, -89, -46, -63, -60, 87, -29, -30, -64, -113, -42, -14, 35, 114, 20, -35, 58, -19, -14, -48, 49, 16, 56, -22, -49, 23, 101, -28, 23, -15, 81, -122, 109, -117, -57, -128, -89, 110, -51, -6, -21, 66, -102, -3, -84, -16, 86, -3, 60, 110, -103, -46, 25, -52, 25, -71, 85, -121, -116, 116, -103, 8, -69, 16, 65, -80, -77, -107, 81, 119, -65, 69, 121, -15, 7, -71, 85, -44, -17, 95, 37, 23, 83, 4, -84, 36, 56, 82, 11, 91, -28, 9, 9, 27, -80, -11, -21, 108, -96, -63, -25, 62, -37, -86, -65, -70, -77, -15, -112, -75, 69, 122, -98, 63, 47, -82, 110, 106, 34, 27, -17, -79, -25, -29, 40, 26, 50, -108, -68, 37, 14, 41, 34, -3, -97, -58, -59, -46, -118, 103, 52, -55, -32, -28, -67, -10, 97, -42, -47, -24, -90, -41, -57, -65, -119, -14, -83, 17, 6, -95, 125, 30, -66, 81, -92, -91, 6, 116, 49, -22, 42, \
22, -68, -98, -69, 109, 18, 48, 58, 65, 7, 25, 35, 68, 69, 83, 84, -40, -33, 8, 62, 27, 80, 80, -117, -63, 90, -83, -103, 121, 20, -96, -126, 122, 105, 78, 107, 46, -36, 43, 48, -93, -64, -104, 53, 83, 97, -64, -74, 55, 95, 126, 43, 36, -37, 36, 83, 124, -4, -20, 58, -73, -110, -9, 0, 25, 63, 25, -70, 98, 24, 68, 87, -100, -103, -120, -73, 49, 117, 17, -53, -57, -33, 125, 73, -40, 23, 0, -95, -123, -90, 87, -14, 70, -65, -29, 71, -25, -48, 0, -30, -88, -23, -12, -17, 1, 64, 100, 67, -57, 11, -22, 113, -112, -96, 96, -52, 52, -108, -17, -15, 29, 30, 118, 102, 93, 124, -8, -11, -4, 24, 11, 80, -3, -13, -89, -117, 69, 123, -59, -109, -112, -104, -76, 20, -121, -71, 28, 13, 63, 63, 126, 51, -93, 116, 67, 109, 39, 25, -86, -54, -21, 36, 114, -77, 112, -31, -112, -83, -88, -72, 16, 73, -58, -113, -97, 32, 31, 0, -95, -42, -71, -42, -96, 102, -33, -114, -66, -37, -91, -48, 68, -122, 94, 72, -62, -24, -120, -65, 60, 25, 90, -45, 1, -9, 111, -111, -98, 5, -97, -40, -127, -82, 33, 92, -97, 64, -104, -95, 87, -113, 26, 63, -21, -127, 62, 109, 68, 34, -79, -16, -73, 2, -42, 40, -79, -108, -97, 36, 34, 56, -27, -53, -28, -71, 124, 90, 98, 72, -39, -77, -56, 32, -14, -95, 62, -53, -3, 77, -77, -40, 89, 44, 105, -49, -102, -113, 85, -70, -65, 117, 123, 32, -86, -9, -101, 38, -99, -76, -22, -14, 73, 116, -52, -96, -14, -100, 48, -61, 32, -60, -104, -113, 76, -36, 89, 124, 21, -118, 33, -44, 56, -67, 13, -50, 94, -124, 120, -48, -38, -110, 114, -46, -62, -37, 51, -117, -73, 76, 2, -72, 10, -77, 50, 28, -1, 26, 63, 80, -10, 9, -46, -119, -128, -15, 71, -46, -18, 61, -114, 62, 111, 111, 17, 9, 26, -57, -79, 100, 25, 35, 36, -11, -9, 18, 76, -85, -109, -111, 113, 1, -93, 73, 85, -78, -39, 38, 43, -86, 97, -85, -104, 92, -33, 59, 85, 108, -1, -126, -101, 1, -50, 72, -124, 68, 124, 70, -126, -76, 116, 48, -16, -38, -85, 78, 110, -62, -42, 69, 59, 63, -31, -70, -81, -88, -82, -75, 126, -56, 91, -31, -114, 86, -7, -58, -81, 67, -74, -75, 64, 21, 23, -87, 74, 21, 35, 21, -126, 112, -26, 103, 92, -56, -120, -110, 73, 59, -62, 119, -20, -128, -109, -119, 34, 14, -79, -22, -11, -121, -64, -4, -127, 38, -17, -20, -94, -77, -41, -29, 78, -69, 33, 10, -52, -61, -49, -99, -61, 49, 74, -101, 78, 18, 72, 9, -98, 54, -52, -115, -104, 18, -108, -80, 80, 91, 105, -70, -65, -12, -20, -106, 118, -128, 33, 38, -59, 81, 51, 68, -29, 115, 55, -7, 57, 80, 2, 10, 75, -126, 18, -22, 55, 65, -33, -80, 48, -3, 21, 54, 8, -83, -80, 123, -61, -45, -7, -88, -119, 81, 23, 12, -31, 100, -2, -97, 89, -120, -1, -85, 124, -6, -50, -52, 68, 123, -11, 87, -26, -51, 6, 113, 92, -24, 2, 103, 24, -21, 112, 69, 63, 122, 75, -31, 100, 3, -81, 112, -54, -4, 14, -103, -108, 44, 8, -127, 13, -31, -70, 4, 11, 91, -71, 11, -51, 77, -60, -92, -50, -43, 65, -95, -57, -22, 51, -101, 124, 113, 107, 110, 112, 18, -5, 54, -56, -24, 70, -90, -23, -15, -127, -68, -76, -122, -120, -90, 65, 90, -28, -35, -46, -56, 38, 89, 93, -126, 39, 44, -21, 67, -94, -88, 0, -4, 3, -32, 102, 57, 29, 119, -97, 91, 50, 30, 20, 124, -47, -82, 41, 60, -81, 114, -59, 46, -98, -48, -49, -27, 104, 29, -22, 99, -123, -90, -12, 70, 118, -3, 47, 60, -40, 90, -6, -67, -108, 81, -45, -128, 84, 5, -86, 36, 94, 8, 5, 120, 81, 53, -65, -16, -81, 75, 74, 71, -84, -2, 45, 41, 84, -15, 52, 94, 115, 91, 38, 114, -33, -61, 70, -72, -102, 90, -96, 32, 111, 111, 52, 98, 84, -73, 7, 2, 108, 70, -114, 107, -120, -62, -120, -69, 18, -83, 65, -89, -14, 13, 73, -78, -117, -54, -36, 26, -126, 77, 76, -73, 82, 7, -65, -82, -110, 53, -76, 24, 77, -50, 35, -91, 104, -102, -6, 52, 113, 12, 43, 105, 6, 12, 69, 22, 67, -6, 33, -20, -89, -21, 124, -30, -66, -54, 18, -106, 37, -108, -38, -98, -31, 33, 36, -120, -51, -95, 103, 120, -84, 62, 73, -9, 103, 17, -12, 50, 60, -20, 93, -112, 80, 95, -78, -37, 50, -24, -33, -80, 55, 51, 25, 77, 80, -99, -121, -51, 100, 3, 36, -23, 4, 71, 75, -50, -83, -30, -116, 72, -119, 81, -113, -121, -96, 57, 9, -17, 104, 58, -32, 79, -36, 67, 40, 71, -30, -96, 44, 106, -32, -33, 69, 6, 78, -110, -2, -95, 67, 10, 32, 20, 114, 75, 92, 5, -34, 19, 31, 32, -91, 35, 21, -31, -52, 94, 113, 105, -47, -88, 45, 55, 114, -127, -16, -70, 57, 99, -39, -90, -119, -56, -56, -92, 56, -30, 104, 18, -19, 62, -101, -15, -118, 8, 123, 98, 36, 85, 12, -65, 48, 122, -45, 2, 25, -60, 89, -44, 39, -84, 121, 55, 34, -12, 103, -69, 65, -25, -65, 84, 55, -116, 70, 59, 30, -118, 107, 36, -84, 31, 117, 29, -92, -67, -109, 97, -112, 9, -42, 120, -99, 122, -72, 63, -11, 2, 86, -43, -36, 94, -34, 2, 118, -102, 15, -123, -117, 77, -124, 112, 24, -66, 57, 62, 96, 53, 108, 121, -31, -64, -107, -5, -70, -92, 3, 35, 114, -12, -80, -39, -21, 122, -23, -78, 79, -91, 17, 78, -87, 86, -26, -71, 44, 66, -90, -37, -49, -8, -61, -52, 38, 109, 67, -57, 67, -7, 69, 14, -71, 79, 123, -94, \
1, 29, 122, -14, 32, 69, 30, 114, 121, -112, 17, -89, 126, -92, 96, 114, -104, -54, 23, 28, -69, 124, 14, 77, -117, 0, 73, 20, -53, 91, -100, -126, -6, -19, -63, -106, 16, -102, 108, 91, -122, 120, -85, -100, 5, -10, 78, 24, 83, -125, 114, 66, 65, -76, -99, 103, 23, 18, -44, -48, -7, 117, -76, 50, 79, -88, -115, -6, -124, -113, 94, 14, -36, -17, -69, 52, 28, 47, -118, 12, 116, 93, -46, 16, -46, -68, 37, -116, 120, 15, 99, -79, 87, 95, -124, 2, -92, 17, -22, 120, 0, -70, -10, 13, -77, -112, -128, 86, 37, -11, -86, 9, -20, -126, -16, -90, 59, 18, 31, -121, -118, -10, -17, 37, 61, 78, 12, -52, -103, 57, 11, -37, -82, 13, 81, 92, 83, -79, -25, 84, 68, -100, 64, -75, 20, 105, 70, 115, 75, -31, 75, 95, 39, 118, 85, 104, -44, 40, 14, -84, -71, -109, 95, -7, -38, -115, 85, -27, 105, 7, -6, 52, -54, 79, -117, 99, 22, 62, 85, -105, -26, 12, -5, 88, 117, -72, -87, -50, 119, -104, 9, -100, -16, 2, 123, -72, 93, -112, 97, -98, -98, -98, -32, 117, 80, -40, -61, -8, 122, 101, 80, -119, -24, -27, -13, -89, -25, 103, -33, -20, -52, 48, -78, -101, -60, 80, -81, -5, -30, -107, 45, -93, 112, -64, -79, 8, 42, 75, 61, -21, -24, 74, -34, -40, 105, 10, -25, 51, 50, -103, 109, -60, -97, -75, 76, -107, -51, -15, 94, -109, -12, -84, -110, -118, -113, -74, 1, 109, 117, 17, -36, 2, -93, 102, -122, 109, -90, -79, 20, 92, -22, -63, -85, -61, 55, 28, -80, 36, -14, -53, 70, 92, 10, 6, 92, 59, -78, -4, -110, -114, 5, -60, 5, 0, -4, 113, 12, -55, 118, 62, -40, -28, 65, 8, -23, 118, -68, -83, 118, 122, 43, -37, 123, 119, 58, -119, 39, -74, -127, 85, -31, 46, -118, -68, 103, 28, -4, 40, 76, 35, -116, -114, 126, 78, -85, -8, -21, -16, -81, -80, 82, -97, -76, 107, -3, 26, -48, -34, -72, 115, -89, 32, 65, -24, -52, -92, 9, 33, 35, 112, 20, 49, -57, -98, 82, 67, 65, 15, -15, -91, 86, -63, 47, 43, -76, 39, -48, -61, -104, 28, 0, 60, 91, -88, 87, -86, 42, 54, 43, -94, -114, 36, 116, 69, 107, -37, -97, -121, 119, -99, 78, 93, -57, -120, 74, -91, -69, -115, -95, -79, 49, -64, 89, 35, -59, -93, -94, 30, 108, -27, 102, -39, 88, -80, -109, -77, 47, -112, -29, -8, -125, 61, 120, 5, 18, -104, -39, -113, -106, 92, -36, -79, 35, 100, -21, 44, -107, 117, -108, 77, -9, -31, -19, -123, -57, 94, 61, -81, -54, -104, -24, -32, 11, -67, 32, -28, -120, 52, -31, 34, -26, -66, 35, 77, -32, 18, -55, 79, 62, -32, -24, 72, 86, -26, -80, -128, -44, -102, -75, 118, 105, 123, 31, -116, 4, 80, -11, -81, -111, -65, 83, 26, 94, 22, -18, 93, 73, -48, 101, -121, 77, -17, -51, 33, 0, -35, 44, 7, 39, -110, 101, -100, 109, 116, 119, -75, 9, 84, -14, -115, 26, -1, 68, -70, 124, 100, -117, 124, 3, 103, 87, -101, 112, -40, -64, 84, 27, 47, 27, -43, 75, 89, -60, -2, -47, 87, 17, -124, 113, 42, -120, -98, -114, -89, -14, -82, -70, -126, -47, -19, -38, -50, -82, -93, 82, -33, 5, -56, 112, 56, 27, 56, -23, 45, 75, 72, -36, -108, 118, 77, 53, -91, -69, 64, 106, 71, 94, 5, 108, -118, -92, 5, -26, 112, 92, -22, -31, 87, -43, -125, 0, -38, 87, -48, 15, 112, -80, -16, -64, -109, -21, 123, -26, -78, 55, -20, -125, 58, 38, 14, 3, 94, -36, -59, 42, 119, 81, 3, -67, 30, 125, -125, -13, -35, -46, -112, -90, 63, -71, -25, -124, -98, -42, 57, 11, 45, -77, 91, -107, 29, -48, -5, -40, -56, -115, 52, 10, 102, -39, 94, 54, 63, 40, 89, 42, -64, -34, 83, 107, -43, -49, -71, -26, -1, -101, -53, 65, -23, 121, 76, -125, -116, 41, 16, 49, 47, -24, -88, -119, -70, 89, 100, 65, -98, -49, -122, -40, -4, -82, -99, -93, -111, 56, 57, -17, 5, 51, 38, -59, 95, -99, 31, 38, -60, -25, -38, 108, -30, -53, -2, 33, 5, -25, 58, 97, -41, -22, 33, 106, 31, 12, -70, 34, 68, 87, -93, 95, -82, 49, -114, 126, 19, 121, 80, 57, -95, -107, -29, -77, 81, 8, -94, 100, 62, 49, -78, -5, 80, 109, -124, 34, 118, 83, 117, 78, -103, 91, 13, -87, -96, 80, 44, 75, -44, 72, -119, -22, 52, -98, 8, -31, 55, -61, 45, 8, 96, 122, -28, 37, 56, -66, -60, -37, 62, 71, -34, 84, -80, -59, 112, 28, 77, 42, -63, -106, 116, 99, 91, -16, -85, 3, -8, 83, 115, -85, 25, 117, 99, -86, 93, -77, -62, -57, 5, -82, 18, 9, -50, 87, -16, 51, -117, 12, 50, -111, -56, -77, -3, 9, 67, 57, 66, 42, -48, 85, 109, -116, 77, 103, -105, 72, -12, -43, -83, 13, 100, 83, -82, -7, -47, -101, 6, -103, 70, -110, -100, -40, -22, 118, -39, 38, 28, -98, -97, 59, -42, 20, -78, 17, -44, -6, 57, -9, -104, 116, -70, -38, 88, -9, -125, -100, 63, 26, -72, 76, 99, -15, 115, 99, 82, -91, -121, -28, -76, -74, 83, 105, 57, -61, 112, 119, -56, -117, -118, 46, -40, -81, 97, -4, -119, -110, 110, 10, -59, 69, -40, -43, -105, 65, -24, -2, 13, 11, -86, -4, -16, 63, 25, 32, -43, -114, 55, -32, -93, -4, 93, -27, 119, -56, 13, 4, 97, -30, -5, 2, -41, 57, 58, 126, 28, -119, 19, -35, -119, 94, -122, 97, 51, 125, 98, 103, 1, -95, -108, 125, -18, -25, 52, -100, -27, 66, 105, -45, 69, -79, -108, -87, 1, 119, 118, -76, 96, 9, -127, 14, 28, -57, -97, 49, 92, 58, 54, 108, -20, \
67, -58, -27, 90, -116, -32, 97, -14, 33, -25, -115, -117, -5, -111, -78, -76, -70, -24, 99, 82, -127, 75, -55, 117, 26, 4, -84, -13, 58, 44, -117, -114, -55, 71, 49, 70, 26, -116, 52, -54, 15, -75, 54, 70, -118, 10, -103, -120, -68, -58, -112, 86, -116, -108, -82, -43, -120, 71, -58, -71, -107, 19, -69, -93, 80, -50, 70, 81, -86, -19, -53, -96, -47, 119, -32, -58, -57, 68, 29, 26, 87, 108, 112, 110, 96, 33, 2, -26, 114, 99, 63, 8, -33, -53, 75, 26, -41, -51, 35, -40, 76, -89, 94, 42, 121, 20, 9, -52, 68, -1, 124, 78, 89, 15, -54, -19, 66, 36, -117, -19, 38, -4, 119, -24, -7, -97, 43, 114, -19, -123, -100, 52, 95, 97, -54, 94, 78, -5, 32, -17, -103, -48, -9, -64, 125, -67, 89, 123, 11, -66, -66, -73, 37, -87, 77, 114, 52, 49, -43, 101, 70, 30, -65, -103, 84, -104, 118, -55, -71, -110, 12, 61, 77, -108, 52, 124, 68, -71, 119, -106, -12, -78, -101, 75, -40, -2, 92, 42, -1, 110, 15, 29, -37, 78, -110, -122, -109, -63, -98, 92, -101, -92, -119, -101, 4, 14, 107, 118, -82, 10, -34, 47, 51, -81, -25, 95, -110, -117, 19, 27, 49, -113, -103, 92, 2, -49, 126, 125, -32, -128, 106, 18, 50, -18, -13, -118, 98, 32, -101, -118, -49, 84, 102, -44, -94, -114, -33, 56, 64, 91, -29, -86, -122, 29, 112, -31, -97, -109, -27, 13, -34, 120, 101, 39, 105, -54, -99, -42, 3, -112, -25, -60, -59, -27, -103, 92, 37, 119, 121, -17, -125, -23, -45, 89, 58, 52, -100, 112, -84, 15, -46, 97, 42, -78, -16, 96, -70, -64, 120, 79, 86, -54, -65, 18, 62, -76, -83, 86, 77, 4, 22, -54, -56, -49, -115, -64, 35, -116, -117, 40, 34, -8, -49, -67, 7, 105, -1, -58, -42, -92, 75, -18, -22, -70, -27, -29, -84, -18, -57, -20, 89, 100, 1, -105, 20, -121, 13, -18, 63, -56, 36, -32, 36, -106, 76, 35, 109, -33, 69, -49, -36, 106, -46, 64, -8, 41, -12, -118, 0, 74, 36, 90, -70, 100, 50, -26, -92, -41, 15, -78, -42, 12, -30, 26, 33, -32, -62, -113, 23, 122, 90, -125, -102, -7, 75, 52, 114, 13, 102, -63, -102, -31, -21, 4, -7, -94, 35, 43, 102, -81, 47, 88, -71, -8, -11, -60, 60, 72, -71, 62, -95, 93, -5, 116, 43, 23, -105, 34, -16, 87, 103, 27, 53, -55, 91, -125, 126, -38, -85, 48, -32, -28, 76, -124, 57, 9, 33, -113, -63, -90, 100, 106, -112, 108, -128, -66, 61, 76, -55, -98, 62, 71, -106, -52, 81, -120, -122, -5, -63, -67, 105, -83, 14, 37, -66, -80, -108, -87, 70, 62, -40, -98, -4, 93, -44, 107, 103, -101, 43, 125, -50, 32, 59, -124, 73, 14, -9, 96, 65, -18, 42, 109, 0, 66, -67, 49, 55, -125, 122, -116, -71, -89, -45, 109, 53, -97, 62, 74, -111, 1, 91, -111, -122, 53, -18, 11, -17, 25, -109, 75, -35, 82, 18, -12, 84, 78, 123, 74, 89, -64, 99, -60, -26, -126, 124, 72, -56, 104, -3, 126, -40, 11, 121, 101, -123, 82, -105, -21, 49, -95, -40, 23, -95, 111, 23, 0, -110, 55, 24, 9, -34, -110, 4, 117, 100, 108, 107, -21, -96, 52, 105, -120, -102, 46, 61, 56, -52, -33, 6, 97, -54, -58, 109, -31, -58, -121, 9, 44, 3, -35, -23, -46, 21, 115, -111, 107, 52, -87, -67, -88, 83, -58, 58, -41, 38, 27, -90, 42, 83, 35, 29, 65, 126, -71, 101, -6, 96, 11, -50, -14, 54, 23, -43, -34, -119, 13, -45, -117, -82, 62, 91, -102, -49, -27, 28, 90, 17, 97, 14, -51, -23, 90, 22, -127, 107, 36, 44, -63, -61, 90, 107, 109, -35, -113, -92, -31, -19, 93, 16, 43, -36, -128, -72, 67, 7, 9, -10, -1, -74, 26, 69, 27, 59, -54, -128, 125, -66, 107, -19, 57, -38, 78, 122, 81, 56, -70, 99, -89, 110, 115, 118, -103, 76, -115, 23, -86, -20, -103, -53, 100, -127, -69, 82, 59, -4, -113, 91, 40, 51, 62, 25, 10, -56, 22, -127, -36, -98, -4, -100, 104, -1, 110, 6, 8, -128, -108, 65, -42, 12, 102, 50, 87, 15, 83, -103, -89, 108, 50, 72, -13, -25, 98, -83, -109, -23, 5, -12, 88, 66, 16, -17, 14, 80, 50, 75, 50, -110, -73, 47, 29, -95, 104, -11, -89, -28, 87, -2, 101, 30, -114, -8, 47, -118, 13, -27, 55, 24, 1, -108, 62, -111, 28, -121, -20, 36, -128, 27, 107, 37, 64, -35, 13, -18, 12, 125, 27, -119, 45, -78, -60, -114, 114, 107, -77, -36, -102, -45, 95, -32, 113, 22, 84, -75, -76, -29, -16, -2, 14, 47, 1, -27, 95, 93, -18, 92, 48, -117, -35, -70, 28, -50, 96, 112, -48, -46, -44, 70, -100, 45, -127, 37, -118, 124, 0, 88, 76, -98, -110, -111, -3, 88, 88, 67, -63, 7, -124, 93, -87, 39, 99, -44, -86, 26, -57, 113, -13, -42, 115, 119, -101, 108, 82, 116, -81, 75, 36, 100, 108, -43, 12, 30, 88, -12, 108, 55, -41, 120, 15, -94, -101, -79, 81, 123, -125, -31, 48, -25, 74, 57, -7, 9, 69, -107, 33, -84, -111, 22, -127, -98, -39, -47, -90, -123, 107, -7, -51, -53, -17, -82, 126, 50, -77, 87, -19, 24, -117, -128, -88, 63, 43, 12, -20, -28, 76, -105, -10, -104, -73, -19, 97, -51, -84, -98, -71, 106, -86, 120, 13, -51, -49, 73, 9, 62, -82, 37, 88, -66, -97, -92, 91, 53, -120, 40, -26, 115, 74, -51, -102, -37, 102, 15, 9, 7, -103, -61, -6, -26, 116, -62, 122, 112, 117, -72, -12, -79, 21, 68, -32, 76, 71, 27, -79, 1, -78, 87, -128, -67, -7, -20, 102, 52, 12, -39, 57, -8, -46, -23, 80, 98, -38, -45, 97, 116, 73, \
87, -105, 94, 24, -11, -89, 62, -47, 123, -73, 46, -103, -28, 92, 34, 54, 65, -14, 113, 68, -27, -29, -92, 118, 99, -13, 112, -45, -123, 49, 48, 48, -32, 0, 119, 31, -98, -87, -64, 46, 22, -63, 38, -23, -117, 103, 83, 124, 74, 10, 109, 86, 59, -82, 65, -24, 114, 44, 51, -6, 83, 0, 104, 100, -85, -9, -122, 80, -107, -50, 64, -32, 5, 75, -67, 101, -8, 32, 27, 3, -19, -83, 89, 74, -3, 44, 10, 47, -121, 114, 126, 64, 41, -98, 31, 30, 73, 81, 58, 37, 17, -95, -78, 110, -125, 32, -73, -121, 22, 69, -4, 95, 96, 85, 51, -8, -107, -38, 124, -98, 104, -114, 75, 52, 3, -91, 70, -47, 112, 7, 18, -3, -79, 29, -116, -109, 1, -103, 112, -21, 119, 113, 64, -81, -69, 37, 55, -26, 7, -10, -115, -48, -28, 26, -76, 97, 81, 86, 62, -1, 117, -44, 57, -84, 34, 78, -19, -74, 92, 22, -45, -42, 103, -79, 35, 48, -16, -120, -30, -128, -31, 99, -73, 96, -52, 109, -96, 80, -99, 22, 95, -31, 100, -87, 65, 14, -99, -52, -59, 2, 52, 43, 102, -88, -73, -50, 83, -45, 56, 12, -111, 31, -27, 27, 95, -42, 43, 72, 103, 106, -25, 86, 14, 116, -54, 29, 106, 5, 10, 118, 39, -83, -41, 61, -78, 11, -39, -106, 89, 20, -1, 72, 81, -4, -30, -65, -34, -16, -112, -46, 63, 108, 36, 43, 8, -36, 3, -113, -1, -98, 47, -101, -118, 7, -2, -40, 123, 5, 34, -52, 69, 63, 5, 125, 43, -24, 77, -60, 45, -99, -33, 67, 101, -62, 18, 65, -1, -24, -60, -76, -32, -42, 33, -71, 68, 6, 104, -59, -102, -33, -79, 105, -2, 72, 14, -12, 10, 86, -38, 104, 83, 90, -6, 28, 84, 9, 113, 18, 17, 82, -34, -73, 56, 60, -44, 25, -116, 103, -106, 9, -100, 58, -93, -109, -78, -92, -25, 123, -108, -105, 26, 61, 113, 61, -128, 21, -112, -117, -52, -47, 40, 52, -25, 68, -108, -55, 82, 35, 31, 66, 78, -3, 1, -116, 44, 66, -37, -48, 52, 89, -18, -103, 25, 18, 80, 83, 17, -121, 77, -7, 95, 27, 91, 35, -98, 11, 94, 81, -28, 37, 108, 23, 124, -81, -71, -84, 64, 70, 96, -75, -100, 47, 74, -78, -118, -118, 43, -75, 111, 46, -53, 32, 122, 13, -75, 104, 44, -3, 95, 61, -90, 94, 78, -28, 3, -36, 104, -36, -54, 103, -77, -8, 54, -37, -76, -55, -95, -38, 95, -20, -98, 13, 44, 93, 37, -126, 55, -48, 84, -94, 13, 74, 11, -53, -71, 126, 37, 80, -13, 75, -106, 53, 15, -107, -119, -53, -60, -55, -50, 101, -9, 21, 12, 23, 75, -49, 105, 98, -15, 99, 22, 71, 101, -72, -19, 4, -111, 99, -57, -98, -123, 125, -46, -87, -115, -116, 11, -126, 14, -81, 47, -82, -47, -29, 46, -29, 72, 104, 42, 79, 21, 96, 124, -109, 1, 99, 100, -21, 112, -115, 93, -17, 114, -56, -16, -113, -109, 28, -61, -101, 114, -27, 26, 75, -120, -53, -110, -11, 39, -23, -109, 99, -101, 88, 42, -122, 122, -25, -109, -38, -76, -84, 4, -2, -24, 114, 0, -44, 114, 74, 62, -45, -27, -24, 31, -52, -98, 102, 111, -40, 107, -13, 86, -37, -87, 41, 1, -55, 108, 42, -59, -49, -41, -108, -117, 45, -38, -44, -64, 105, 8, 76, -113, -58, 61, 36, 4, -118, -48, 8, 122, 74, 77, 111, -108, 11, -59, 95, -96, -18, -114, 69, 106, 26, -24, 110, 75, 73, 30, 69, -86, 76, 24, -104, 53, 124, 52, 47, 98, 116, 59, 4, -28, -52, 80, -114, 111, -72, 105, -61, -36, -106, 51, -27, 54, -41, 51, -106, -95, 97, -60, -123, -39, -78, -74, 73, 76, -125, -128, -25, 2, -74, -109, -105, -4, 57, -36, -19, -20, -48, -112, 82, -10, 70, -62, 102, -99, -9, -47, -84, -43, -8, 124, 27, -116, -121, 75, 61, 110, 63, -64, 20, -75, 12, -72, -72, 107, 42, -27, -41, 57, 114, -96, 71, -119, -70, 64, -31, -85, -8, -10, 42, -94, -52, -72, -8, -81, -31, -40, -53, -26, -113, 116, 56, -93, 96, -6, -48, -45, -112, 50, -50, -127, -73, -77, -59, 121, -126, 89, 113, -114, -91, -34, -4, -12, 45, 71, -45, -6, -120, -28, 41, -4, -77, -113, -72, -101, 73, -108, -48, 25, -7, -82, -21, 90, -25, 4, -85, -127, 26, 108, -114, -17, -49, -64, 78, -64, 74, 103, 33, -61, -62, 106, 107, -18, -80, -83, -12, -123, -10, 44, -42, -49, -49, 59, -17, 85, -79, 55, -51, -123, -84, 8, -56, 99, 52, -100, -121, -73, 92, 59, -24, 26, 79, 92, -61, -100, 44, 38, -108, -118, 60, -93, -119, 79, -36, 117, -5, 46, 41, 97, 69, 36, -77, -109, -74, -23, -90, -29, 7, 3, -48, -62, 20, 71, 2, 99, -70, 89, 107, 96, 109, 111, -16, -62, -16, -18, -97, 109, 103, 5, 68, -75, -119, -93, -24, 49, -95, 46, 103, 89, 89, 94, -43, 9, -113, 43, -42, -103, 104, 123, -51, 61, -4, -75, -34, -56, -76, 24, 98, -121, -62, 31, -100, -10, -25, 81, -43, 103, -2, -12, -73, 111, 60, -99, 19, -2, -91, -59, 32, -54, 61, -65, -52, -51, 117, -105, -122, -72, -20, -105, 17, -83, -27, -122, -95, 102, -104, 2, 45, -74, -1, 37, 52, 116, 11, 22, 0, -47, -5, 74, 90, 115, -48, -11, 83, 42, 30, 62, -107, 77, 65, -128, 108, 102, 107, 96, 124, 92, 70, 99, -115, 98, -119, -118, -26, 51, -115, 119, -126, -65, -52, -14, 116, -127, 96, -15, 39, 53, -109, -72, -33, 43, 70, -38, 112, 116, 30, -24, -117, -3, -109, -57, 30, -108, -86, 103, 71, 84, 106, 107, -126, -89, -30, 11, 84, -84, -32, 70, 26, -78, -128, 126, 32, 38, 71, 110, -65, -25, 22, 10, -62, 33, -75, \
-125, 44, 31, -2, -102, -77, -69, -122, 66, 92, 82, -119, -102, -45, -66, -122, 92, -88, 48, -61, 22, 17, 64, -57, 79, 69, -5, 44, 74, -109, -34, -32, -66, 84, -103, -53, -75, 118, 104, -2, -80, 59, 120, 94, -48, -100, -61, -11, 16, 25, -126, -104, -30, -26, -76, -34, 64, -118, -42, 1, -57, 29, 26, 103, -42, 57, 53, -62, -64, -13, -86, -9, 53, 50, -121, 92, -40, 87, 53, 76, 71, 123, 100, 118, -2, -119, -76, 66, 26, -86, 51, 54, 74, 15, 119, -63, -114, 35, 66, 68, -60, 8, 93, -35, -87, 59, 66, -90, -84, 83, -67, -62, -124, -7, -63, -15, 71, 26, 121, -42, 104, -37, -92, 61, -15, 5, -116, -34, -33, -35, 22, 19, 98, -37, 115, 109, 5, -7, -30, -48, 51, 28, 101, 72, -88, -52, 69, 28, 81, -28, -101, 12, -99, 77, -23, 64, 23, -57, 48, 122, -70, -110, 117, -17, 124, 70, -123, 37, -106, -64, -88, -61, -102, 117, 1, 35, -79, 7, 24, 14, -125, 68, 100, -28, -60, -62, -113, 24, 99, -90, -36, -9, 116, -51, -61, 3, -58, 56, -54, 46, -34, 12, -83, -25, -56, 56, -39, -27, 96, -109, 111, -72, -17, 103, -104, -93, -37, 22, -11, -25, -26, -23, 40, -23, -58, -84, -110, 87, -70, 108, -64, -42, 8, 14, -114, 96, -77, -81, 94, -118, -52, 32, 44, 69, 25, 123, -103, 108, 75, -94, 64, -37, 29, 46, -69, 65, 22, -38, 14, 50, 13, -4, -93, 12, -12, -98, 63, 54, 125, -122, -106, 36, -96, -108, 7, 34, 47, -61, -57, 4, -58, 44, -59, 21, 45, -30, -99, -62, 31, -72, -84, -1, 50, -28, -92, -20, 121, 60, 2, 75, 105, 101, 39, -91, -82, 124, -61, -123, -65, -77, -72, 74, 124, 87, 9, -14, 62, 1, -40, -22, 22, 29, 10, -67, 18, 89, -122, -25, -124, 116, 45, 123, -54, -74, -46, 115, -89, 24, 22, 113, -61, 32, 95, -68, 42, -45, 103, -126, 18, -97, -102, -11, -18, -90, 69, -122, -68, 94, -68, -12, -6, 10, -17, -122, 86, 126, 3, 61, -15, 45, 16, 33, 76, -72, 3, 100, -41, -95, -29, -9, -126, -104, -12, -98, -110, -79, 94, 109, -98, 102, -49, 122, 119, 123, 58, 100, 65, 8, -124, 117, -89, -81, -120, 61, 109, -99, 105, -125, -10, 98, 15, -16, 12, 23, -113, -16, -124, -118, 23, -99, -43, -127, 33, 41, -86, -23, -48, 64, 2, -52, -127, -36, 80, -58, 114, -77, 45, 55, -103, 19, 42, -56, -108, 107, -102, 117, -118, 71, -94, -74, -54, -84, 8, 98, 24, -98, -53, 18, -28, 56, -84, -42, -31, -49, 0, 65, -92, -107, 6, 39, 54, 107, 108, 80, -80, 92, 42, 63, -83, 43, -126, 48, 82, -64, 22, 58, 82, 108, 107, 43, -35, 16, -92, -51, 104, -83, -96, 32, -93, 49, -107, -51, 121, 18, -78, 38, -98, -82, -81, 22, -3, -93, 77, -37, 69, 73, -60, -7, -80, -47, 44, 16, -108, -50, 22, -44, -87, 70, -75, -60, 118, 10, -97, -60, 30, -84, 117, 2, 126, 115, -49, -86, 121, 125, -26, -5, -48, 120, -110, -123, -62, 97, 65, 39, 9, 64, -3, 108, 2, 100, 102, -50, 72, -37, -125, -41, -126, -22, -71, -52, 90, -51, -100, 0, -20, 82, -73, 37, -4, 32, 63, -87, -105, -105, -72, 59, 116, -70, -58, 90, 47, -41, -87, 14, -15, -14, -67, 68, -20, -42, 15, -103, 96, 85, 57, -74, -75, -58, -25, -92, 86, 19, 68, 77, -61, 60, 61, -103, 5, -91, -112, -20, -35, -111, -21, -127, 22, 126, -117, 80, -94, 8, -65, -88, -11, 93, -43, 105, 45, -83, -84, 106, 43, 57, -70, 76, -14, 109, -78, 124, -60, 11, 110, -62, -50, -22, -39, 78, -99, -59, 36, 90, -7, 98, 12, -120, 122, 110, 77, -11, -128, -31, -127, -94, -77, -57, -55, -48, 14, -121, -44, -75, -34, 32, -48, 4, 6, -92, -41, -82, 92, -4, 94, 34, 67, 9, 86, 8, -20, 50, 101, 22, 53, 50, 1, -122, -27, -78, -17, 99, 58, -4, 38, -79, -124, -71, 109, -51, 71, -1, 84, 95, -97, -47, 17, -101, -1, -23, -86, -105, 122, -5, 105, 106, -64, -9, 84, 32, -23, 97, 33, -21, 0, -82, -124, 13, -10, 31, -97, -28, 4, 41, -41, 106, -106, 101, -17, -66, 32, -104, 44, -54, -118, 108, -109, -69, 5, -109, -112, 104, -79, -113, -23, -71, -56, -30, -102, 64, 14, 114, 37, 33, -4, 88, -5, 23, -99, 62, 6, -56, -25, 84, 100, -58, 61, -93, -6, 103, -116, 60, -27, 53, -4, -54, 9, 98, -30, 85, 11, 61, -64, 15, -60, 106, 80, -75, -61, 21, 69, 6, 89, -37, 103, -122, 75, 103, 98, -110, 67, -50, -15, -112, 45, -62, 56, 47, 22, 123, -66, 114, -34, -76, 90, 13, 119, -124, 103, -48, 13, -9, -111, -126, 68, 28, 15, 82, 43, -94, 111, -70, 74, -15, 95, -101, 36, -12, 28, 74, 30, -59, 46, -54, -3, 67, -48, -32, -51, -52, 8, -5, 4, -28, -3, 5, -28, 29, 98, 59, -47, -126, -9, 89, 6, 22, 73, -68, 101, 47, -82, -68, -49, -95, -120, 83, -62, -16, 2, -47, 64, 62, 20, -35, -61, -99, 36, 78, -95, 36, -86, -85, -41, 32, 96, -44, 68, -111, 87, 120, 123, 77, 75, -8, 100, -70, 40, 67, 2, 40, 14, -10, 121, -37, 35, -34, -116, -8, -42, -21, 94, -54, 44, 46, -55, 76, 99, -8, -69, 31, -27, 112, 59, 56, -32, 63, -91, 43, -51, -61, -17, 20, -41, -37, 77, 10, 62, 58, 66, 115, -72, -85, -116, -43, 94, -101, 75, -115, -108, -40, -59, 124, 121, 113, 89, 70, 38, 6, -88, -93, 112, -31, 31, -93, 79, -120, -28, -16, -35, -27, 26, -6, 95, 99, 95, 79, -46, 89, -50, -117, -76, 9, -34, 78, -30, -102, \
61, 7, -103, 77, -44, 117, -81, -120, 54, -43, 103, 30, -113, -45, -100, 109, 104, -96, 54, -5, 4, -53, -124, 112, 45, -120, 77, 98, 89, 68, 3, 90, -92, -102, 45, -60, 6, -12, 106, -78, -38, -105, 95, 3, -2, -107, 88, 64, 87, 58, 21, 101, 95, 20, -62, -50, 126, -108, 114, -48, 23, 71, -119, -84, -125, -22, 11, -36, -3, 57, -54, 92, 125, 25, -20, 83, 37, -127, 110, -108, 124, -123, 102, -107, 81, -32, -78, -48, 58, -106, -72, -84, -102, -78, 121, 120, -100, 1, 126, -116, 7, 41, -62, -65, 92, 99, 20, 56, 48, 97, 19, 26, 68, -44, 88, -22, -87, -109, -112, 63, 43, -111, -108, -103, -84, 126, -22, 9, 79, 27, 89, -50, 84, -91, 51, 66, -126, -80, 39, -43, 83, 82, -60, 58, -92, 22, -119, 6, 12, -106, 105, -23, -24, -33, -68, -82, -17, 39, 84, 45, -106, -45, 62, -51, 25, 102, -28, -67, -49, -17, -44, 5, 7, -122, 36, 31, 56, 73, -42, -46, 89, 69, -76, 18, 71, 63, -125, 114, -109, 90, -123, 13, 1, -53, -70, -48, -4, -108, 38, -1, 112, -74, 45, 14, 94, 53, 34, 5, -67, -18, 28, -100, 74, -101, 56, -13, 57, -47, -125, 121, -78, 110, -107, -38, -108, 70, 52, 24, 68, -99, 79, 10, -95, 73, 49, -12, -77, -103, 1, -27, -8, 85, -66, -113, 110, -102, 103, 4, -74, 1, -82, 61, -107, -7, 9, -82, 52, 95, 38, -1, 95, -71, -99, 32, -94, -47, 23, -122, 57, 70, -31, -10, -25, 8, -59, 31, -96, 2, -124, 88, -98, 11, -25, -80, 72, -32, 92, -67, 82, -64, -26, -17, 3, 55, 81, -37, 70, 70, -105, -49, -118, -16, -114, 39, -36, -126, 11, 111, -20, 4, 104, -12, 75, 29, -69, -51, -8, -65, -83, -64, 95, -90, 80, -121, -15, -100, -63, -39, -18, -39, 90, -29, 70, -5, -11, -92, -81, 64, -67, -83, -74, -10, 38, 5, 90, 67, 33, -19, -69, -120, -83, 107, -41, -72, 22, -20, 85, 46, -59, 104, -50, 90, -10, -54, 34, 35, 125, -97, -57, -84, -41, 44, 115, 36, -109, 122, -86, 24, 122, 117, -39, -85, 86, 5, -27, -111, 16, -70, -114, -11, 50, -106, -20, -58, 32, -107, 79, 79, 2, 63, -102, 119, 109, 35, 110, 22, -88, -39, -28, 41, -21, 44, 17, -37, -116, -17, -112, 125, -103, 55, -31, -74, 106, 11, -41, -123, 16, 70, -81, -82, 0, 60, -100, -104, -96, -20, -119, 5, -77, 82, -119, 123, 99, -10, 110, 14, 95, -71, 113, 73, 77, 54, -92, 117, -23, 26, 13, 43, -60, -44, -102, -101, 115, 36, 44, -118, 3, 123, 118, -112, 110, -88, 66, 67, -93, 51, 86, -114, -70, -55, -109, 15, -18, 68, -93, 62, 126, 1, 18, 87, -1, -81, 109, -69, -76, 48, -34, 90, -31, 34, 55, -57, -123, 60, -94, 37, -44, -82, -55, 26, 92, -78, -57, 126, 10, 91, -47, 9, -107, -62, -116, -53, -119, -63, -56, 76, 48, -60, 53, -122, -92, -5, 103, 52, -59, -53, 63, 121, 13, 84, 51, 91, -54, 116, -92, 80, -30, 114, -122, 48, 94, 41, -121, -67, 1, 42, -29, 37, 89, 56, 35, 90, -58, 101, 5, -49, 111, 68, 71, 22, 61, -62, -35, -83, -62, 100, -48, -29, -111, 56, 106, 7, 55, 87, -100, -11, -81, 26, -110, 7, 123, 59, -45, 17, 9, 40, 13, 41, -25, 93, -37, -103, 27, 106, 83, 91, 104, -112, -35, 99, 36, -57, 61, -118, 79, 110, -56, -36, -33, -63, 81, -4, -6, 4, 34, 126, -3, 74, 5, 62, 108, 2, -42, -108, -20, -50, 98, 124, -123, -34, 92, -113, 48, 39, -88, -109, -108, -127, -26, 58, 70, 110, 85, 44, 4, 54, -114, -29, 51, 96, 60, -93, 66, 9, -17, 56, -39, 27, 75, -48, 121, -34, -4, -41, -67, -126, 73, -116, 104, 9, -121, -117, -121, 87, 79, 65, -50, 72, 46, 35, -91, -67, 28, 46, 75, 58, -88, -16, -127, 60, -26, 41, 93, -82, 58, -17, 47, -62, -29, 22, 79, 114, -83, 91, -88, -51, 6, 102, 39, -110, 105, -84, 104, 54, 119, 123, -120, 104, 82, -14, 69, -110, -5, -25, 117, -53, 43, -47, -86, 122, -100, -22, -111, 57, -114, -103, -23, 105, -14, -51, 119, -21, 27, -25, 53, 82, -81, -54, 21, 83, 29, 113, -52, 46, -72, 50, 28, 110, -107, 37, -120, -17, -66, 27, -37, 114, -71, 22, 114, -13, 70, 16, 40, -20, -84, -104, -66, -127, 34, -67, 64, -108, 18, 41, -117, -93, -76, -93, 59, -85, 40, 99, -35, -93, 116, 43, 90, -47, 3, 101, -34, 111, -115, -80, 67, 120, 30, 18, 51, -122, -109, 59, 71, -56, -35, 7, -55, 113, -20, 17, -109, 123, -128, -123, 53, -121, -91, -127, -71, 90, -90, 105, -91, -68, -108, -87, 106, -33, -65, -105, 65, 48, -112, -67, 68, -119, 17, -69, 1, 117, -31, 93, -52, -9, 53, -125, 7, -86, 67, 114, 1, 46, -113, 23, -23, 89, -86, 120, -4, 75, -5, -28, 110, -44, 49, 15, 18, -92, -103, -4, -62, 96, -98, -9, -43, 116, 23, 98, -95, 76, 20, -3, 92, 89, -114, -70, 108, -80, 27, 40, 21, 11, -118, -54, 41, 32, 15, -83, -75, -35, 98, 61, 3, -52, 53, 90, -8, -46, 109, -56, -17, -39, -124, -27, 66, -1, -19, 16, 44, -54, -48, 88, 117, 55, -4, 55, -87, -116, 0, 65, 2, -79, -25, 92, -125, -81, 70, -82, -80, 35, -99, -75, -101, 117, 93, 89, -93, -104, 39, 2, 43, 82, 11, 71, -38, 10, -31, -96, 108, -66, -124, 108, 78, -32, -118, 118, -90, 66, 111, -62, -3, -80, 124, 114, -76, -22, 68, 42, -41, 90, -11, -101, -44, -107, -76, 104, 18, 51, -35, -44, -44, 59, 11, 44, 19, 93, 88, -56, 76, -92, -75, -111, 103, -75, \
-81, -75, -112, 107, -63, -17, 17, -43, -28, -45, -79, -66, 41, 103, -80, 100, 24, 36, 57, -57, -84, -14, 93, -101, 85, 29, 95, -41, 56, -39, -3, -9, -29, 102, -41, -56, -116, -4, 1, -117, 58, -91, -61, 77, 72, 95, 67, 46, 57, 40, -33, 80, 60, -51, 18, 49, 66, 53, -76, -112, 10, -127, -3, 65, -123, 82, 122, -112, -25, -79, -77, -97, -123, 96, -41, -97, 100, 40, -90, -122, -74, 124, 97, -52, 51, -69, 13, 86, 20, -23, 70, -23, 3, 61, -51, 102, 97, 10, 122, -115, 62, -111, -16, 92, -80, 66, 51, -115, 27, 123, -88, -71, 94, 13, 59, 50, 119, -89, 63, -101, -23, 63, -78, 0, -67, 48, 27, 24, 79, 52, -16, -30, 13, 116, 118, 115, -94, -35, -121, -23, -24, -105, -126, 39, 71, 109, 57, 73, 113, -111, -28, 19, 103, 90, -110, -92, 99, -117, -79, -125, 58, 119, -11, 68, 18, 31, 45, -38, 91, 109, 78, -68, -79, 37, -22, 18, 66, 13, 23, 57, -102, 51, -120, -109, -77, 12, 52, -41, 9, -119, -127, -117, 3, 28, -128, -60, -111, -29, 85, -61, 20, 7, -50, -47, -23, 122, -78, 82, -94, -71, 76, -34, 49, 51, 92, -26, 16, -117, -70, 102, -120, 108, -65, 24, 88, -29, -122, -128, 53, -35, -114, 53, 35, 67, -121, -74, -27, -113, 82, 79, 8, 36, -107, 53, 69, 88, -2, -106, -117, -117, 119, -122, -125, 70, -81, 100, 94, -85, 70, -95, 18, -14, 78, 85, -96, -96, -98, -98, -76, -27, 26, -9, -100, -75, -101, -2, -51, 119, 35, 107, 7, 106, 105, 36, 93, -39, -17, 66, -125, 88, -40, 13, 37, 27, -86, 58, -6, -107, 124, 30, 113, 115, -92, 11, -107, 81, 94, 37, -34, 37, 70, 108, -56, -94, -93, 68, -122, 23, -87, -35, -14, -109, -27, -78, -20, -8, 17, -116, 23, 81, 33, 90, 8, 13, 88, -49, -68, -21, 115, -52, 73, -58, -100, 57, -122, 88, -17, 8, -46, 77, -10, 59, 113, 65, 78, 77, 44, 94, 44, -83, 9, 54, -46, -6, -117, 114, 42, -67, -60, -10, -28, -70, -53, -60, -82, 86, -118, -104, 75, -112, -64, 26, -9, -62, -19, 13, 31, 58, -110, 43, 24, -44, 5, -92, 47, -29, 6, -75, 89, 78, -43, -33, -54, -57, -75, -17, 46, -103, 55, 107, -2, 5, -124, -92, -89, -70, 10, 61, 30, 109, 96, 117, 69, 7, -9, -32, -42, -74, -45, -8, -44, -127, -93, 81, 30, -38, 119, 43, -112, -110, 42, -83, -31, 115, 98, -73, -31, -63, -34, -107, -123, 60, -124, 25, 97, 95, 42, 42, -70, 62, -59, 54, -36, -40, 118, -102, 85, 0, 92, 10, 32, -92, -47, 53, -58, -55, -102, 25, 116, -59, -78, 1, -120, -79, 77, 71, -1, 118, 48, 99, -45, 101, 18, -91, 98, -103, -108, 108, -45, -108, 51, 11, 8, 86, -44, -35, 115, -19, 42, -65, 35, 76, -26, 78, -46, 24, -65, -42, -17, -45, -110, -70, -119, -90, 16, -2, 85, 64, 33, -111, -123, 122, 64, -93, -79, 50, -36, -111, -33, -101, 39, 26, -65, 38, -66, -61, 87, -23, -124, -72, 35, -2, 48, 29, 105, 19, -126, 101, -35, 104, -6, -95, 80, 126, 60, -128, 7, -111, 88, -63, 104, -9, -62, -102, 76, -103, -106, -118, -101, -106, 125, -80, -84, 120, 49, -2, 93, 76, -72, 90, 48, 26, -127, 21, 16, -61, -37, 12, -2, 126, 2, 96, 107, -69, -56, 76, 125, 60, 76, -109, -114, -102, 12, 29, 27, -89, -16, 120, 105, -99, 3, 32, 32, -112, 107, -87, -44, -68, 30, 17, -105, -69, 44, 22, -6, -8, 117, 55, -109, -24, -96, -18, 99, -40, -96, 71, 108, 80, 7, 0, -103, -22, 25, -99, -36, 110, 45, 41, -61, 95, -4, 53, 1, -121, -36, -34, -6, -74, -82, 126, -33, 94, -56, 1, 68, -67, 28, -41, 98, 53, -7, -128, -84, 12, -116, -26, 102, 98, 24, -22, -82, 65, 123, -56, -118, 76, -12, 80, -68, 92, 96, -7, 53, -122, 120, -36, 28, 100, -44, 85, -49, 21, 103, -75, -59, -13, 24, 97, 125, 86, -99, 80, 39, -39, -106, 54, -118, 70, 88, -68, -64, 27, 107, 56, -104, -111, -20, -89, -70, 3, 85, 122, -82, -102, 0, 7, -48, 36, -32, 12, -71, 4, 39, -93, -66, -45, 120, -12, -3, -107, 77, -120, 116, -17, -105, -92, -93, 125, -62, 118, 95, -57, 116, 106, -16, 95, 103, -16, -106, 101, 94, 19, -68, 35, 108, 19, 119, 124, -46, 95, 28, -122, 65, 22, 29, 73, 36, -52, -74, 6, 56, -45, -78, 120, -4, 42, 121, 114, 103, 93, -44, -49, -8, -45, -81, 48, 13, -56, -101, 30, -72, -72, -6, -45, -84, 56, 33, -82, -52, -46, 15, 61, -53, -23, 84, -101, 124, 26, 35, 67, 126, -86, -65, 40, -77, 14, 102, 68, -79, 113, -19, -107, 73, 109, 120, 97, 94, -24, 111, -29, -8, -86, -18, -24, 51, 75, -58, 86, -128, -117, -46, 95, 95, 121, -40, -19, -51, -50, 97, 63, 29, 19, 124, -84, 50, -82, -86, 2, -61, 22, 93, 13, 106, 18, 34, 120, 79, -29, -7, -103, -94, 94, 63, 109, 116, -3, 17, -22, 28, -119, 26, 95, -27, -126, 54, -109, -62, 6, -19, -83, -63, -29, 91, -121, -12, 66, -38, -76, 0, 28, 111, -44, -127, 76, 103, 17, -60, -116, 48, 66, 61, -3, -24, 67, -98, -124, 100, -72, 12, -106, 46, 97, -40, -93, 114, -106, 28, 77, 64, -98, 68, 116, -99, -50, -59, 93, -22, -71, -44, 83, 97, 29, 124, -79, -16, 61, -114, 86, -50, -121, 42, 118, 83, 93, 100, -33, 108, 91, -36, -44, 66, 60, 108, 19, 59, 14, -13, -90, -88, 77, -35, 99, 125, -108, -60, -69, 53, -25, -35, 43, -77, -104, -28, -57, -29, -87, -25, 5, -43, 54, -127, -50, -76, 83, \
59, -61, -102, -122, 57, 25, 54, -16, 27, 70, -105, 50, -86, 49, 100, -94, 111, -39, -39, -42, -20, -126, -20, 55, -41, -94, 86, -53, 108, -61, -54, -49, 66, 18, 97, -76, 60, 1, -30, -82, -71, -52, -26, -27, 29, -15, 110, 64, 11, 46, 99, -3, -20, 69, -12, -96, -122, 42, -48, 72, -17, -107, 2, 91, -4, 77, -24, -123, -123, 88, 122, 119, -127, 52, 73, 11, 34, -8, -59, -17, -99, 68, -100, -42, 8, 119, -20, 109, -108, 45, 104, -89, 110, -95, 82, 119, -65, 76, 75, -58, -91, 105, -128, 26, 59, 77, 77, 118, 69, 22, -109, -62, -102, 95, 119, -113, -54, 87, -84, -8, -71, 7, 65, -29, 82, -93, 69, 75, 78, -22, 93, 14, -27, -63, -112, -90, -49, -39, -111, 56, 13, -45, -105, 119, 3, 87, -14, 46, 61, -103, -99, 13, -75, 75, 120, 114, 96, 9, 93, 96, 29, -74, -78, -66, 8, -55, 12, 60, -127, -32, -61, 38, -118, 119, -128, -32, 121, -49, -111, 104, -8, 7, 40, 15, 23, -83, 107, -70, -4, 81, -90, -59, -45, 52, -59, 109, 125, 101, -82, 11, 33, -46, -22, 23, 80, 19, 30, 116, 117, 0, -56, 53, -93, -111, -119, 68, 25, -76, 65, 50, -31, 6, -62, -35, -47, -127, 12, 109, -112, -15, 60, 90, 18, -39, 12, -127, 11, 3, 29, -64, 81, -49, -115, -32, 61, -58, -26, 78, 14, 76, 72, 25, 0, 26, 5, 111, -66, -78, -15, -59, 122, 18, -14, -3, 106, 46, 118, 44, 82, 39, 6, -112, 118, -41, -24, -97, -6, 97, -81, 25, -1, 50, -96, -110, -92, 106, 34, 88, -99, -6, 55, -38, -48, -38, 95, -36, -94, -40, -8, 44, 120, -39, -7, -115, -106, 70, -18, 126, -92, -49, -112, 46, 46, 105, -68, -128, -91, -99, 117, 112, -89, -87, -1, 113, 118, 15, 36, -56, -86, 100, -57, 14, -109, -42, -122, 86, -60, -48, -67, 92, -25, 62, 51, -19, 62, -95, -7, 38, -23, -87, -25, 59, -28, 102, -11, -37, 105, 33, -114, -120, -8, -59, 93, -120, -36, 81, -113, -59, -121, -32, 119, 95, -100, 63, 68, -7, -87, 120, -8, -106, 93, 116, -102, 34, 16, -123, -16, -73, -73, 107, -68, 95, 83, 2, -83, 19, 81, -77, -96, 4, 52, 39, 0, -46, 2, 45, 63, -48, -79, 96, -65, -24, 54, -71, -96, 92, 87, -57, -91, 72, -32, 105, -17, -117, -115, 117, 1, 126, -42, -49, -114, 100, 57, 82, 112, 66, 117, 103, 86, -73, 37, 10, 64, 12, -87, 19, -39, -24, -107, 54, 12, -88, 79, -57, 65, 38, -40, -124, -61, -96, -34, 30, 50, 86, -102, -29, -107, 65, -76, -7, 61, -112, -90, -6, -59, 58, -20, 106, -53, 30, 6, 36, -90, -39, -86, 45, -1, -100, 2, -67, -42, 60, 92, -6, -29, 111, -116, 37, 20, 69, 26, -116, 117, -64, -13, 52, -69, 95, -55, 109, -102, 65, -42, -87, 98, 62, 86, -7, -99, -76, -32, 38, 83, 99, 27, 1, -91, -42, 56, -57, -15, 113, -66, 15, -11, -123, -127, 105, 78, 75, 65, -24, -111, -112, -74, 94, -27, -73, 4, 58, 26, -105, -65, 104, -57, -67, 9, 85, -126, 16, -93, -25, 108, 13, -92, 92, 101, -47, -12, 42, -1, 45, 68, -118, -21, -17, -105, -91, -85, -11, -103, 61, 74, -128, -105, -114, -89, 71, -126, 46, 63, 8, 13, 96, -90, -16, 123, 20, 72, 46, -126, -77, 81, 124, 36, 18, 84, 53, 106, 61, -38, 47, -32, 31, -119, 95, -42, 120, 56, -52, -128, -59, 100, -102, -91, 125, 26, 120, -53, -42, -84, 19, 23, -95, -76, 55, 84, 39, 121, 29, 41, -62, -23, 53, 59, 10, 103, 119, -64, 93, 95, 70, 29, -5, -69, 59, -110, 87, 39, -81, 27, 90, -5, 28, -79, -105, 97, 60, 84, 88, 71, 72, 100, -12, 8, -115, 65, 14, -46, -19, -78, -5, 14, -41, 84, 82, 104, -41, 14, -22, 31, -17, 48, -107, 42, -51, 41, 36, 112, -17, -63, -31, 20, -59, 5, -78, 1, -82, 20, -95, -124, 22, -69, 23, -90, -88, -117, 10, 0, 97, -111, -5, -45, 50, 55, 96, -67, -113, 14, 22, -52, -109, 66, 31, 103, -45, -112, -68, -18, -11, 102, 67, 1, -43, -124, -91, 14, 11, -125, 22, -51, -68, -79, -109, -43, 43, 20, -18, 51, -42, 121, -9, 79, 121, -117, -20, -45, 4, -87, 6, 34, -15, -64, -76, -121, -91, -67, -106, 32, 10, 33, 122, 64, -33, 76, -13, -40, -33, 78, -92, 89, -50, 118, -89, -112, 12, -88, -65, -17, 98, 118, -4, -94, -23, 89, 67, -59, -61, -87, -91, 51, 44, -3, -23, 45, 15, -125, 22, -13, 57, 32, -29, -22, 92, 99, 95, -8, 91, -92, 76, 101, 36, 57, -12, -111, -93, 36, 55, 12, -15, 83, 95, -80, 118, -70, -83, -5, -40, -80, -37, -64, 36, -107, -92, 103, -94, 55, -119, -79, -20, 25, -33, 117, 41, 7, 24, 3, 92, 30, 48, 116, 110, -49, -4, -75, 79, -99, -90, -18, 92, 58, 71, -12, 57, 81, 84, -122, -37, 86, -46, -91, -27, 85, 69, -28, 89, 76, 10, 79, -126, -17, -121, 17, 60, -33, 48, 12, 93, 84, 56, -73, -15, 21, -64, 6, -98, 117, 103, 69, 68, 54, 60, -88, 45, -101, -20, 94, 11, -37, 124, 56, 40, -66, 79, -6, 110, -77, 114, -78, -85, 104, 121, 122, 1, -113, 18, 99, -4, -59, 107, 61, -20, 108, 69, 64, -8, -47, 87, -6, -1, 113, 32, -45, 47, -78, -105, 15, -13, -58, -79, 44, -35, -102, -119, -17, 54, -9, 6, 55, -83, 23, 118, 36, -29, 15, -8, -21, -50, -82, 96, 68, 95, 57, -101, 52, -67, -42, 44, 107, -81, -66, 85, 70, 48, -69, -58, 59, -98, -100, 126, 72, -27, 34, 120, 59, 2, 81, 91, 54, -32, -8, 36, 21, -35, \
108, -26, 125, 84, -37, 20, 1, 11, -84, 50, -122, -70, -43, 11, -49, 120, 66, -27, 39, -69, -46, 93, -22, 5, -76, -55, -39, -14, 73, -24, 17, -13, -37, 53, -128, -100, -106, -16, 43, -94, 32, 8, 103, 49, 124, 77, -23, -42, 126, -41, -116, -47, -42, -60, -73, 83, 56, -82, -3, -89, -98, -127, 17, -19, -42, -54, 11, -85, -71, 67, -122, 97, 81, 66, -125, 26, 94, 10, 69, 77, -99, -26, 125, 39, -120, -46, 83, -122, -89, -22, 111, -89, 82, 88, -124, -88, 114, -87, 58, 51, -53, 98, -15, -12, -128, -82, -11, 38, -76, -43, -59, 90, 78, -23, 101, -20, -122, 10, -36, 68, 14, 124, 39, 73, -98, 64, -72, 124, -116, -14, -62, -15, -110, -17, -36, -41, -111, -25, 68, -114, 54, 37, 122, 10, 109, -81, 60, -4, -122, -80, 79, -105, -46, -3, -18, -115, 45, 47, -10, -105, 45, -123, 55, -48, 97, -43, -82, 113, 13, 32, -24, 87, -74, 70, -70, -116, -106, -2, -106, -87, -63, 66, 41, -100, 62, -106, -36, 36, 42, 117, -42, -79, 113, -7, 22, -52, -123, -21, 16, 10, 12, -87, -44, -93, 107, -63, -128, -105, 91, -13, 121, 7, -53, 115, -29, 103, 37, -124, -25, 67, 15, -100, -90, 41, -33, -11, -5, 41, -20, 43, -97, -88, -95, 71, 124, -4, 82, 8, 77, -24, 50, -125, -109, 19, -105, -59, 51, -10, -123, 117, -12, 92, -92, 35, 95, -104, 48, 76, -71, 17, -84, -36, 99, 47, -94, 99, 118, 39, -4, -49, -121, 45, 70, 6, 7, 6, -23, -16, -15, -51, 104, -75, 117, -101, 114, -71, 109, -18, 51, 112, 65, -82, -58, 37, 116, 7, 51, -104, 123, -5, -43, 31, -82, 68, 101, -69, 72, 114, 54, 63, 102, -90, 18, 81, 120, -118, 86, -50, 69, -58, 19, 56, -24, 21, -106, -75, 97, -45, 94, 43, 37, -38, -20, -1, -68, 52, -106, 73, 57, -10, 50, -111, 95, -108, -3, -126, 31, 72, -32, 21, 99, -17, 82, 77, 16, 87, -28, -95, 88, -78, 4, 109, 104, 57, 45, 23, 81, -62, -73, 94, 68, 1, -81, -23, -122, 98, 118, -45, -123, 51, 120, -127, 117, 95, 81, -61, -128, -100, -10, 77, 60, 76, -94, -14, 88, 54, 75, -63, -92, -91, -78, 17, 103, -52, 112, -101, -47, 95, -15, 5, -82, -22, -102, 3, 56, -45, 85, 41, 65, 61, 113, 56, 58, -4, 83, -27, -5, -73, -18, -92, -75, -14, -128, 3, -67, 96, -15, 64, 9, 37, 46, -94, 86, 66, 93, 36, 90, -124, -125, -123, 78, -97, -111, -12, -21, 10, 74, -85, 121, 89, 14, -52, -12, -78, 21, 122, 29, -50, 61, -92, 20, 117, -22, -3, 109, 46, -40, 104, 24, 105, -26, 57, -103, 115, -77, 76, 21, -77, 72, -107, 79, -88, 104, -71, 53, -92, 39, -63, -91, 90, -94, -74, -84, -100, 126, -125, -1, -80, 117, -125, 117, 27, 1, 0, -21, -30, 101, -102, 75, 13, -19, -60, 104, -12, -68, -68, 16, -51, 50, 58, -117, 25, -70, -54, 28, 37, -5, -21, -67, -69, -36, -15, 51, -45, -52, -28, 38, 76, 97, 107, 42, 73, 101, -87, 91, -29, -125, -47, 78, -51, -20, -21, 117, -71, 105, 81, -51, -44, 70, -7, 32, 97, -63, 59, 69, 54, 75, 124, 96, 5, -71, 9, 33, -89, 125, -70, 65, 45, 71, 100, -76, -110, -54, -112, 18, 62, 112, 5, -48, -79, 43, 74, 92, -44, -104, -120, 23, -17, 34, -103, 76, -86, -49, 119, -121, -9, -64, 119, -5, 98, -80, -37, 24, -94, 1, -128, -58, 49, 118, -43, -30, 45, 14, 89, -36, 76, -82, -107, 89, -80, -73, -77, 106, 48, 9, -34, 97, -72, -65, -105, 101, 86, 37, 50, -11, -2, 73, 48, 120, 45, -112, 27, -87, 111, -99, 92, 111, 15, -18, 50, 22, 110, -98, 64, -126, -125, 37, 122, 6, -35, 28, 63, 76, -66, 35, -51, 87, 20, 37, 68, 109, 96, -1, -107, 20, 118, 34, 76, 94, 32, -37, -114, -50, 110, -101, -28, -17, -11, 54, 0, 18, 10, -50, -27, -56, 122, 58, 8, -116, -18, -15, 50, -63, -41, 99, -64, -20, -86, -50, 34, 60, -106, 18, -79, 27, -2, -97, -74, -95, -124, 74, 122, -104, -62, 99, 124, 60, -126, -86, -8, -64, -67, -78, -55, 75, 111, -16, 116, -50, -29, 72, 48, -35, -102, -82, 72, -117, 117, -82, -110, 72, -47, -33, -34, -104, -65, 69, -91, 35, 24, 99, 38, -114, -78, -34, -113, -101, 11, 107, -76, 1, 123, -58, -4, 50, -3, -100, 42, 9, -35, 55, -104, 101, -42, 54, 76, -55, 13, 45, -54, 83, 12, -97, -33, -19, 66, -32, -112, 113, 27, 55, 112, -61, -88, 87, 5, -25, 37, -61, 19, -7, 78, 85, 56, 64, 106, 69, 32, 60, 104, -88, -31, 28, -52, -10, 21, 76, -26, -21, -33, -63, -40, 29, -29, -24, -26, -109, -96, -27, -16, 107, 55, 42, 68, 64, -40, -88, 82, 7, -71, -88, 18, -4, -112, -52, -33, 45, -69, -33, -39, -7, 46, 67, -18, -123, 46, -42, 27, 85, 80, 38, 39, -37, 53, -7, -92, -62, 116, 79, -82, -25, 16, 24, -90, 115, -44, -13, -29, 59, -69, 10, 4, 1, -30, 37, -102, -50, 24, 111, 31, -49, 100, 120, 103, 16, -7, -98, 98, 93, 41, 113, -127, -124, -42, -109, 35, -121, 114, -3, 24, -98, 41, 68, 71, -80, 85, 44, -97, 121, -121, 14, 42, 55, -18, -109, 91, 91, -24, -74, 118, -47, 114, 101, -91, -9, -31, -27, -115, -67, 115, 118, -101, -106, -49, -110, -10, 59, -42, 60, 25, -73, -101, 66, 114, 63, 66, -55, 88, 73, 45, -80, -83, 124, -88, 37, -89, -95, -2, 63, 93, 43, 20, 25, 58, 22, 58, -99, 125, -50, -98, -8, -122, 31, -58, -69, -47, -76, 64, 81, 19, 63, -96, -46, 125}
#define BIAS_SHIFT 0
#define OUT_MULT 0
#define OUT_SHIFT 0
#define IN_INT8 {251, 69, 7, 75, 146, 205, 187, 233, 18, 124, 94, 60, 251, 62, 228, 48, 108, 225, 77, 184, 234, 192, 132, 174, 59, 67, 121, 159, 98, 156, 204, 74, 65, 54, 250, 90, 97, 149, 110, 4, 226, 128, 219, 182, 230, 112, 89, 182, 106, 205, 132, 212, 206, 254, 149, 41, 82, 122, 161, 64, 156, 132, 229, 185, 65, 38, 34, 24, 66, 57, 202, 61, 22, 91, 192, 155, 204, 148, 179, 174, 29, 98, 75, 243, 139, 127, 254, 189, 12, 64, 230, 187, 207, 64, 245, 30, 108, 185, 176, 26, 102, 111, 136, 244, 62, 126, 232, 153, 141, 59, 185, 196, 11, 9, 73, 91, 14, 41, 55, 24, 62, 35, 89, 201, 185, 229, 210, 37, 75, 229, 119, 110, 186, 150, 250, 80, 171, 248, 23, 109, 178, 136, 74, 219, 80, 218, 82, 25, 121, 185, 52, 84, 138, 74, 49, 74, 103, 95, 105, 111, 41, 196, 127, 198, 214, 79, 63, 9, 173, 235, 75, 12, 102, 250, 250, 45, 106, 64, 24, 239, 241, 143, 93, 129, 214, 80, 80, 175, 48, 103, 166, 227, 134, 108, 48, 36, 21, 248, 0, 246, 227, 77, 44, 83, 25, 251, 216, 108, 169, 26, 171, 126, 243, 162, 59, 197, 253, 94, 54, 96, 117, 117, 8, 179, 144, 194, 94, 140, 157, 33, 248, 155, 134, 121, 68, 36, 242, 31, 58, 33, 102, 182, 165, 177, 78, 181, 5, 109, 238, 33, 179, 246, 28, 229, 33, 130, 164, 102, 234, 61, 89, 94, 200, 36, 140, 46, 83, 163, 81, 7, 178, 53, 157, 113, 180, 26, 152, 196, 69, 145, 163, 201, 124, 142, 109, 7, 166, 65, 102, 15, 38, 251, 177, 200, 60, 233, 198, 222, 46, 157, 183, 171, 18, 85, 226, 94, 202, 152, 183, 193, 52, 30, 234, 27, 81, 180, 215, 27, 74, 2, 21, 156, 223, 242, 188, 50, 208, 183, 244, 209, 95, 93, 240, 246, 207, 90, 84, 6, 17, 39, 98, 189, 224, 108, 16, 3, 113, 252, 153, 238, 197, 101, 75, 172, 207, 116, 186, 115, 126, 51, 133, 32, 72, 165, 136, 101, 97, 223, 23, 3, 115, 83, 139, 251, 123, 238, 84, 224, 2, 84, 7, 234, 10, 53, 232, 113, 32, 130, 194, 84, 254, 97, 28, 239, 152, 49, 43, 126, 170, 125, 115, 109, 50, 171, 203, 242, 88, 84, 240, 153, 212, 246, 193, 148, 39, 217, 26, 132, 117, 155, 104, 38, 71, 196, 44, 237, 254, 201, 146, 163, 131, 209, 240, 209, 139, 102, 83, 195, 169, 16, 174, 232, 22, 91, 53, 239, 242, 48, 146, 151, 68, 43, 66, 60, 229, 189, 92, 212, 145, 172, 46, 212, 53, 248, 80, 228, 217, 84, 21, 192, 25, 239, 77, 157, 121, 33, 194, 15, 192, 49, 234, 193, 106, 26, 152, 175, 88, 80, 234, 149, 217, 129, 172, 22, 113, 104, 146, 9, 235, 144, 25, 62, 63, 121, 216, 195, 175, 54, 76, 64, 130, 130, 225, 212, 243, 179, 43, 34, 253, 54, 137, 31, 139, 153, 90, 101, 198, 246, 119, 253, 151, 175, 248, 88, 242, 27, 87, 143, 127, 146, 95, 137, 138, 40, 92, 63, 232, 251, 161, 22, 220, 154, 246, 156, 142, 8, 113, 79, 81, 94, 20, 201, 237, 210, 141, 106, 56, 46, 117, 68, 78, 82, 24, 154, 104, 111, 244, 1, 27, 24, 128, 106, 102, 246, 218, 125, 189, 160, 170, 169, 157, 198, 158, 229, 16, 252, 75, 2, 48, 154, 217, 95, 26, 224, 106, 34, 177, 106, 87, 78, 250, 188, 172, 108, 7, 114, 202, 38, 119, 2, 183, 178, 251, 195, 100, 109, 236, 170, 242, 209, 216, 211, 129, 73, 89, 101, 117, 11, 108, 195, 93, 75, 165, 180, 212, 222, 62, 23, 10, 44, 3, 44, 183, 75, 174, 209, 142, 207, 24, 54, 132, 140, 25, 7, 109, 152, 115, 49, 75, 48, 122, 240, 46, 63, 101, 112, 233, 227, 226, 66, 160, 84, 14, 107, 160, 106, 170, 14, 83, 5, 238, 210, 98, 85, 11, 212, 6, 86, 118, 30, 218, 129, 75, 76, 35, 10, 146, 154, 109, 72, 72, 136, 185, 220, 162, 65, 116, 232, 230, 113, 56, 109, 147, 118, 163, 235, 192, 113, 185, 50, 231, 125, 189, 163, 53, 8, 14, 139, 161, 48, 12, 205, 18, 151, 170, 73, 250, 31, 133, 64, 111, 78, 28, 151, 137, 94, 50, 240, 170, 198, 56, 202, 191, 247, 197, 77, 29, 217, 25, 160, 134, 200, 196, 52, 100, 114, 19, 65, 203, 129, 171, 25, 91, 125, 95, 237, 2, 62, 121, 241, 58, 117, 181, 193, 32, 242, 148, 74, 127, 96, 92, 83, 56, 35, 132, 204, 170, 175, 58, 205, 200, 5, 130, 45, 181, 90, 59, 128, 241, 168, 206, 106, 127, 211, 16, 113, 188, 112, 121, 169, 85, 216, 30, 48, 51, 161, 225, 44, 251, 109, 200, 25, 160, 106, 52, 3, 121, 160, 182, 87, 60, 152, 95, 249, 103, 51, 209, 10, 52, 10, 187, 33, 87, 64, 109, 38, 132, 208, 34, 246, 235, 51, 52, 81, 78, 0, 108, 143, 118, 69, 9, 74, 118, 141, 231, 212, 45, 173, 102, 176, 173, 210, 246, 191, 223, 78, 124, 201, 200, 53, 237, 225, 243, 60, 108, 218, 207, 182, 97, 36, 135, 160, 154, 17, 0, 173, 111, 104, 61, 187, 247, 191, 104, 105, 59, 170, 50, 246, 60, 126, 196, 161, 122, 200, 41, 91, 46, 37, 152, 133, 110, 5, 210, 139, 76, 45, 254, 144, 246, 249, 120, 99, 60, 122, 237, 105, 22, 176, 143, 69, 98, 253, 205, 239, 234, 177, 179, 116, 249, 73, 8, 144, 107, 163, 202, 113, 0, 182, 174, 28, 73, 226, 61, 189, 199, 48, 53, 177, 70, 177, 211, 26, 79, 71, 4, 214, 118, 122, 11, 234, 26, 70, 103, 151, 186, 88, 27, 14, 196, 86, 202, 252, 5, 226, 105, 170, 225, 219, 236, 52, 21, 16, 40, 18}
#define OUT_INT32 {51876, -140107, -652098, 536888, -967512, -236365, 107849, -216285, -469450, 15713, 52624, -469421, -305659, 159223, 238808, -147701}


#endif
